{"format": "layers-v1", "algorithm": "ppo-style", "policy": "categorical", "output": "logits", "readOnly": true, "layers": [{"in": 11, "out": 64, "w": [0.021059095859527588, -0.1816285252571106, 0.09600827097892761, 0.09460839629173279, -0.16115084290504456, -0.032320525497198105, -0.1766337752342224, 0.07630633562803268, -0.08201023191213608, 0.21182280778884888, 0.21483150124549866, 0.030715078115463257, -0.12854091823101044, -0.17709606885910034, -0.03311187028884888, -0.08485376834869385, 0.11954625695943832, -0.2574593722820282, 0.2852656841278076, -0.23580512404441833, 0.2308838963508606, -0.05306728184223175, 0.15509408712387085, 0.11749747395515442, 0.012621283531188965, 0.05622053146362305, 0.2289702296257019, 0.06459494680166245, 0.15996605157852173, -0.2311939150094986, 0.21554045379161835, 0.103770911693573, 0.07547451555728912, 0.0416523814201355, 0.14697638154029846, 0.27691805362701416, -0.06709112226963043, -0.16797411441802979, -0.08916814625263214, -0.18376626074314117, 0.14835229516029358, -0.14667712152004242, -0.1609163135290146, 0.2578117847442627, 0.2759058475494385, 0.03467807173728943, -0.052210524678230286, -0.03892055153846741, 0.142833411693573, -0.2777009606361389, -0.24640846252441406, 0.23905500769615173, 0.29613298177719116, -0.01791730523109436, -0.23671025037765503, 0.008238226175308228, -0.1402689516544342, -0.0005796551704406738, 0.1475788950920105, 0.13347142934799194, -0.022274043411016464, 0.0331951379776001, 0.08126045018434525, -0.23575784265995026, -0.102224200963974, 0.011232956312596798, -0.17204515635967255, -0.13168035447597504, 0.10127091407775879, 0.17352831363677979, 0.004224687814712524, -0.1033221185207367, 0.16508445143699646, -0.16750280559062958, -0.07168623059988022, 0.2844368815422058, 0.05644407495856285, 0.02124488353729248, 0.10164397954940796, -0.07352475821971893, 0.2579669952392578, -0.24591761827468872, -0.07972624152898788, -0.052121490240097046, -0.12339642643928528, -0.07361101359128952, 0.18686264753341675, 0.16442427039146423, 0.016765087842941284, 0.26267296075820923, -0.21288231015205383, -0.17979085445404053, 0.13622775673866272, -0.028291014954447746, -0.2747638523578644, -0.2069590538740158, -0.18282321095466614, 0.2328304648399353, 0.13581685721874237, 0.2332519292831421, -0.22447258234024048, -0.293963223695755, -0.1977224051952362, 0.032256126403808594, -0.07299518585205078, -0.19000455737113953, 0.22158363461494446, -0.09631600975990295, -0.1743873804807663, 0.13835695385932922, -0.08123855292797089, 0.19221758842468262, 0.0718570351600647, 0.007438570261001587, 0.06329557299613953, -0.2390691041946411, -0.1613253504037857, -0.13970351219177246, -0.16966882348060608, 0.05346521735191345, 0.05929733067750931, -0.12527628242969513, 0.19655293226242065, -0.1677599996328354, 0.06087237596511841, -0.08609534800052643, -0.27545833587646484, -0.19632846117019653, 0.12543128430843353, 0.12037526816129684, -0.18644070625305176, -0.09508036822080612, -0.28186658024787903, 0.16207534074783325, 0.2607138752937317, 0.09860154986381531, -0.1865597814321518, 0.172377809882164, 0.2502199411392212, -0.06384003907442093, -0.0504402332007885, 0.10435867309570312, 0.03980378061532974, -0.09965299069881439, -0.2799128293991089, -0.21141943335533142, 0.016328155994415283, -0.016174107789993286, 0.2369716316461563, 0.010318964719772339, -0.07577890157699585, -0.2937561273574829, -0.2772180736064911, 0.12439970672130585, 0.26855677366256714, -0.004574775695800781, -0.2694912850856781, 0.10704842209815979, 0.24557393789291382, -0.2123439610004425, -0.07938317954540253, 0.02736404724419117, -0.1710420697927475, -0.2795741856098175, 0.131087526679039, -0.24741403758525848, -0.07568162679672241, -0.16009746491909027, 0.22674846649169922, 0.0582161545753479, 0.15225990116596222, -0.20417416095733643, 0.2522941827774048, 0.026145026087760925, -0.16722865402698517, -0.019004391506314278, -0.21348683536052704, -0.013917535543441772, 0.16836661100387573, -0.13554242253303528, 0.2548593282699585, 0.07941495627164841, -0.05276019871234894, 0.0963093563914299, -0.05448513478040695, -0.07007607817649841, -0.198874831199646, 0.17568498849868774, 0.18099522590637207, 0.1032387912273407, 0.1783217489719391, 0.3012234568595886, 0.2966659367084503, -0.2909698188304901, 0.06642337143421173, -0.02707364782691002, 0.10238009691238403, -0.05721740052103996, 0.0841546356678009, -0.2774193584918976, 0.13780847191810608, 0.2896718382835388, -0.05422361195087433, -0.2531573474407196, -0.250637948513031, -0.05597584694623947, -0.0038863946683704853, 0.03362756967544556, 0.037156496196985245, 0.22710758447647095, -0.05470028519630432, 0.0860440731048584, -0.16024263203144073, 0.29654914140701294, 0.128215491771698, -0.04181531071662903, 0.19627755880355835, 0.10587818920612335, 0.05170854926109314, -0.08815457671880722, 0.03791281580924988, 0.021556347608566284, -0.17615924775600433, 0.004314512014389038, 0.06584113836288452, -0.16493619978427887, 0.053857892751693726, -0.10223010182380676, -0.2517290711402893, -0.1805717945098877, -0.23841308057308197, 0.06977897882461548, 0.18443402647972107, 0.274112343788147, 0.2956327795982361, 0.11875742673873901, 0.13417471945285797, -0.051418572664260864, 0.25114908814430237, -0.11455997079610825, -0.08193239569664001, -0.1010596752166748, -0.20211920142173767, -0.23237615823745728, -0.06146371364593506, 0.24368435144424438, -0.15020208060741425, -0.26918262243270874, -0.06888963282108307, 0.2727580964565277, 0.07261573523283005, -0.019058704376220703, -0.08608222752809525, 0.26473861932754517, -0.2897240221500397, 0.1708495318889618, 0.08186528086662292, 0.1890089213848114, -0.18774960935115814, -0.0988597571849823, -0.12465672194957733, 0.29348114132881165, -0.03893283009529114, -0.28842270374298096, 0.15118443965911865, 0.058133870363235474, 0.041258424520492554, -0.2010631263256073, -0.28244760632514954, 0.2863226532936096, -0.227081298828125, -0.05900068208575249, -0.05580518767237663, 0.17219308018684387, -0.25364261865615845, -0.1725718230009079, -0.16157658398151398, -0.15202820301055908, 0.18445098400115967, 0.1845625638961792, 0.1499844789505005, 0.2461192011833191, -0.20238129794597626, -0.0018802795093506575, -0.24399903416633606, 9.25884087337181e-05, -0.25769731402397156, -0.2904053330421448, 0.1899140477180481, -0.13342750072479248, -0.024023324251174927, -0.07699713855981827, -0.23914402723312378, -0.03184971213340759, 0.04376111179590225, 0.24091553688049316, -0.12748128175735474, 0.28727591037750244, -0.13960430026054382, 0.19299641251564026, 0.26336008310317993, 0.03117591142654419, -0.08957451581954956, 0.2230343222618103, -0.09008445590734482, -0.12998881936073303, -0.10511042177677155, -0.24500145018100739, -0.030128419399261475, -0.2452906370162964, 0.19745811820030212, -0.29039087891578674, -0.22399961948394775, 0.07186979800462723, 0.18652531504631042, 0.2865774631500244, -0.24510276317596436, 0.24768447875976562, 0.21200919151306152, -0.1977968066930771, 0.1257041096687317, -0.0848151296377182, 0.0867893397808075, -0.26692110300064087, -0.18613995611667633, -0.19115059077739716, -0.056831855326890945, -0.010145872831344604, -0.006488174200057983, -0.17893843352794647, 0.14891868829727173, 0.1531658172607422, -0.2644920349121094, -0.2794768214225769, -0.06478990614414215, 0.0707707554101944, -0.22964675724506378, -0.025830648839473724, 0.017874067649245262, -0.2303863912820816, 0.28158149123191833, 0.21837133169174194, 0.2302953004837036, -0.12294818460941315, -0.2154942899942398, 0.03702205419540405, 0.18964257836341858, 0.14749759435653687, -0.1976737529039383, 0.23577222228050232, -0.14294099807739258, -0.05178588256239891, -0.0845399796962738, 0.14355003833770752, -0.28132006525993347, -0.19199183583259583, -0.036483705043792725, 0.21992382407188416, -0.07259681820869446, 0.18735674023628235, 0.27535876631736755, 0.01133081316947937, -0.2023184597492218, 0.001677393913269043, 0.11731377243995667, -0.06421248614788055, -0.29438507556915283, 0.17944195866584778, -0.11870794743299484, -0.21088233590126038, 0.15187661349773407, 0.07188984006643295, 0.21967440843582153, -0.06020338460803032, 0.1864420771598816, -0.07159256935119629, -0.18720416724681854, 0.2783384323120117, 0.2966596484184265, 0.22840292751789093, -0.08415473997592926, -0.13333660364151, 0.0527360662817955, 0.15178781747817993, 0.039040613919496536, 0.1269523799419403, -0.014398634433746338, 0.17101430892944336, 0.14303633570671082, 0.17174145579338074, -0.03525156155228615, -0.24814605712890625, -0.18722806870937347, -0.14970648288726807, 0.25498974323272705, -0.015979742631316185, -0.04049164056777954, -0.1176217645406723, -0.012660950422286987, 0.20322680473327637, 6.693601608276367e-05, 0.1286318302154541, 0.17266064882278442, -0.29199710488319397, 0.10615966469049454, 0.3012625575065613, -0.15349750220775604, 0.04899066686630249, 0.006780773401260376, 0.15937185287475586, 0.07264319062232971, -0.22652220726013184, -0.21228845417499542, 0.2574477791786194, -0.1318749636411667, -0.2657811939716339, -0.2705913782119751, -0.2615327537059784, 0.06884223222732544, 0.03485545516014099, -0.17502960562705994, -0.06811347603797913, 0.047134339809417725, 0.09704253822565079, 0.12309962511062622, -0.16028861701488495, 0.28502681851387024, 0.28166133165359497, -0.2150333672761917, 0.2794722318649292, -0.24700435996055603, -0.19900095462799072, 0.059528499841690063, 0.08842673897743225, 0.25517213344573975, 0.0015176832675933838, 0.20560327172279358, -0.09967250376939774, -0.21970507502555847, -0.030149094760417938, 0.1565302610397339, -0.11779052019119263, -0.2552155554294586, -0.18366371095180511, 0.053412020206451416, 0.3006976842880249, 0.016668319702148438, -0.2445622831583023, -0.1353076547384262, 0.1530199646949768, -0.09456732124090195, -0.0406973659992218, 0.22430413961410522, 0.11082661151885986, 0.18458130955696106, 0.2706846594810486, -0.0863284170627594, 0.043712764978408813, -0.22823338210582733, 0.29876676201820374, -0.2021067589521408, 0.2875259220600128, 0.2760564684867859, 0.06559208035469055, -0.260684072971344, -0.009717583656311035, -0.1242617666721344, 0.10225936025381088, 0.1704990565776825, 0.1665835976600647, 0.09635190665721893, -0.23103493452072144, -0.25312867760658264, 0.08902379870414734, -0.066144660115242, 0.14091762900352478, 0.29304414987564087, 0.09104844927787781, -0.16940489411354065, -0.08706608414649963, 0.18402880430221558, 0.027906322851777077, 0.20559972524642944, -0.28827518224716187, -0.037152647972106934, -0.1470424383878708, 0.22912025451660156, 0.13188403844833374, -0.04042458534240723, -0.2705078125, -0.03554719686508179, 0.24259385466575623, -0.009180542081594467, -0.012487649917602539, -0.2777225077152252, 0.2387099266052246, 0.24947291612625122, -0.24226222932338715, -0.2138851284980774, 0.014609158039093018, -0.16063402593135834, -0.24670980870723724, 0.09270523488521576, -0.07906991988420486, 0.10451099276542664, 0.1207292303442955, 0.2684905529022217, 0.17913976311683655, -0.2834358215332031, -0.2429855763912201, 0.24165606498718262, -0.2690996825695038, 0.18428859114646912, -0.18188659846782684, 0.24266918003559113, 0.17051738500595093, -0.20885135233402252, -0.2492784708738327, -0.13219653069972992, -0.13784173130989075, -0.17111904919147491, 0.21247178316116333, 0.08714962750673294, -0.03784087300300598, -0.02235342003405094, 0.12474322319030762, 0.030880898237228394, -0.0366089828312397, 0.2677266597747803, 0.20806151628494263, 0.02114182710647583, 0.20808404684066772, -0.06498683989048004, -0.24432583153247833, 0.1731717586517334, 0.16996686160564423, 0.05022700875997543, -0.25724300742149353, 0.21630890667438507, 0.021445155143737793, -0.1587854027748108, -0.266005277633667, -0.15656884014606476, 0.2803601622581482, 0.16183462738990784, -0.13300944864749908, 0.2475900650024414, 0.257388710975647, 0.1498602032661438, -0.025988616049289703, 0.2825554609298706, -0.06821386516094208, -0.12579509615898132, 0.14407014846801758, -0.12579095363616943, 0.20703566074371338, -0.16038097441196442, 0.113060861825943, -0.220906600356102, -0.2008955180644989, 0.014384261332452297, 0.23767298460006714, -0.23108425736427307, -0.08018894493579865, 0.140250563621521, -0.05396471917629242, -0.2579418420791626, -0.0034677088260650635, -0.10796315222978592, 0.07075141370296478, 0.12406507134437561, -0.08956661075353622, -0.15446603298187256, 0.17826798558235168, -0.25975167751312256, 0.1471535861492157, 0.12117239832878113, 0.10665276646614075, -0.21035829186439514, 0.1231931522488594, -0.17914587259292603, 0.1347426474094391, -0.14118742942810059, 0.06636306643486023, 0.003306657075881958, -0.20848509669303894, -0.28018251061439514, -0.07112032175064087, 0.1925487220287323, -0.06897513568401337, -0.07980310916900635, -0.18788474798202515, -0.2182767689228058, -0.023802965879440308, -0.07885484397411346, 0.10789039731025696, 0.29288220405578613, -0.20731262862682343, -0.0925944447517395, 0.12484010308980942, -0.20351079106330872, -0.03525187447667122, -0.15359120070934296, 0.19176292419433594, -0.0328698493540287, 0.024773001670837402, 0.17929452657699585, -0.21360519528388977, -0.1628505438566208, 0.2337154746055603, 0.10588621348142624, -0.02700716257095337, 0.3025493025779724, 0.2649582326412201, -0.1303979456424713, -0.08493201434612274, 0.13067510724067688, -0.18801087141036987, -0.29971402883529663, -0.15219202637672424, -0.2760724723339081, 0.20547473430633545, 0.07631394267082214, -0.2563965320587158, -0.014084091410040855, 0.2889041304588318, -0.17490093410015106, -0.19095158576965332, 0.1296059787273407, -0.2129935324192047, -0.2812732756137848, 0.1705716848373413, -0.02506685070693493, 0.15980654954910278, -0.06468579918146133, 0.2827377915382385, -0.12442678213119507, 0.2513826787471771, -0.17150288820266724, -0.10597556829452515, 0.2328963279724121, 0.13365516066551208, -0.21996261179447174, -0.042444076389074326, 0.17799702286720276, -0.2316189408302307, 0.015003207139670849, 0.18467625975608826, -0.23102886974811554, 0.11469501256942749, -0.2915092706680298, -0.2819768488407135, 0.006631255149841309, -0.27246934175491333, -0.12602132558822632, 0.17842280864715576, -0.059278469532728195, -0.20233961939811707, 0.24606990814208984, -0.29398149251937866, 0.06157684326171875, -0.19730380177497864, -0.16788724064826965, 0.024461686611175537, 0.29698044061660767, -0.09375879168510437, -0.29951468110084534, 0.06747489422559738, -0.11869964748620987, -0.20143671333789825, 0.11780089884996414, 0.11907848715782166, -0.1492050588130951, 0.019702911376953125, 0.043718159198760986, 0.022275030612945557, -0.06025496497750282, -0.1742495745420456, 0.1683066487312317, 0.22842691838741302, 0.2438366413116455, 0.2498050034046173, -0.01461106538772583, 0.024166524410247803, -0.11990875005722046, -0.07149973511695862, 0.07729765772819519, 0.01185008604079485, -0.21614545583724976, -0.21391943097114563, 0.14049798250198364, 0.2300034761428833, 0.2787337005138397, 0.18420502543449402, 0.17348161339759827, 0.1263800859451294, 0.20324081182479858, -0.07731656730175018, 0.03375421464443207, 0.12171265482902527, 0.06585706025362015, -0.024897703900933266, -0.15846242010593414, -0.2156338095664978], "b": [-0.17444370687007904, 0.029928378760814667, 0.2786523699760437, -0.10748307406902313, -0.24717354774475098, -0.2620061933994293, 0.11671215295791626, 0.1262720823287964, -0.16048045456409454, -0.11606325209140778, 0.2344457060098648, -0.2541772425174713, 0.1760522723197937, 0.010972976684570312, -0.1408136636018753, 0.29060259461402893, -0.1970949023962021, 0.270610511302948, 0.25057581067085266, 0.102767214179039, 0.1955309510231018, 0.07387116551399231, 0.25237584114074707, 0.06817394495010376, -0.30165523290634155, -0.12790170311927795, 0.043229736387729645, 0.21100839972496033, -0.08808808773756027, 0.11028023809194565, 0.1158805638551712, 0.025124261155724525, -0.24921193718910217, 0.288194864988327, -0.14595776796340942, 0.04834969341754913, -0.116582952439785, 0.07617355138063431, 0.20471706986427307, 0.06439269334077835, -0.13129401206970215, 0.06587940454483032, -0.24732165038585663, 0.25274088978767395, 0.16061122715473175, 0.2151416689157486, 0.07697603851556778, -0.3009733557701111, -0.2129775732755661, -0.27478092908859253, 0.1770002692937851, 0.29116538166999817, 0.19701918959617615, -0.12222129106521606, -0.1841355562210083, -0.17392408847808838, 0.28216028213500977, -0.2906770408153534, -0.2940335273742676, 0.12456006556749344, 0.02986251190304756, -0.1547253429889679, -0.1677275151014328, -0.2887759506702423], "act": "relu"}, {"in": 64, "out": 64, "w": [0.042684003710746765, -0.06528732180595398, -0.03468865156173706, 0.06478457897901535, -0.1030556708574295, 0.12348565459251404, -0.038906529545784, 0.08183544874191284, -0.019377339631319046, 0.07666100561618805, -0.06800062209367752, -0.036051616072654724, -0.06073235720396042, 0.08351650089025497, -0.12051693350076675, 0.08169414848089218, 0.0005433416226878762, -0.08018717169761658, -0.037151891738176346, -0.015966951847076416, -0.036687057465314865, -0.056809548288583755, -0.035035140812397, 0.012458172626793385, 0.06183568015694618, 0.022299757227301598, 0.08964572846889496, -0.010861840099096298, 0.1016162857413292, 0.040662385523319244, -0.0889648050069809, 0.08682967722415924, 0.025273919105529785, 0.07897338271141052, -0.11711321771144867, -0.00666978070512414, -0.11408161371946335, -0.027935873717069626, -0.04533889517188072, -0.07855059951543808, -0.07702398300170898, 0.09703288972377777, 0.04849748685956001, 0.041124485433101654, 0.02082846313714981, 0.03798370435833931, 0.011712637729942799, -0.11976032704114914, -0.02581101655960083, 0.07787728309631348, -0.01711576245725155, 0.02102113887667656, 0.07548951357603073, 0.07459581643342972, -0.02085038460791111, 0.1003219485282898, -0.03839518129825592, -0.001962251728400588, 0.10194750130176544, -0.06906618922948837, 0.12121079862117767, -0.061806559562683105, -0.06197335198521614, 0.09684909135103226, 0.08909407258033752, -0.08379127830266953, 0.05894707888364792, 0.009715883061289787, -0.09373701363801956, -0.03715413063764572, 0.008891659788787365, -0.11778023093938828, -0.009412981569766998, 0.043291326612234116, 0.0918198749423027, 0.0976952463388443, -0.053275443613529205, 0.057933468371629715, 0.026055729016661644, -0.0059263333678245544, -0.09577298909425735, 0.03618113696575165, 0.11592646688222885, -0.10401837527751923, -0.009716340340673923, 0.07481290400028229, 0.0016126834088936448, 0.0903107225894928, -0.018676230683922768, -0.07086090743541718, -0.10138963907957077, -0.08492251485586166, -0.019762257114052773, 0.07907450944185257, 0.013167114928364754, 0.007690221071243286, 0.10203419625759125, 0.034023333340883255, -0.054590046405792236, -0.04342293739318848, 0.06899812817573547, -0.051120731979608536, 0.040675267577171326, 0.054854921996593475, 0.0036895964294672012, -0.08822863548994064, -0.06442152708768845, -0.11376604437828064, 0.04242128133773804, -0.11678002774715424, -0.07016923278570175, 0.1168900653719902, 0.008280671201646328, 0.05918961763381958, -0.061018381267786026, -0.02858872152864933, -0.060696832835674286, 0.04568742215633392, -0.08092997968196869, -0.05524424463510513, 0.022430775687098503, 0.004121862817555666, -0.06100784242153168, 0.009437981061637402, -0.019571393728256226, -0.11861494183540344, 0.11506906151771545, -0.1027677059173584, 0.04124564677476883, 0.06614861637353897, -0.022681785747408867, -0.03529403731226921, 0.11314785480499268, 0.09462539851665497, -0.01992330141365528, -0.04230738803744316, -0.06566452234983444, 0.09071610867977142, -0.06673075258731842, 0.036738041788339615, 0.03559567406773567, 0.097792848944664, -0.0004344820627011359, 0.0630607157945633, -0.0686553493142128, -0.05014627054333687, -0.04849224537611008, -0.12138886004686356, -0.11132092028856277, 0.06027651205658913, 0.05438042804598808, -0.03221973776817322, -0.11298951506614685, 0.0863584354519844, 0.12000934034585953, 0.13438040018081665, -0.05581922084093094, -0.10940797626972198, 0.08054914325475693, 0.06622544676065445, 0.09651701897382736, 0.03153073415160179, 0.0866951048374176, -0.05387867987155914, -0.09943491965532303, 0.02043757773935795, 0.10642776638269424, -0.07939038425683975, 0.06655101478099823, -0.052060648798942566, -0.08527285605669022, -0.03586208447813988, 0.12128451466560364, 0.1060786172747612, 0.10194816440343857, 0.1211179718375206, -0.015772869810461998, 0.05325497314333916, 0.04180477559566498, -0.05289890617132187, 0.08060767501592636, -0.015050719492137432, -0.045037563890218735, 0.06921099871397018, 0.12784379720687866, 0.09801074862480164, 0.007613213267177343, -0.08112027496099472, 0.11341997236013412, 0.05030963942408562, 0.10478584468364716, -0.03624691069126129, 0.0745120644569397, 0.0021233244333416224, 0.08807501941919327, 0.02878662757575512, -0.054796382784843445, 0.05531451106071472, 0.12087469547986984, -0.08224185556173325, 0.1222958192229271, 0.09133348613977432, 0.10621870309114456, 0.018708661198616028, -0.038354214280843735, -0.04058926925063133, -0.015749623998999596, -0.08393984287977219, 0.04687286540865898, 0.05887443944811821, -0.027107851579785347, 0.11003635078668594, 0.04336020350456238, 0.12213186174631119, 0.11233269423246384, -0.023954002186655998, -0.10115020722150803, -0.0810379758477211, 0.11955803632736206, -0.06620719283819199, 0.004906092770397663, 0.07951989024877548, -0.04061581566929817, 0.07465943694114685, -0.08520281314849854, 0.023656195029616356, 0.05915643647313118, -0.1028941348195076, -0.04371781274676323, -0.06228182464838028, -0.02330813743174076, 0.11867544800043106, 0.11196670681238174, 0.06470884382724762, -0.06672696024179459, -0.02493414469063282, 0.010036149062216282, 0.11909481883049011, -0.10478520393371582, -0.02895686961710453, -0.11824433505535126, 0.04494701325893402, -0.017434094101190567, -0.05679183453321457, -0.11563900858163834, -0.04000973701477051, -0.10720815509557724, 0.0404248870909214, -0.10586513578891754, -0.06255165487527847, 0.12594081461429596, -0.11995469033718109, -0.10537959635257721, -0.09745906293392181, -0.07840550690889359, 0.09954693913459778, -0.04034734517335892, -0.09239433705806732, 0.07022331655025482, 0.10968293994665146, 0.06413567066192627, 0.011144611053168774, 0.021463144570589066, 0.04624849557876587, 0.10943467170000076, 0.08375716209411621, -0.09875673800706863, -0.08817502856254578, -0.0800023227930069, -0.05575927346944809, 0.11050412803888321, -0.12351077049970627, -0.018597055226564407, 0.09534269571304321, 0.048645906150341034, -0.06252150982618332, -0.002418361371383071, -0.09997867792844772, -0.07817179709672928, -0.10373324155807495, -0.09252454340457916, 0.11945807933807373, -0.018487535417079926, -0.07854482531547546, -0.05707339569926262, -0.09903112798929214, -0.06741093099117279, 0.00960332341492176, -0.0752749815583229, 0.020663809031248093, 0.043694209307432175, 0.08747412264347076, -0.07279681414365768, -0.026441453024744987, 0.1236816793680191, -0.012118116021156311, -0.11296910047531128, -0.0415959395468235, 0.048356834799051285, -0.021071907132864, 0.04580339416861534, -0.09699515998363495, 0.061404988169670105, -0.05603209510445595, -0.035057432949543, -0.006430286448448896, 0.12254311144351959, 0.09681260585784912, 0.10881691426038742, -0.01921464130282402, 0.08705649524927139, -0.0001790049282135442, 0.07692942023277283, -0.04426240175962448, -0.06374805420637131, -0.09030341356992722, -0.003398182336241007, -0.052713192999362946, 0.09716128557920456, -0.06550393253564835, 0.06626588851213455, -0.0687507763504982, 0.06847970932722092, 0.0036816697102040052, -0.07677052170038223, 0.006880823988467455, -0.11395938694477081, -0.009498937986791134, -0.07300157845020294, -0.12521450221538544, 0.11410259455442429, 0.06563787907361984, 0.031279705464839935, 0.075102299451828, -0.09987558424472809, -0.0667847990989685, -0.05880795046687126, -0.07851146161556244, -0.02694578841328621, 0.09154641628265381, -0.07805541902780533, 0.022156916558742523, 0.053025733679533005, -0.06408369541168213, 0.05261879414319992, -0.03283874690532684, 0.05433957651257515, 0.12280865013599396, 0.02909461408853531, -0.08188100159168243, -0.08002322167158127, 0.1008276417851448, -0.03795619681477547, 0.11771917343139648, -0.09300042688846588, -0.06639547646045685, 0.1246303990483284, 0.006188445258885622, -0.06210092082619667, 0.00860440544784069, -0.007843502797186375, -0.1119193509221077, 0.031306684017181396, 0.06552517414093018, -1.715385224088095e-05, -0.10460971295833588, -0.03766447678208351, 0.04705845192074776, -0.05374740809202194, 0.09929666668176651, -0.04014088585972786, -0.029657721519470215, 0.06986633688211441, 0.014842101372778416, 0.07298443466424942, -0.0865916833281517, 0.1000363826751709, -0.038028087466955185, 0.0024273209273815155, 0.06339646875858307, 0.03565216436982155, -0.0481947623193264, 0.07447315007448196, -0.010770518332719803, 0.05762847885489464, -0.041197530925273895, 0.008915186859667301, -0.04219390079379082, 0.07065286487340927, 0.09608711302280426, 0.03130032867193222, 0.11249454319477081, 0.042880598455667496, -0.11785173416137695, -0.07096096873283386, -0.017592664808034897, -0.0991189256310463, 0.04945557937026024, 0.1145208403468132, -0.07607085257768631, -0.03776458278298378, -0.10577525943517685, 0.03106001205742359, 0.002650212962180376, 0.08876204490661621, -0.05018741264939308, -0.10955879092216492, 0.11184842884540558, 0.12461242824792862, -0.08500422537326813, -0.04816654697060585, -0.022254152223467827, -0.08454552292823792, -0.11935151368379593, 0.09080924838781357, 0.07544675469398499, 0.05605050176382065, -0.11217395216226578, -0.02558463253080845, 0.07811051607131958, 0.06577383726835251, -0.029348626732826233, 0.0013811199460178614, 0.05362478643655777, 0.11102920025587082, 0.11699552834033966, 0.10794088244438171, 0.11005284637212753, -0.05970701575279236, 0.11653399467468262, -0.005007103551179171, -0.03070160187780857, 0.09402554482221603, -0.017224660143256187, 0.016108492389321327, -0.01026444137096405, -0.08985914289951324, -0.09372831881046295, 0.11171875149011612, 0.11679279804229736, -0.003725557355210185, -0.07908277958631516, 0.12428143620491028, 0.028997059911489487, 0.06424856185913086, -0.10747401416301727, 0.05265907198190689, 0.010482524521648884, 0.11047503352165222, 0.09970907121896744, 0.07338464260101318, 0.03265205770730972, 0.05030748248100281, 0.042382556945085526, 0.1149819940328598, 0.06735879927873611, -0.004179196897894144, 0.047888487577438354, -0.04779313504695892, 0.10850760340690613, -0.06415187567472458, 0.1128239780664444, 0.09436671435832977, -0.09499233216047287, -0.11362172663211823, -0.0023553185164928436, 0.05930722504854202, 0.1003812775015831, -0.10812989622354507, -0.02918439731001854, 0.03212643787264824, -0.04046686738729477, -0.10379990190267563, 0.033096618950366974, 0.05499976500868797, -0.02491488866508007, 0.06927322596311569, 0.021919602528214455, 0.10126983374357224, 0.030046958476305008, 0.0317775122821331, -0.02233712375164032, -0.06201530992984772, 0.0510147400200367, 0.11735408753156662, 0.0447722002863884, -0.11122652143239975, 0.08611590415239334, 0.11817547678947449, -0.003890374908223748, -0.07487434148788452, -0.03371899947524071, 0.087374247610569, 0.06805872172117233, -0.01330855954438448, 0.020774507895112038, 0.009257249534130096, -0.11374790966510773, 0.0878835916519165, -0.014009320177137852, -0.10216309875249863, 0.027275949716567993, 0.06657733023166656, -0.1063404232263565, -0.014322338625788689, -0.11313359439373016, 0.03366946056485176, 0.016792263835668564, 0.06751009076833725, -0.02366621047258377, 0.11615979671478271, -0.11807643622159958, -0.028126953169703484, -0.08571984618902206, -0.09252656251192093, 0.10502959787845612, 0.07047294080257416, 0.10249220579862595, 0.0530816949903965, -0.07157336175441742, -0.02640439011156559, -0.09549490362405777, 0.10919877141714096, -0.007077529560774565, -0.006893761921674013, 0.04692569747567177, -0.016557589173316956, -0.08713516592979431, 0.005624430254101753, 0.08760938048362732, 0.08081401139497757, -0.11416235566139221, 0.1112479716539383, 0.053562015295028687, -0.11779439449310303, -0.013718346133828163, -0.08199162781238556, 0.01266810018569231, -0.11084786802530289, -0.03880341351032257, 0.09874632209539413, -0.01903352700173855, 0.02444356679916382, -0.06848039478063583, 0.08862823992967606, 0.09798824042081833, -0.00041058353963308036, 0.004316506441682577, 0.11296498030424118, -0.12395629286766052, 0.05565359443426132, -0.08501718193292618, -0.05606121942400932, -0.12128268927335739, 0.03807548061013222, 0.10685654729604721, -0.022053517401218414, 0.05385660007596016, -0.017725100740790367, -0.10824684798717499, -0.09678512811660767, -0.0015518716536462307, 0.0898176059126854, 0.09036228060722351, -0.04772844910621643, 0.024269437417387962, 0.10904936492443085, -0.09757605195045471, -0.13231930136680603, -0.12619143724441528, 0.07002512365579605, -0.10322009027004242, -0.1045198068022728, 0.04309955984354019, 0.06963658332824707, 0.056122343987226486, -0.11214272677898407, 0.1202206090092659, 0.08692147582769394, -0.041850294917821884, -0.08407982438802719, -0.07307228446006775, -0.07192330807447433, -0.1101309135556221, 0.06297032535076141, 0.10204634815454483, 0.042747508734464645, 0.06940583884716034, -0.07312667369842529, 0.06711576133966446, 0.10365429520606995, 0.06898434460163116, 0.10013164579868317, -0.053677745163440704, 0.054157234728336334, -0.04638856649398804, -0.03216731548309326, 0.12255247682332993, -0.007773933466523886, 0.006140089128166437, 0.007438435219228268, 0.012398488819599152, -0.05335230752825737, 0.08193077892065048, 0.11045796424150467, -0.06825218349695206, -0.11666258424520493, -0.02762777730822563, -0.058307234197854996, 0.08364702761173248, -0.04422735050320625, 0.08743909746408463, 0.026356292888522148, -0.04553639516234398, -0.06221069395542145, 0.02720499597489834, -0.10216184705495834, -0.016696911305189133, -0.1130843237042427, -0.1086026132106781, -0.07497259229421616, 0.06846843659877777, -0.09564574062824249, 0.11834125965833664, -0.10880705714225769, -0.10915396362543106, 0.056807417422533035, 0.004813190549612045, 0.09436263144016266, -0.029907774180173874, 0.05167726054787636, 0.10157778859138489, -0.09436026960611343, -0.0893307775259018, 0.1076100692152977, 0.10658185929059982, -0.0024961731396615505, 0.07373910397291183, -0.09242413192987442, 0.09890135377645493, -0.036178067326545715, 0.06055598333477974, -0.03301103785634041, -0.10070455819368362, -0.04584950953722, -0.021156128495931625, 0.0074928454123437405, 0.03125312924385071, -0.1066080704331398, -0.07858902215957642, -0.04834805428981781, 0.019271930679678917, -0.07978177070617676, 0.1067262589931488, -0.05434386432170868, 0.11114515364170074, 0.03267013281583786, 0.05545412003993988, -0.035592395812273026, 0.05266767740249634, -0.05785259231925011, 0.0054214647971093655, 0.0781422108411789, -0.013840374536812305, -0.011314117349684238, 0.013186478056013584, -0.07823554426431656, -0.08052864670753479, -0.023255886510014534, 0.013956607319414616, 0.10237699747085571, -0.0016280359122902155, -0.02063552290201187, 0.028896993026137352, 0.032050054520368576, -0.010664043948054314, 0.056647889316082, 0.12544970214366913, -0.04687667265534401, -0.06079333275556564, -0.004325773101300001, 0.12195397168397903, 0.03906216099858284, -0.10908437520265579, 0.09153608232736588, 0.1003541350364685, 0.10724271833896637, 0.04727311432361603, -0.12781159579753876, 0.016135696321725845, -0.006235573906451464, -0.07126273959875107, -0.08685360103845596, -0.009802349843084812, 0.1090162992477417, 0.03364488482475281, 0.019025221467018127, 0.04901067540049553, -0.11093445867300034, 0.06722524017095566, 0.025707371532917023, -0.07481086999177933, -0.1067381277680397, -0.08276579529047012, 0.03811539337038994, 0.03333669155836105, 0.020372668281197548, -0.025488123297691345, 0.05264287441968918, -0.07939765602350235, 0.06518415361642838, -0.06172165647149086, -0.06323102861642838, -0.10424341261386871, 0.037244975566864014, -0.07534642517566681, 0.07777002453804016, 0.068438321352005, -0.0029343480709940195, 0.07071613520383835, 0.07325471937656403, 0.04744117707014084, -0.09750478714704514, -0.026707520708441734, -0.020616015419363976, 0.0654793456196785, -0.04970084875822067, 0.026414893567562103, 0.05099812522530556, 0.08405126631259918, 0.1185363233089447, -0.01771988719701767, -0.10222955793142319, -0.10487111657857895, -0.02812989056110382, 0.07883825898170471, -0.025328464806079865, -0.10435642302036285, -0.08267741650342941, -0.06901414692401886, -0.06860703974962234, 0.005405982956290245, -0.012741063721477985, -0.06945409625768661, -0.020897315815091133, -0.06219150498509407, -0.013721507042646408, 0.05206543579697609, -0.01123710349202156, -0.032276175916194916, 0.026905767619609833, 0.08188822865486145, 0.09619735181331635, -0.05464890971779823, -0.1078806072473526, 0.027120377868413925, 0.048480551689863205, 0.01607062853872776, 0.12272468209266663, 0.06165353208780289, 0.017352716997265816, 0.08519874513149261, 0.09038303792476654, -0.06807459890842438, -0.09566274285316467, -0.005821445491164923, -0.03853630647063255, -0.08177157491445541, -0.0931612029671669, 0.08441544324159622, -0.05127391964197159, -0.06848474591970444, 0.08228060603141785, 0.010580229572951794, 0.02204463630914688, -0.04118667170405388, 0.029469406232237816, 0.0917278602719307, -0.08770304173231125, -0.014833120629191399, 0.007905757986009121, 0.10026402026414871, 0.10000932216644287, 0.08679304271936417, -0.045658621937036514, 0.0008798085618764162, -0.0011911860201507807, -0.08827148377895355, -0.09117147326469421, -0.02251393347978592, -0.015570354647934437, 0.04355879873037338, -0.11366080492734909, -0.06159467250108719, 0.10071646422147751, 0.011458021588623524, -0.08461588621139526, 0.06092827767133713, -0.04850402846932411, -0.07299982011318207, -0.05729348957538605, -0.06765027344226837, -0.06937506794929504, 0.020017491653561592, 0.05874688923358917, 0.06447871774435043, 0.12513868510723114, 0.10315988957881927, -0.06767923384904861, 0.10488474369049072, -0.021246004849672318, 0.07289064675569534, -0.05693233758211136, 0.10746187716722488, -0.008526642806828022, 0.041821498423814774, 0.1204954981803894, -0.02492370828986168, 0.050848811864852905, 0.035913579165935516, -0.04255778715014458, 0.0012823153520002961, 0.10262977331876755, 0.029921188950538635, 0.0833515003323555, 0.06058714911341667, 0.05755162611603737, -0.05427524447441101, -0.02490335889160633, 0.07925564050674438, 0.027305325493216515, 0.0635782927274704, 0.09508056193590164, 0.05766284465789795, 0.04993937909603119, -0.05142746493220329, 0.0429544523358345, -0.0014263829216361046, 0.08092808723449707, 0.046189188957214355, -0.0790020301938057, 0.08985250443220139, -0.01699892245233059, 0.05797645077109337, -0.05733310431241989, -0.1109524592757225, 0.050434011965990067, 0.06376674026250839, 0.09754403680562973, 0.0765121802687645, 0.060128141194581985, 0.06699486076831818, 0.03247219696640968, -0.054835546761751175, 0.028572719544172287, -0.09575335681438446, -0.07595322281122208, 0.11283835768699646, 0.04932371899485588, 0.03936763107776642, -0.008336235769093037, -0.12007337808609009, -0.035776492208242416, -0.048714861273765564, -0.04400806501507759, 0.025492694228887558, -0.08172422647476196, -0.0698130652308464, -0.028754623606801033, -0.10881146043539047, -0.020522955805063248, -0.0010337219573557377, -0.009824590757489204, -0.04879683256149292, -0.02621188759803772, 0.09950468689203262, 0.07152460515499115, 0.03055933304131031, -0.08645893633365631, -0.08007175475358963, 0.06899730861186981, 0.0005598970456048846, -0.005441798362880945, -0.03902949020266533, -0.08619710057973862, -0.07016012072563171, 0.07092690467834473, 0.09696585685014725, 0.06447295844554901, -0.0800575464963913, -0.004320904612541199, -0.10667319595813751, -0.07246379554271698, -0.08761534094810486, 0.036142170429229736, -0.11848572641611099, 0.09121117740869522, 0.09629926085472107, -0.010530839674174786, 0.030889101326465607, 0.04129815101623535, 0.11373185366392136, 0.008910652250051498, 0.1165480837225914, 0.047728609293699265, -0.04940888658165932, 0.09576938301324844, 0.02689456008374691, 0.05300253629684448, 0.017190489917993546, -0.06396336853504181, 0.11202314496040344, 0.027271896600723267, -0.01827642321586609, 0.029089313000440598, -0.06508135795593262, 0.03931558504700661, -0.12336168438196182, 0.07089343667030334, 0.08203066885471344, -0.07204321771860123, 0.05326063930988312, 0.009777803905308247, -0.030795499682426453, 0.11443275958299637, -0.0020258345175534487, -0.08002758026123047, -0.1180875152349472, 0.005355889908969402, -0.0646321251988411, -0.112850122153759, -0.09058602899312973, 0.09416962414979935, -0.06666009873151779, -0.07949938625097275, -0.06929806619882584, 0.009864399209618568, -0.029790909960865974, -0.10753727704286575, -0.07786907255649567, -0.08829803764820099, 0.025136392563581467, -0.0002805001859087497, 0.1081036627292633, 0.03614353388547897, 0.02336215227842331, 0.10437346994876862, 0.02351958304643631, -0.06222859397530556, 0.105117566883564, -0.05636698752641678, -0.08571739494800568, 0.10484747588634491, 0.11287113279104233, 0.07225286960601807, -0.028819549828767776, 0.11417488008737564, 0.06343234330415726, 0.020122092217206955, 0.010805466212332249, 0.060068245977163315, -0.05521293357014656, -0.043739523738622665, 0.07145821303129196, 0.018453486263751984, -0.007478923536837101, -0.011656307615339756, 0.0032905987463891506, 0.12272696197032928, 0.11991196125745773, -0.11919793486595154, -0.08856485784053802, -0.09734237939119339, -0.006051149219274521, 0.030411329120397568, -0.06828660517930984, 0.05545109137892723, -0.12134736776351929, 0.08819559216499329, -0.0017196496482938528, 0.03808373212814331, 0.08927878737449646, 0.014884745702147484, -0.06060641631484032, -0.036190882325172424, 0.11024285852909088, -0.024528417736291885, -0.015614502131938934, -0.10099813342094421, -0.07694472372531891, -0.007127839606255293, 0.029521409422159195, -0.07494165003299713, 0.007653034292161465, 0.11186421662569046, 0.11579243093729019, 0.002647561952471733, 0.1230802983045578, 0.12017861008644104, 0.062376148998737335, 0.09906186908483505, 0.021756868809461594, -0.039914656430482864, 0.10215858370065689, 0.041006095707416534, 0.02718069963157177, -0.0027557387948036194, -0.01505034975707531, -0.0933506041765213, -0.05885528028011322, -0.08190207183361053, -0.019857119768857956, 0.06914675980806351, -0.06500384211540222, 0.007713265251368284, -0.04675912484526634, -0.057421449571847916, 0.036306366324424744, 0.047160472720861435, 0.11017540097236633, -0.022426219657063484, 0.09593707323074341, -0.09297453612089157, 0.01581805758178234, 0.005254875402897596, 0.1242075264453888, 0.0636749342083931, -0.06448005884885788, 0.06365916132926941, 0.0005056727677583694, -0.09935181587934494, -0.07417448610067368, -0.09167438000440598, 0.11482565104961395, 0.10320986062288284, -0.0857120081782341, 0.05948285758495331, 0.11742247641086578, -0.013431121595203876, 0.0872705802321434, 0.09601407498121262, 0.06600847095251083, -0.0535222552716732, 0.10635291039943695, 0.031420182436704636, 0.06178805232048035, -0.11079027503728867, 0.04575416445732117, 0.07426072657108307, -0.08804793655872345, -0.0869949534535408, -0.058071237057447433, 0.06422284245491028, -0.04829998314380646, -0.01655762828886509, -0.12710271775722504, -0.03503066301345825, -0.04561477154493332, -0.12363474071025848, 0.049788083881139755, 0.008891144767403603, -0.11436986178159714, 0.057810913771390915, 0.08097340166568756, -0.0796620100736618, -0.048244658857584, -0.0472291000187397, -0.03883664309978485, 0.02857840433716774, 0.08835053443908691, 0.09923189133405685, -0.09528310596942902, 0.12773823738098145, 0.004376286640763283, -0.11547112464904785, 0.07033223658800125, 0.09680654853582382, -0.020492659881711006, -0.11716929823160172, 0.08979488164186478, -0.07874120026826859, -0.0940130352973938, -0.03808722645044327, -0.0032307130750268698, 0.022687453776597977, 0.0465758740901947, 0.03853046894073486, -0.016999855637550354, -0.07475125789642334, -0.036781638860702515, 0.07534917443990707, 0.02851000614464283, 0.07932626456022263, 0.0034145156387239695, 0.008892291225492954, -0.12218058109283447, -0.023787662386894226, -0.05578238144516945, -0.12187296897172928, 0.10579869896173477, 0.06596753001213074, 0.10982416570186615, 0.09828279912471771, 0.08220642805099487, -0.06785542517900467, 0.1025647446513176, -0.10412906855344772, 0.032007187604904175, -0.09507942944765091, 0.07623114436864853, -0.02590455301105976, 0.09997804462909698, 0.02804671972990036, 0.08320515602827072, -0.01799789071083069, -0.11142668128013611, -0.11566378176212311, -0.11366556584835052, -0.06490940600633621, 0.10700516402721405, 0.04621021822094917, 0.01384822279214859, 0.08880411088466644, -0.10038978606462479, 0.01736890710890293, 0.06657916307449341, -0.1219375878572464, -0.11089470237493515, 0.11676806211471558, -0.02649296447634697, -0.10585220903158188, 0.10621564090251923, 2.9834205633960664e-05, 0.06390777230262756, 0.01253513339906931, 0.05276418477296829, 0.10269274562597275, 0.049402348697185516, -0.10155985504388809, 0.07072916626930237, -0.09896639734506607, 0.061155036091804504, -0.10609722882509232, -0.028914885595440865, -0.021824507042765617, 0.020086418837308884, 0.06844791024923325, -0.09066038578748703, -0.10368412733078003, 0.07834673672914505, -0.08682829141616821, -0.09852214902639389, -0.0322476327419281, -0.03383806347846985, -0.09613758325576782, -0.004337771330028772, 0.03927118331193924, 0.10961157828569412, 0.03509407863020897, 0.035980839282274246, 0.01686161756515503, -0.05885384976863861, -0.016589965671300888, -0.012242850847542286, 0.04752839356660843, 0.06678223609924316, 0.10838762670755386, -0.06339915096759796, 0.00930108968168497, 0.015632014721632004, -0.06298060715198517, 0.08469688892364502, 0.09381011873483658, 0.020454272627830505, -0.07650595158338547, 0.09701912850141525, 0.09442032128572464, -0.06259751319885254, -0.06719189137220383, 0.10105951130390167, -0.10591879487037659, -0.006414950825273991, -0.010039382614195347, -0.03655433654785156, -0.09046245366334915, -0.05412415415048599, -0.07640638202428818, 0.015279572457075119, 0.08006313443183899, -0.07335270196199417, 0.11186730861663818, 0.0534532405436039, -0.030704399570822716, 0.08465106040239334, -0.019755274057388306, -0.04240226373076439, -0.1122816726565361, -0.04010859504342079, -0.04223097115755081, 0.049133963882923126, -0.10080806910991669, 0.11606874316930771, -0.0018081583548337221, 0.02642010897397995, -0.03016275353729725, -0.039003632962703705, -0.08487647771835327, -0.0015609879046678543, 0.07600575685501099, 0.03162727504968643, 0.03922983258962631, -0.0919407308101654, 0.0637047290802002, -0.03469126671552658, -0.09289726614952087, -0.06216089054942131, -0.09384665638208389, -0.02414102852344513, 0.11419675499200821, -0.05645528435707092, -0.04058488458395004, 0.09534220397472382, -0.045035090297460556, 0.05066125839948654, 0.09034528583288193, 0.07845711708068848, 0.061387766152620316, 0.09699230641126633, -0.003557854564860463, -0.10309392213821411, -0.07266969978809357, 0.003492819145321846, -0.013120515272021294, 0.02773686870932579, 0.04979564994573593, -0.017843097448349, 0.05510371923446655, -0.11641570180654526, -0.0027943397872149944, -0.1059078499674797, 0.04806124418973923, 0.08547283709049225, -0.04551556706428528, -0.03313411772251129, 0.058673568069934845, -0.054568421095609665, 0.05888346955180168, -0.08784259855747223, -0.002419793512672186, -0.003751254640519619, -0.10936957597732544, -0.014695625752210617, -0.013673347420990467, -0.0018478218698874116, 0.11836600303649902, -0.01805661991238594, 0.07139358669519424, -0.03690081462264061, -0.05880030617117882, -0.012166241183876991, -0.07166995108127594, -0.05313630402088165, -0.0321621298789978, 0.0074715204536914825, -0.05819631367921829, -0.06443911790847778, -0.09007055312395096, -0.0738784670829773, -0.10911029577255249, -0.08738375455141068, -0.037104833871126175, -0.015840794891119003, 0.0739860013127327, -0.006577266380190849, -0.06906650215387344, -0.10235485434532166, -0.044217560440301895, 0.004748987965285778, -0.10059815645217896, -0.04999614879488945, 0.010097824037075043, 0.10953666269779205, 0.0003071083629038185, -0.11963282525539398, -0.09254753589630127, -0.09301358461380005, 0.08550780266523361, 0.07921511679887772, 0.004230044782161713, -0.08737486600875854, -0.051383208483457565, -0.0803595632314682, 0.11679160594940186, -0.09686595946550369, 0.02297368459403515, 0.053626470267772675, -0.10660013556480408, 0.05190597474575043, 0.06089288741350174, 0.030646491795778275, 0.11738787591457367, -0.05968887358903885, -0.11720208078622818, -0.07503894716501236, -0.11290830373764038, 0.04241131991147995, 0.029368368908762932, -0.04731450602412224, -0.04687519371509552, 0.07089366018772125, -0.0001067839257302694, 0.10724247992038727, -0.04935992509126663, 0.015590457245707512, 0.0332852341234684, -0.04266894981265068, 0.09583219885826111, -0.03472204506397247, 0.037024982273578644, -0.10234911739826202, 0.032726727426052094, 0.08677323907613754, -0.12590165436267853, 0.12327803671360016, 0.00744114862754941, 0.11885835975408554, 0.08041806519031525, 0.06960664689540863, -0.01815241388976574, 0.04074228182435036, 0.039574384689331055, -0.08587349951267242, 0.05836196616292, 0.11075856536626816, -0.03767623379826546, -0.08369018137454987, 0.11412153393030167, 0.11688076704740524, 0.017595045268535614, -0.09106520563364029, -0.007761523127555847, -0.0027398497331887484, 0.08913575857877731, -0.11391151696443558, -0.083251953125, -0.007872776128351688, -0.019298085942864418, 0.009631001390516758, 0.1232215166091919, 0.09461124986410141, 0.11969354748725891, -0.12100584805011749, 0.11031428724527359, -0.08480998873710632, -0.0382671095430851, 0.08201642334461212, -0.03150006756186485, -0.056729238480329514, 0.0058614411391317844, 0.12001514434814453, -0.010551977902650833, -0.1209249347448349, -0.028614601120352745, -0.10297365486621857, 0.0029800981283187866, 0.09436936676502228, 0.10409341752529144, 0.022744102403521538, -0.08383549749851227, -0.0724058747291565, 0.06848274171352386, 0.04183341562747955, -0.06452144682407379, 0.033249448984861374, -0.044315241277217865, -0.09409983456134796, 0.12197157740592957, 0.05954040214419365, -0.04752470552921295, 0.06988836824893951, -0.09004838764667511, 0.06607893109321594, 0.04556303471326828, -0.03492622449994087, -0.06513920426368713, 0.008532937616109848, 0.08779549598693848, 0.010231376625597477, -0.09100984036922455, -0.07253675907850266, -0.013212645426392555, 0.05028775334358215, 0.08587916940450668, 0.09625653177499771, 0.09890232235193253, -0.010253128595650196, -0.06915239244699478, -0.09561058133840561, -0.00347098708152771, 0.10889335721731186, 0.04163490608334541, 0.044006723910570145, 0.024823732674121857, -0.10882341861724854, -0.02883319742977619, -0.060805048793554306, -0.10469946265220642, 0.08880611509084702, 0.08056750148534775, 0.003791717579588294, -0.07719435542821884, 0.044273894280195236, -0.0883035957813263, -0.10942957550287247, 0.02712508663535118, 0.031051622703671455, 0.047029636800289154, 0.13280870020389557, 0.09237929433584213, -0.02775692567229271, 0.07629529386758804, -0.1102837398648262, 0.08020542562007904, -0.11191826313734055, -0.04154030606150627, 0.08073494583368301, -0.010737909935414791, -0.08991871029138565, 0.04256957396864891, 0.09347249567508698, 0.0440557599067688, 0.07959362119436264, -0.04807889461517334, 0.03936167061328888, -0.0781690776348114, -0.01333653461188078, 0.010158349759876728, -0.08416862785816193, 0.01806621439754963, -0.05914432555437088, -0.056216850876808167, -0.12018542736768723, 0.042095255106687546, 0.08362987637519836, 0.12257066369056702, 0.1061997190117836, -0.10764925926923752, 0.0922941118478775, 0.11078625917434692, 0.06401517242193222, 0.08731205761432648, 0.08950482308864594, 0.08094833046197891, 0.015129211358726025, -0.08928081393241882, 0.012896692380309105, -0.09405757486820221, 0.11044345051050186, 0.11535104364156723, -0.0442592017352581, 0.12542961537837982, -0.024863440543413162, -0.09800542891025543, 0.07055463641881943, 0.09362412244081497, 0.11019624024629593, 0.06011228635907173, 0.08451996743679047, 0.0713585615158081, 0.06273435801267624, -0.1090017780661583, -0.04315540939569473, 0.017235945910215378, 0.10414034873247147, -0.014316859655082226, 0.05997391417622566, -0.11746210604906082, -0.055818598717451096, 0.03766636177897453, 0.03423774614930153, 0.01544942520558834, 0.025338683277368546, 0.07158616185188293, -0.012587296776473522, 0.08134806156158447, 0.12304229289293289, -0.02016899734735489, -0.09835139662027359, 0.02640816755592823, 0.05905970185995102, 0.061621349304914474, -0.10877780616283417, -0.01664031855762005, -0.002473890781402588, 0.05184482783079147, -0.01669485680758953, 0.10125137865543365, -0.04107138141989708, 0.08118496090173721, -0.12555554509162903, 0.12694242596626282, 0.021610965952277184, -0.06411196291446686, 0.07977225631475449, -0.0390411876142025, -0.07185869663953781, -0.05392591655254364, 0.11751101911067963, 0.11471794545650482, 0.028140613809227943, -0.014147259294986725, -0.07742004841566086, -0.04253902658820152, -0.12110066413879395, -0.11346611380577087, 0.007994127459824085, 0.09557603299617767, 0.012366067618131638, -0.10080799460411072, -0.039676863700151443, 0.08836851269006729, 0.02948448620736599, 0.02345852740108967, -0.11286336928606033, -0.03424340859055519, 0.10324778407812119, -0.04864641651511192, -0.05591801926493645, -0.11188945919275284, 0.06655263900756836, 0.036811988800764084, -0.01638750173151493, 0.09262044727802277, 0.07595017552375793, 0.0658801943063736, 0.07124210149049759, -0.015811199322342873, -0.04788350313901901, -0.06346213817596436, 0.01478347647935152, -0.10150820016860962, -0.044703755527734756, -0.07866233587265015, 0.04475110024213791, 0.049238309264183044, -0.09084228426218033, 0.04237312078475952, 0.004991098307073116, 0.0994928702712059, 0.0963778868317604, 0.07506746798753738, 0.08343011885881424, 0.01224746834486723, 0.10932278633117676, -0.1250978708267212, 0.0914023220539093, 0.09589527547359467, 0.05491054803133011, -0.03886857256293297, -0.029796557500958443, 0.06699318438768387, 0.0007531414739787579, 0.088209368288517, 0.050075653940439224, 0.01689501479268074, -0.03406809642910957, -0.11542292684316635, -0.09186261892318726, -0.10694215446710587, -0.1116742268204689, -0.07324984669685364, -0.028794821351766586, 0.0849054679274559, 0.02257838286459446, 0.06010764464735985, -0.09666762501001358, 0.1165744736790657, 0.11052811145782471, 0.09027882665395737, -0.042479146271944046, -0.0010281300637871027, 0.0210846159607172, -0.0494203120470047, 0.05347294732928276, -0.03607139363884926, -0.10631726682186127, -0.035303253680467606, 0.12331481277942657, 0.05478470399975777, 0.058856260031461716, 0.023369785398244858, 0.036452338099479675, 0.0522926039993763, -0.07709001004695892, 0.014396360144019127, -0.0355168841779232, -0.08960266411304474, -0.09785053133964539, -0.02593298815190792, -0.11726801842451096, -0.12261594831943512, 0.11722386628389359, 0.007614032831043005, -0.0008160921279340982, -0.09810782223939896, 0.027628885582089424, 0.09793942421674728, 0.12007827311754227, -0.10664235055446625, -0.027013808488845825, 0.09711305797100067, 0.11644348502159119, 0.11911938339471817, -0.11557066440582275, -0.10536850988864899, -0.06421038508415222, 0.06147128343582153, -0.10332401841878891, 0.0200303103774786, 0.07574377208948135, 0.02524542063474655, -0.02707955427467823, 0.06580065935850143, 0.01675715483725071, 0.06786972284317017, -0.08151798695325851, 0.08329197764396667, 0.002788251033052802, -0.09562209993600845, 0.035986606031656265, -0.08521515876054764, 0.10568023473024368, 0.028944142162799835, -0.09521813690662384, -0.0018601500196382403, -0.016693783923983574, -0.05033722519874573, -0.11932174116373062, -0.08120060712099075, -0.10345973074436188, 0.022287648171186447, 0.006317085586488247, 0.023646069690585136, -0.12199133634567261, -0.08094039559364319, -0.07511008530855179, 0.014660271815955639, -0.11128856986761093, 0.09463467448949814, -0.07808585464954376, 0.03137638792395592, 0.1143491268157959, -0.04267185181379318, 0.10673506557941437, -0.11052781343460083, 0.01258169673383236, -0.12603500485420227, -0.017742440104484558, 0.11905130743980408, 0.09402685612440109, 0.014724410139024258, -0.0555112361907959, 0.06531699001789093, -0.09785710275173187, 0.07826098799705505, -0.09750013798475266, -0.09845113754272461, 0.11162379384040833, -0.09538877755403519, -0.060654252767562866, 0.022603755816817284, -0.006453706417232752, 0.01084841974079609, -0.08096608519554138, -0.0441296212375164, 0.11240947246551514, 0.08985445648431778, -0.09378454089164734, 0.002302376553416252, -0.09982844442129135, 0.08701975643634796, 0.0005013796617276967, -0.06547994911670685, 0.11152494698762894, 0.07093515992164612, -0.022385887801647186, -0.04344094917178154, 0.014341924339532852, -0.0782574713230133, 0.003464681329205632, -0.03888324648141861, -0.08664015680551529, 0.06725522130727768, -0.07608158886432648, -0.05259162187576294, -0.08587944507598877, 0.023535719141364098, 0.061599817126989365, 0.05680551379919052, -0.028576582670211792, 0.019429350271821022, -0.09903066605329514, -0.11570852249860764, -0.03954237699508667, -0.09436511993408203, -0.029495907947421074, 0.10931067913770676, -0.10180330276489258, -0.08830787986516953, 0.07000762969255447, -0.06085868179798126, 0.04857164993882179, -0.030029190704226494, -0.10838673263788223, 0.03588248789310455, -0.03471631556749344, -0.07602040469646454, 0.09486689418554306, -0.01211466547101736, 0.0360567681491375, 0.005481486674398184, -0.07896537333726883, 0.008029117248952389, 0.04709455743432045, -0.015262582339346409, 0.007995937950909138, 0.04315735399723053, 0.0787653923034668, 0.004687986336648464, -0.011153722181916237, -0.078340545296669, -0.04421192780137062, -0.05291034281253815, -0.05676691234111786, -0.08855325728654861, -0.0033266423270106316, -0.07836947590112686, 0.028010260313749313, 0.03248317539691925, 0.10884317010641098, 0.0030130562372505665, 0.0872809886932373, -0.07823491841554642, -0.03514070063829422, -0.048987723886966705, -0.04345056787133217, -0.09657465666532516, -0.10567840933799744, -0.08988486975431442, 0.11054336279630661, -0.05590840429067612, 0.05663248524069786, 0.039199307560920715, 0.014824890531599522, 0.02411937527358532, -0.032328929752111435, -0.036870088428258896, 0.016472287476062775, -0.11574245244264603, 0.06005029380321503, -0.009435822255909443, -0.087212473154068, 0.11776109784841537, -0.09962919354438782, -0.046349041163921356, 0.01907813735306263, 0.0781758725643158, -0.011678344570100307, -0.015855630859732628, 0.09034575521945953, 0.10960646718740463, -0.00658232718706131, -0.07205278426408768, -0.09197990596294403, 0.044790156185626984, -0.08420783281326294, 0.05222063884139061, 0.003914694767445326, 0.051970433443784714, -0.08995803445577621, -0.10843542963266373, -0.05523170903325081, -0.052346762269735336, 0.1240149587392807, -0.01644184999167919, -0.030831824988126755, -0.07681825011968613, -0.03441804274916649, 0.03837667405605316, -0.06846731156110764, 0.09700679033994675, -0.08158116042613983, -0.1192735806107521, 0.06613563001155853, 0.06729494035243988, 0.12228195369243622, -0.10881678760051727, 0.01671149767935276, 0.02662629820406437, -0.02598177269101143, -0.03247915208339691, 0.05156564712524414, 0.011872283183038235, 0.015702707692980766, 0.036551911383867264, 0.08244067430496216, 8.583030285080895e-05, 0.053648561239242554, -0.02905665896832943, 0.024149471893906593, 0.08310596644878387, 0.048214446753263474, -0.05578058212995529, -0.11603362113237381, -0.022265072911977768, 0.10694699734449387, 0.08553273230791092, 0.017412912100553513, 0.039042484015226364, -0.0736461654305458, -0.05973260477185249, 0.004697084426879883, 0.07986480742692947, 0.120223268866539, 0.07529173046350479, -0.12011012434959412, 0.07398287206888199, 0.0027403829153627157, -0.06688450276851654, -0.12308282405138016, 0.03923799842596054, -0.09895219653844833, 0.0175755824893713, 0.1188972070813179, -0.07722111791372299, 0.044986069202423096, -0.0888863280415535, -0.036611367017030716, 0.09621794521808624, 0.05368818715214729, 0.04746478796005249, -0.07058913260698318, 0.1155845895409584, -0.07341176271438599, 0.09006217867136002, -0.0966918095946312, -0.09697023779153824, 0.06922289729118347, 0.07803630083799362, -0.09498678892850876, 0.06432359665632248, 0.015417871996760368, 0.04867500066757202, 0.03481055051088333, 0.011543814092874527, 0.04967937245965004, -0.09224287420511246, 0.07056409120559692, -0.028947561979293823, -0.07190965861082077, 0.05581529811024666, 0.09971930831670761, 0.09555785357952118, 0.09914901107549667, -0.10710854828357697, -0.009769211523234844, 0.0724484771490097, -0.029612941667437553, 0.10961414873600006, -0.04136133939027786, 0.10185199230909348, 0.019335072487592697, -0.011458664201200008, -0.014349156059324741, 0.032718587666749954, 0.10910870134830475, 0.009263268671929836, -0.08690983802080154, 0.07659262418746948, 0.004195004235953093, -0.12154883146286011, 0.12204479426145554, -0.08220131695270538, 0.08097479492425919, -0.10340037941932678, 0.0058429851196706295, 0.08814948797225952, -0.0151010537520051, -0.11107558012008667, -0.10515563189983368, 0.03377671167254448, 0.0065268296748399734, 0.09666816145181656, 0.03096015937626362, 0.060564640909433365, 0.007229843642562628, -0.04643336683511734, -0.10624559968709946, -0.06246853619813919, -0.09099558740854263, -0.0776854157447815, -0.037326227873563766, -0.04224598780274391, 0.022243037819862366, -0.108176589012146, 0.06668101251125336, 0.05348270758986473, 0.027399709448218346, 0.0029083627741783857, -0.07728447765111923, -0.11667220294475555, 3.947541699744761e-06, 0.014705278910696507, 0.008554612286388874, 0.012077026069164276, -0.08757627755403519, 0.0863090232014656, -0.08727577328681946, 0.09050539135932922, -0.10129815340042114, -0.10833059996366501, -0.00030891335336491466, -0.04707461968064308, -0.07924264669418335, -0.07880078256130219, 0.11425648629665375, -0.11211942881345749, 0.02988111786544323, 0.09876944869756699, 0.0865483433008194, 0.11234044283628464, 0.0344780832529068, -0.11659719794988632, -0.07005423307418823, 0.013889256864786148, -0.04060970991849899, 0.014478872530162334, -0.06125207617878914, -0.03098977729678154, -0.06686753779649734, 0.01171332411468029, -0.09406812489032745, -0.04649406298995018, 0.05397752672433853, -0.004828805103898048, 0.07885968685150146, -0.04684024304151535, 0.08927422016859055, -0.020252354443073273, 0.030483247712254524, -0.06041467562317848, 0.060688287019729614, 0.02229226753115654, 0.03279431536793709, 0.07110170274972916, -0.025274818763136864, -0.12693792581558228, -0.035058122128248215, -0.030402468517422676, 0.11082997918128967, 0.011848080903291702, 0.062193162739276886, 0.07515603303909302, -0.03280644863843918, -0.01682419143617153, 0.10201316326856613, 0.11500920355319977, -0.00616833521053195, 0.13087281584739685, 0.037316132336854935, 0.11532391607761383, -0.005128334742039442, 0.07817203551530838, 0.05294082686305046, 0.07564898580312729, 0.06433538347482681, 0.07346391677856445, -0.005993513390421867, -0.026429308578372, -0.0580037422478199, -0.02554791234433651, 0.014296622015535831, -0.11872542649507523, 0.09107895940542221, 0.11600306630134583, 0.06756123900413513, 0.013660782016813755, -0.07894489914178848, 0.01833123154938221, -0.014904883690178394, 0.005807568784803152, 0.10864373296499252, 7.199804531410336e-05, -0.0848446786403656, 0.06737887114286423, -0.10932702571153641, 0.03936326876282692, 0.0609360970556736, 0.10729516297578812, -0.09445104748010635, 0.1130940318107605, -0.08359980583190918, 0.04420352354645729, -0.10833705961704254, 0.09575730562210083, -0.10338499397039413, 0.11065255105495453, 0.06697821617126465, 0.07224707305431366, -0.093454509973526, -0.08346988260746002, -0.11448687314987183, 0.004185001831501722, 0.01668255776166916, 0.025776684284210205, 0.0109404893592, -0.046378254890441895, -0.08778565376996994, 0.0628635436296463, 0.0877838060259819, -0.0544755719602108, 0.04238353669643402, -0.03761697933077812, 0.10018343478441238, 0.01857006922364235, 0.07724232971668243, 0.01951167732477188, 0.045095980167388916, 0.07066410034894943, -0.06693708151578903, 0.02435898408293724, 0.09596826881170273, -0.05001356825232506, 0.025505969300866127, -0.11939305812120438, 0.058608219027519226, -0.014620432630181313, -0.006789071951061487, 0.06646899878978729, 0.10118937492370605, 0.003404682269319892, -0.030442290008068085, 0.026866210624575615, -0.02569412812590599, -0.11484124511480331, 0.12574565410614014, 0.0831461176276207, -0.09963168203830719, 0.08072061836719513, 0.05527707189321518, 0.06816307455301285, -0.11543769389390945, -0.002809363417327404, -0.07923015207052231, -0.11902576684951782, -0.0816679373383522, -0.1034327894449234, 0.04009746387600899, -0.024082282558083534, -0.07248347997665405, 0.002502035116776824, 0.09830392897129059, 0.03210350498557091, -0.05978933349251747, 0.11370725184679031, -0.09088297188282013, -0.09784989804029465, 0.07289885729551315, -0.11794455349445343, -0.10411947220563889, 0.10690713673830032, 0.1118679866194725, 0.0969795286655426, -0.04212025925517082, -0.11905434727668762, 0.12335416674613953, -0.11319897323846817, -0.04701860249042511, 0.07056814432144165, -0.010305562056601048, 0.08807418495416641, 0.12268093973398209, 0.009154600091278553, 0.07102830708026886, 0.11797618865966797, 0.007619923446327448, -0.06332982331514359, 0.00292011396959424, -0.0415908619761467, 0.07686392217874527, -0.015089462511241436, 0.09308569133281708, -0.05293447896838188, -0.09647773206233978, -0.08201266825199127, 0.07832498848438263, -0.08435020595788956, 0.04643234238028526, 0.0827728733420372, -0.03238880634307861, 0.008667198941111565, -0.0581747330725193, 0.11995705217123032, 0.015122156590223312, -0.09471748769283295, -0.08410570025444031, -0.05651009455323219, 0.09141610562801361, -0.08103170245885849, -0.022465575486421585, -0.09063898026943207, -0.07918054610490799, -0.09675146639347076, 0.09650304168462753, -0.06912485510110855, -0.1094147190451622, -0.008429344743490219, -0.10242360830307007, -0.10097203403711319, -0.04119057208299637, -0.059458330273628235, -0.08452390134334564, -0.07683888077735901, -0.08462435752153397, 0.02692187763750553, -0.0241707693785429, -0.10585029423236847, 0.03272847831249237, -0.09174802154302597, 0.08920566737651825, -0.12292707711458206, -0.09010342508554459, -0.023540830239653587, -0.090116947889328, 0.06576117128133774, -0.07009816914796829, 0.002195297507569194, 0.11328398436307907, 0.005116935819387436, 0.05672958120703697, -0.11296754330396652, 0.07839056104421616, 0.06067105755209923, -0.04905490204691887, -0.024527009576559067, -0.02270323596894741, -0.11560513079166412, 0.05976961553096771, 0.005240248516201973, -0.06966989487409592, 0.08413645625114441, -0.02270028367638588, -0.04007866233587265, 0.0732874721288681, -0.08400001376867294, -0.1089596375823021, -0.09933894872665405, -0.06185377761721611, 0.10106649994850159, -0.01663556881248951, 0.0552925281226635, -0.07313011586666107, 0.0054124100133776665, 0.11865752190351486, 0.07917036861181259, -0.009751238860189915, -0.03097832202911377, -0.035123709589242935, -0.05116061866283417, 0.007058075629174709, 0.10405678302049637, -0.015221497975289822, 0.023422792553901672, -0.08185310661792755, 0.11362297087907791, 0.01894860342144966, 0.11471083760261536, 0.09900614619255066, -0.07957953959703445, -0.09251942485570908, 0.11080057919025421, -0.044499993324279785, 0.03750428557395935, -0.10242122411727905, 0.031707052141427994, -0.0668947622179985, 0.016238227486610413, 0.13347390294075012, -0.06588506698608398, 0.05683482438325882, 0.08395179361104965, 0.029852455481886864, -0.0072719077579677105, 0.02675517648458481, -0.027109859511256218, -0.12165635079145432, 0.08492396026849747, -0.027682429179549217, 0.1194668561220169, 0.10863755643367767, -0.01986892893910408, 0.08370944857597351, -0.027759332209825516, -0.0115400031208992, -0.10150396078824997, 0.12283258885145187, 0.06617732346057892, -0.10909488052129745, 0.046535611152648926, -0.030988045036792755, 0.07773225754499435, 0.008410223759710789, -0.03342830017209053, -0.0173922348767519, -0.022386739030480385, -0.045840416103601456, -0.08313849568367004, -0.040451206266880035, 0.025973888114094734, -0.10996413230895996, 0.10245867073535919, -0.00379865407012403, 0.09182016551494598, -0.07122209668159485, 0.07370524108409882, 0.03882340341806412, -0.029881475493311882, -0.05058090016245842, 0.0410311333835125, -0.06827051937580109, -0.12494440376758575, 0.06762683391571045, 0.0878668799996376, 0.05493627488613129, -0.10202614963054657, -0.002243470400571823, 0.015800150111317635, 0.1148795560002327, -0.0845387876033783, 0.013224497437477112, -0.007391654886305332, 0.07825680077075958, -0.11012542247772217, 0.06009279564023018, 0.06804269552230835, 0.11045251786708832, 0.08853913098573685, -0.06228388473391533, -0.05168565362691879, -0.0683596134185791, 0.032527342438697815, -0.009983481839299202, -0.09448186308145523, -0.12073444575071335, -0.011448890902101994, -0.12261630594730377, -0.02836507186293602, -0.008485435508191586, -0.0023389665875583887, -0.1177431046962738, 0.05938311666250229, 0.023977451026439667, 0.018977295607328415, -0.017200922593474388, 0.09917743504047394, 0.10124431550502777, -0.07683511823415756, 0.04321092739701271, -0.0937390848994255, -0.07995911687612534, -0.05218096449971199, -0.03933775797486305, 0.11803649365901947, 0.1140236184000969, -0.04309587925672531, 0.07157651335000992, 0.12423191964626312, 0.06373606622219086, 0.08049758523702621, 0.08857186883687973, 0.10201004147529602, 0.006829565856605768, 0.07418690621852875, 0.09046172350645065, -0.045952945947647095, -0.07395779341459274, 0.020587636157870293, -0.07852719724178314, 0.014287801459431648, -0.050195373594760895, -0.08616799116134644, 0.10467743128538132, 0.11692477017641068, 0.07496653497219086, 0.11595460027456284, 0.008255614899098873, 0.04507053270936012, -0.08742289245128632, -0.011601408012211323, -0.12339328229427338, 0.05036214366555214, -0.054174020886421204, -0.05323360860347748, 0.09326592832803726, 0.11084266752004623, 0.06954967230558395, 0.010662117972970009, 0.07914210110902786, 0.08372146636247635, 0.038647595793008804, 0.03051767870783806, 0.016298368573188782, 0.07330035418272018, -0.0876506119966507, 0.04525524005293846, 0.034740593284368515, 0.12083984166383743, -0.059836119413375854, -0.026644587516784668, 0.10418436676263809, 0.057572610676288605, -0.05313077196478844, -0.1109178438782692, -0.05729300156235695, 0.048973165452480316, 0.12341427057981491, 0.12246778607368469, -0.06381289660930634, -0.08456850051879883, 0.07467032223939896, -0.011651314795017242, 0.07724196463823318, -0.092493936419487, 0.044372886419296265, -0.03595650941133499, -0.019854309037327766, -0.06717496365308762, -0.12258800119161606, -0.08342104405164719, -0.009592545218765736, -0.10421960055828094, -0.02914576604962349, -0.03681159019470215, 0.010068990290164948, 0.103366419672966, -0.012302142567932606, 0.01791228912770748, -0.12182126194238663, 0.02121349796652794, -0.11070109158754349, 0.0321243517100811, -0.098276786506176, -0.10378370434045792, -0.056080371141433716, 0.08824203908443451, 0.062216538935899734, 0.11209872364997864, -0.005309287924319506, -0.051622141152620316, 0.0288972370326519, -0.08660877496004105, 0.07634662091732025, 0.11386465281248093, -0.07165910303592682, 0.11798273026943207, -0.04753204807639122, 0.06080503761768341, -0.044157374650239944, -0.054695237427949905, 0.0340193435549736, 0.03867286071181297, 0.029874956235289574, -0.02003510855138302, 0.10622679442167282, -0.05927310138940811, 0.014106230810284615, 0.04952707514166832, -0.1104801595211029, 0.050209660083055496, -0.06740760803222656, 0.05314695090055466, -0.08587636798620224, -0.012386370450258255, -0.10181350260972977, 0.026117710396647453, 0.11442988365888596, 0.08162136375904083, -0.06837500631809235, 0.092560313642025, 0.027579842135310173, 0.0019107802072539926, -0.03287545219063759, 0.11858579516410828, -0.09577474743127823, 0.0985666885972023, 0.08506065607070923, 0.029729988425970078, 0.04090536758303642, -0.06630638986825943, 0.05279763042926788, 0.006388048641383648, -0.057181939482688904, 0.03249543905258179, 0.11603289842605591, 0.03331320732831955, -0.08823754638433456, 0.06724310666322708, 0.04292294755578041, -0.03693104907870293, -0.04492843151092529, 0.07320579886436462, 0.10345225036144257, -0.04776102304458618, -0.08006340265274048, 0.11658947914838791, -0.09632856398820877, 0.015144169330596924, -0.05350968614220619, 0.02281402237713337, -0.07826545089483261, 0.07867167890071869, 0.08795053511857986, -0.09143315255641937, 0.04267358034849167, 0.008675135672092438, 0.11751293390989304, -0.09678056091070175, -0.07984162122011185, -0.024995625019073486, -0.09073465317487717, -0.04448087885975838, -0.07036391645669937, 0.013169532641768456, 0.04952486604452133, -0.01873035542666912, 0.04840478673577309, 0.08120770752429962, -0.11038651317358017, -0.06467580795288086, 0.11937901377677917, 0.08172878623008728, -0.10654383152723312, 0.07146770507097244, -0.10672502964735031, 0.08780359476804733, 0.06845853477716446, 0.02523307129740715, -0.11417238414287567, -0.07704421132802963, 0.12355498224496841, -0.08795434236526489, -0.10975951701402664, -0.11171232908964157, -0.0012870347127318382, 0.062029220163822174, -0.07130175083875656, 0.08783859759569168, 0.09026239067316055, -0.06362659484148026, -0.07415372133255005, 0.07005317509174347, 0.07997158169746399, 0.02108909748494625, 0.05925146862864494, 0.032116811722517014, -0.08242334425449371, -0.11148258298635483, -0.10131759196519852, -0.12696245312690735, -0.08152490109205246, -0.06968524307012558, -0.012069299817085266, -0.0913141518831253, 0.11344627290964127, -0.06366703659296036, 0.040424808859825134, -0.10823053121566772, -0.022151825949549675, -0.08312566578388214, 0.10920818150043488, -0.045740388333797455, -0.03210720792412758, 0.0991630107164383, -0.0030415772926062346, 0.08660822361707687, -0.06297653168439865, -0.0790724828839302, 0.0950370728969574, 0.05508088320493698, 0.04997904598712921, 0.08919643610715866, 0.016575274989008904, 0.0653831884264946, -0.06069900095462799, -0.027642084285616875, 0.1093951165676117, -0.0974869579076767, -0.0018271055305376649, -0.08866771310567856, 0.07276790589094162, 0.11925221979618073, 0.08242662996053696, 0.03513598442077637, -0.07777175307273865, -0.020127343013882637, -0.12262983620166779, 0.03099982626736164, 0.07500316947698593, -0.00843234732747078, -0.010106094181537628, 0.062165215611457825, -0.06493598967790604, 0.11420399695634842, 0.013969579711556435, -0.04616687446832657, 0.046236928552389145, 0.03758405148983002, -0.020615922287106514, 0.10160969942808151, -0.12435624748468399, 0.1231125071644783, -0.10097862035036087, 0.016996607184410095, -0.023388994857668877, -0.017296170815825462, -0.012311394326388836, 0.08745613694190979, -0.05509204789996147, 0.07672448456287384, 0.0035921733360737562, 0.015221568755805492, 0.020768268033862114, 0.032872430980205536, 0.014313647523522377, -0.1202905997633934, -0.1030704528093338, 0.08460753411054611, 0.07344109565019608, 0.028040140867233276, 0.0072386073879897594, -0.04578059911727905, 0.0987197682261467, 0.10876821726560593, 0.07310005277395248, -0.08089463412761688, 0.04635176062583923, 0.009706053882837296, 0.03961458057165146, 0.0785384252667427, 0.11731408536434174, 0.030640296638011932, 0.07179059833288193, -0.05602887272834778, 0.07834657281637192, 0.0374528132379055, 0.11835624277591705, 0.00397593155503273, 0.11178848892450333, -0.007892261259257793, 0.01990295946598053, 0.1010228842496872, 0.09110157936811447, 0.10486935079097748, -0.0708187073469162, -0.08119044452905655, -0.08443592488765717, -0.04249833524227142, 0.11758705973625183, 0.10403748601675034, 0.05848972126841545, -0.015239366330206394, 0.06204548850655556, 0.049078602343797684, -0.12297160923480988, -0.002873021876439452, 0.06962644308805466, -0.020961323752999306, -0.11938778311014175, -0.01657107286155224, 0.09857992082834244, -0.03334124758839607, -0.11563419550657272, 0.11913368850946426, 0.02198266051709652, 0.026136482134461403, 0.02004624344408512, 0.041545793414115906, -0.09366869181394577, -0.11526120454072952, -0.014569549821317196, -0.010049032978713512, -0.11874312162399292, 0.11864306777715683, -0.07193510979413986, -0.12249229848384857, 0.007978423498570919, -0.03254534304141998, -0.0298190675675869, -0.10121696442365646, 0.0697803944349289, -0.08028534054756165, -0.014630591496825218, 0.09545549005270004, 0.09012800455093384, 0.11527373641729355, -0.06785400211811066, 0.0740940198302269, -0.06072976067662239, -0.09421925991773605, -0.003253734204918146, 0.032276373356580734, 0.09682522714138031, -0.08103455603122711, -0.00302513618953526, 0.0076714190654456615, -0.07025957107543945, 0.09051451832056046, -0.09130144119262695, -0.12045693397521973, -0.011940598487854004, 0.027641108259558678, -0.10498233884572983, 0.11951152235269547, 0.07809866219758987, -0.0572616383433342, -0.0608031190931797, -0.00960953813046217, 0.10883605480194092, -0.02043948695063591, 0.06249379366636276, -0.06739366054534912, -0.004867664072662592, 0.10502247512340546, 0.04428793117403984, 0.04074310138821602, -0.04347880184650421, -0.0025322986766695976, 0.11356464773416519, -0.03144490718841553, -0.03485549986362457, 0.11506479978561401, -0.0047644441947340965, 0.1134459525346756, 0.027443591505289078, 0.04988821968436241, 0.040066175162792206, 0.12469348311424255, -0.07191315293312073, 0.04740538075566292, -0.07764428853988647, 0.09225181490182877, 0.10491233319044113, 0.07856226712465286, 0.045454446226358414, 0.11200840771198273, -0.005370043218135834, -0.04319532960653305, 0.020817983895540237, -0.03227756917476654, 0.061979252845048904, -0.025311073288321495, -0.11656038463115692, 0.01934518665075302, 0.09846674650907516, -0.08015143871307373, 0.10307236760854721, -0.05833044275641441, -0.0844356119632721, 0.050331197679042816, 0.025727571919560432, -0.03080948442220688, 0.1076606959104538, -0.015644162893295288, 0.07832720130681992, 0.0007991346647031605, 0.10585258901119232, -0.07146032154560089, -0.035630252212285995, 0.04278426617383957, -0.011748428456485271, -0.04975174367427826, -0.08698907494544983, 0.0791298970580101, 0.06535468250513077, -0.02169332094490528, 0.10322485119104385, -0.023304283618927002, 0.04173390939831734, 0.011635092087090015, 0.08437255024909973, 0.03496847674250603, 0.06102705001831055, 0.03990946337580681, 0.0858878493309021, -0.01597508415579796, -0.05353633314371109, 0.05691712722182274, -0.09219397604465485, -0.123468779027462, -0.07748782634735107, -0.11166747659444809, -0.08199155330657959, -0.024465493857860565, 0.003992793150246143, -0.054443359375, -0.038436584174633026, 0.06762535870075226, -0.0165706817060709, 0.04482012987136841, -0.08825524151325226, -0.12421093881130219, -0.08815040439367294, 0.006869182921946049, 0.05036967620253563, 0.037104420363903046, -0.0072855958715081215, 0.09222099184989929, -0.10254957526922226, -0.08143243193626404, -0.04714971035718918, 0.06147744879126549, -0.05146193131804466, 0.018707275390625, -0.12305598706007004, -0.025101352483034134, 0.10771728307008743, -0.027792705222964287, -0.10887754708528519, 0.04891890659928322, -0.08413242548704147, 0.021445218473672867, -0.05240074545145035, 0.11235515028238297, -0.059694159775972366, -0.0190315879881382, -0.013625030405819416, 0.014495240524411201, -0.0308805163949728, 0.09337963908910751, 0.032490894198417664, 0.019786737859249115, -0.015747446566820145, -0.002172457054257393, -0.0015824043657630682, 0.08257780224084854, -0.1225411519408226, -0.021489575505256653, -0.0026338715106248856, -0.00620722072198987, 0.08557108789682388, -0.022709332406520844, 0.02011999301612377, 0.048572324216365814, 0.09137456864118576, 0.007874726317822933, -0.049596577882766724, 0.08230656385421753, 0.030196642503142357, 0.11826232075691223, -0.11615273356437683, -0.056533120572566986, -0.1247982382774353, 0.03550911694765091, -0.09869615733623505, 0.06465384364128113, -0.11731826514005661, 0.004564050585031509, -0.03593967482447624, -0.09825168550014496, -0.042484477162361145, -0.041549213230609894, -0.08750874549150467, -0.03393055126070976, -0.05741271376609802, -0.0027329884469509125, -0.11172427982091904, 0.05860946327447891, -0.02143119089305401, 0.07837837189435959, -0.10813172161579132, -0.0345405675470829, 0.08760877698659897, -0.07566139101982117, 0.1204313114285469, -0.04116053506731987, -0.02952542155981064, 0.02159052900969982, -0.09607627987861633, -0.10694408416748047, 0.03328759968280792, 0.025231923907995224, 0.05445317551493645, -0.08424428105354309, -0.09475595504045486, -0.09744424372911453, -0.12480127811431885, 0.04286328703165054, -0.09074555337429047, -0.10054393112659454, -0.006965368986129761, -0.09637611359357834, 0.02406976744532585, 0.10740020871162415, -0.11100397258996964, -0.0008808688726276159, 0.005794954486191273, -0.02302166447043419, 0.06801995635032654, 0.050557173788547516, -0.015487232245504856, -0.06317722797393799, -0.012027000077068806, -0.05491265282034874, 0.06757867336273193, -0.044244445860385895, 0.07605193555355072, 0.11962035298347473, -0.031212370842695236, 0.012235538102686405, 0.04284418374300003, -0.1198752224445343, -0.08605030179023743, 0.08205294609069824, 0.04966694861650467, 0.11991127580404282, 0.08570901304483414, 0.10581940412521362, -0.04050973057746887, -0.0702090933918953, -0.08159419894218445, -0.10471419245004654, -0.03172822669148445, -0.09549585729837418, 0.04808071628212929, -0.099637970328331, -0.06600555777549744, -0.10089538991451263, -0.010409664362668991, 0.11314896494150162, -0.008250403217971325, -0.07803358882665634, -0.058401476591825485, -0.046364665031433105, -0.1309846043586731, 0.08294741064310074, 0.1181255653500557, -0.08233257383108139, 0.08225630968809128, 0.019869489595294, -0.07965843379497528, 0.09628050774335861, -0.09135496616363525, -0.0412612222135067, -0.0796622633934021, 0.06750550121068954, 0.07267612963914871, 0.0018795863725245, -0.12213154882192612, -0.0756869837641716, -0.0818464532494545, -0.005540680140256882, -0.03706328198313713, 0.0013887073146179318, 0.06565258651971817, 0.04839325323700905, -0.05959514155983925, 0.1059357225894928, 0.06461351364850998, 0.10288944095373154, 0.08873780071735382, 0.0959511324763298, 0.012884843163192272, -0.1029626801609993, -0.029857957735657692, 0.1187535747885704, 0.10714655369520187, 0.011092730797827244, 0.05709047242999077, -0.09166727215051651, 0.09147580713033676, 0.11660699546337128, -0.0741550475358963, 0.047717563807964325, 0.1127200499176979, 0.049739982932806015, -0.11551988869905472, -0.0679405927658081, 0.05503588914871216, -0.08058203011751175, 0.01727933995425701, 0.07935493439435959, -0.024500753730535507, 0.053250934928655624, -0.05507831275463104, 0.1218123510479927, 0.05673377215862274, 0.10165262222290039, -0.01710674539208412, 0.05961862578988075, 0.05088486894965172, -0.08722874522209167, 0.04212481901049614, 0.05223841965198517, 0.07712224870920181, -0.020492875948548317, 0.12303280830383301, 0.04226348549127579, 0.13426539301872253, 0.04232998937368393, 0.10003133863210678, -0.1087602749466896, -0.02196151576936245, -0.08182509988546371, -0.029941048473119736, 0.11571827530860901, 0.05212191492319107, 0.09887750446796417, -0.09949835389852524, 0.003912629559636116, -0.07756651192903519, -0.07557696849107742, -0.05030030757188797, -0.025113629177212715, -0.11994853615760803, -0.12377899140119553, 0.12209559231996536, -0.06697064638137817, -0.11626211553812027, -0.09009706228971481, 0.02992619387805462, -0.0040505253709852695, 0.01746417209506035, -0.06161291524767876, -0.008864236064255238, 0.0050628152675926685, 0.10445993393659592, 0.07415939122438431, 0.0112326480448246, -0.12365520745515823, 0.01905127428472042, 0.002481326926499605, 0.07614167779684067, 0.034978240728378296, 0.04912015050649643, 0.03213338926434517, -0.09499526023864746, 0.009237478487193584, 0.05528495833277702, -0.06464357674121857, 0.054994650185108185, 0.013367515988647938, 0.09415009617805481, 0.015305728651583195, 0.09825956076383591, -0.0995250716805458, 0.05884898826479912, 0.10504226386547089, -0.0032843444496393204, 0.05319217965006828, 0.06040887534618378, -0.054414745420217514, 0.0729980543255806, -0.11767394095659256, -0.04804202914237976, -0.05164872482419014, 0.04686020687222481, 0.07689332216978073, -0.0912211611866951, -0.018280066549777985, 0.09380092471837997, -0.08426513522863388, 0.03808995708823204, -0.0016938383923843503, -0.10685553401708603, -0.02708449587225914, 0.08582036197185516, 0.07201358675956726, 0.12148944288492203, 0.04020635038614273, -0.09707988798618317, 0.06058400869369507, 0.06888820976018906, -0.02127876505255699, -0.10941465944051743, 0.08154942840337753, -0.08070167899131775, 0.11314324289560318, 0.10087361186742783, 0.04628324508666992, -0.041657522320747375, 0.04296083003282547, 0.05438396707177162, 0.03376214578747749, -0.0362081304192543, 0.07680317759513855, 0.11288187652826309, 0.04993981868028641, 0.11197805404663086, -0.0599791556596756, 0.061069563031196594, 0.039316266775131226, -0.04876529052853584, -0.03484934940934181, 0.1240113154053688, 0.0021207721438258886, -0.11695393174886703, 0.10441569238901138, -0.0187145434319973, -0.11980707943439484, -0.11965583264827728, 0.061283621937036514, 0.11553899198770523, 0.07436593621969223, -0.11932776123285294, 0.06734038144350052, 0.035664185881614685, -0.0783604085445404, -0.0016775303520262241, -0.11166142672300339, -0.03001747466623783, 0.06543604284524918, 0.0944756492972374, -0.06489291042089462, 0.12272296845912933, -0.11520656198263168, 0.03841663897037506, 0.0518181286752224, -0.012285028584301472, -0.03343047574162483, 0.04646921157836914, 0.11273851990699768, -0.09687294065952301, -0.08484231680631638, 0.10570686310529709, -0.11986435949802399, 0.05489097908139229, 0.09275228530168533, -0.08586540818214417, -0.06986679881811142, -0.004384781699627638, -0.008589248172938824, 0.08737346529960632, 0.08120225369930267, 0.062450796365737915, 0.07139505445957184, 0.0776747465133667, -0.033142827451229095, -0.10437271744012833, 0.06275665014982224, 0.007553526666015387, 0.007383966818451881, -0.066969133913517, 0.05883941799402237, 0.029709912836551666, -0.07972196489572525, -0.07491990178823471, 0.07068385928869247, 0.11017357558012009, 0.05576183274388313, 0.09735944122076035, -0.0013588769361376762, 0.03783160820603371, 0.07637657970190048, -0.08826296776533127, -0.03717906028032303, -0.10858659446239471, -0.054057344794273376, -0.09138956665992737, 0.10984532535076141, -0.08598607778549194, -0.021482063457369804, -0.009440367110073566, 0.10558291524648666, -0.06900244951248169, 0.10321858525276184, 0.05618373304605484, -0.10990992933511734, 0.003567033214494586, 0.0741548016667366, 0.008882300928235054, 0.10465212166309357, -0.10156681388616562, 0.10131032764911652, -0.04497278481721878, 0.020016290247440338, -0.05376053601503372, 0.03874291852116585, 0.08146928250789642, 0.028879202902317047, 0.05446608364582062, -0.06538213044404984, 0.037956930696964264, -0.04816531389951706, 0.031632885336875916, -0.07329833507537842, 0.1083843857049942, 0.07428329437971115, -0.07358898967504501, 0.07197029888629913, 0.09807956218719482, 0.10321950912475586, 0.0502556636929512, -0.01794367842376232, -0.08371834456920624, 0.08929882198572159, 0.060810040682554245, -0.005061773117631674, 0.07992678880691528, 0.11662113666534424, -0.10912074148654938, -0.027964284643530846, 0.03159366175532341, 0.06698068231344223, 0.02495214156806469, -0.08560751378536224, 0.023047419264912605, -0.1236988827586174, -0.046138107776641846, -0.046352650970220566, -0.10468065738677979, 0.060003116726875305, 0.010131344199180603, 0.04830162227153778, 0.11398697644472122, 0.09362106770277023, 0.08338979631662369, -0.05138178914785385, 0.1146053746342659, -0.0997622162103653, -0.06005297228693962, -0.0870313048362732, 0.02503379061818123, 0.12150996923446655, 0.04796886444091797, 0.1152651235461235, 0.09019999951124191, 0.09045448154211044, 0.015766553580760956, -0.11204709112644196, 0.0703616663813591, 0.018056901171803474, 0.11230188608169556, -0.08732582628726959, 0.004433071706444025, -0.0905849039554596, 0.0645650178194046, 0.11493857204914093, 0.020914673805236816, 0.11805006861686707, 0.11763889342546463, 0.02227635309100151, 0.0004100637452211231, -0.043263960629701614, -0.013323572464287281, -0.05218478664755821, 0.02413608692586422, 0.0836297944188118, -0.04674553871154785, 0.06422050297260284, 0.0768532007932663, 0.016612326726317406, -0.0011368852574378252, -0.1109955757856369, 0.08360255509614944, 0.001658268622122705, -0.02987826056778431, -0.07408769428730011, -0.005511809140443802, -0.05221009626984596, 0.010555529966950417, -0.06209344044327736, 0.10927753895521164, -0.027791544795036316, -0.12164480984210968, 0.037436094135046005, -0.11375671625137329, 0.12603291869163513, 0.11151477694511414, -0.08884526044130325, 0.0945751890540123, -0.12217313796281815, -0.08523521572351456, -0.07038960605859756, -0.11047548800706863, -0.09427417069673538, -0.013177195563912392, 0.11974529922008514, -0.09956918656826019, -0.054760631173849106, 0.0012741268146783113, 0.09015081077814102, 0.010164577513933182, -0.08943261206150055, 0.06714890152215958, -0.0927991196513176, 0.1233348697423935, 0.01698344387114048, -0.10710333287715912, 0.04049316421151161, -0.08528516441583633, -0.04904935136437416, -0.11839722096920013, -0.10833108425140381, 0.014469034969806671, 0.08005614578723907, 0.03632780909538269, 0.05804402753710747, 0.011839267797768116, 0.12300997227430344, -0.06003234162926674, 0.10670817643404007, -0.09075818210840225, 0.12146822363138199, -0.09079437702894211, -0.09166805446147919, -0.10553936660289764, 0.044678520411252975, 0.07252402603626251, 0.07862703502178192, -0.12267735600471497, 0.02439373917877674, -0.12154053896665573, -0.07697750627994537, 0.003676084103062749, -0.02220228500664234, 0.12479937821626663, -0.09219441562891006, 0.13371224701404572, -0.1104603037238121, -0.0820271447300911, -0.11592339724302292, -0.05953724682331085, -0.04335857927799225, -0.03253106400370598, -0.07496122270822525, -0.0119733652099967, -0.025494838133454323, -0.05899088457226753, 0.04269993305206299, 0.09066035598516464, 0.04809580743312836, -0.09667541086673737, -0.1294141262769699, 0.04759865254163742, -0.0580841489136219, -0.06694544106721878, 0.12245310097932816, 0.09252670407295227, -0.05772258713841438, -0.09964573383331299, -0.0912562683224678, 0.09582512825727463, 0.024776481091976166, -0.02367570251226425, 0.0029779241885989904, 0.044220853596925735, 0.07466630637645721, -0.09332668036222458, 0.02662001922726631, -0.09223450720310211, 0.10333587974309921, -0.10125952959060669, 0.09052149206399918, -0.1134248673915863, 0.10819453001022339, 0.038740843534469604, -0.07738499343395233, -0.0424225814640522, -0.052914660423994064, 0.09567584097385406, -0.014688766561448574, -0.07366758584976196, -0.01053719874471426, 0.08627119660377502, 0.03740909695625305, -0.027771353721618652, -0.059803254902362823, 0.031677667051553726, 0.06979486346244812, 0.016009217128157616, -0.08624451607465744, 0.029433919116854668, -0.014867865480482578, 0.033370256423950195, 0.00349838612601161, -0.029473748058080673, -0.10065677762031555, 0.07394207268953323, 0.12127916514873505, 0.10271655023097992, 0.028004446998238564, -0.0015802974812686443, 0.007825624197721481, -0.09161250293254852, -0.1137048751115799, -0.04943479225039482, 0.05263286456465721, -0.045684684067964554, 0.08973678946495056, -0.11528001725673676, -0.07617007941007614, -0.08597259968519211, 0.06880294531583786, -0.10900984704494476, -0.08245351910591125, -0.10170337557792664, 0.0929626002907753, 0.00232644728384912, -0.07660660892724991, 0.11916299164295197, 0.042222730815410614, -0.06168416514992714, 0.033442139625549316, 0.024712910875678062, -0.02926035039126873, -0.042199425399303436, -0.04521448165178299, -0.014799158088862896, -0.08760752528905869, 0.10929267108440399, -0.013630688190460205, -0.014786290004849434, -0.011458187364041805, -0.0007237164536491036, -0.08504325896501541, 0.01380035001784563, 0.0678081214427948, 0.03173590078949928, 0.09370660036802292, -0.1148936077952385, -0.11207575350999832, -0.06589171290397644, -0.028686152771115303, -0.021087724715471268, -0.031295470893383026, -0.006711005698889494, 0.10703369230031967, -0.1347176730632782, -0.09628079831600189, -0.04675925523042679, 0.004568406846374273, 0.05612856522202492, -0.017363186925649643, 0.049288392066955566, 0.11177242547273636, 0.11641142517328262, -0.04727919399738312, -0.005716459825634956, -0.010799811221659184, 0.04621373489499092, 0.11891909688711166, 0.11357694864273071, 0.0066479407250881195, 0.07756389677524567, 0.011052198708057404, -0.09908612072467804, -0.009277541190385818, 0.0056914519518613815, -0.0036652302369475365, 0.03038458712399006, -0.05837947875261307, -0.07846272736787796, 0.10396832972764969, 0.01653679832816124, -0.115427665412426, -0.07539866864681244, 0.05408615246415138, 0.05348173901438713, 0.04445319250226021, -0.08446890860795975, -0.055604662746191025, -0.005024406127631664, -0.037847850471735, 0.08478911966085434, -0.11615288257598877, 0.0802878886461258, -0.07316456735134125, 0.08964788168668747, 0.08795886486768723, -0.017571179196238518, -0.002538622822612524, 0.07235636562108994, 0.046822406351566315, -0.010503017343580723, -0.052372511476278305, 0.062297523021698, -0.0016345303738489747, 0.0284405667334795, 0.054240819066762924, 0.025904813781380653, -0.04144326597452164, 0.10080554336309433, 0.026797978207468987, -0.04406676068902016, -0.013964503072202206, 0.033918365836143494, 0.02701963111758232, 0.09975506365299225, -0.013499819673597813, 0.04370804503560066, -0.09630428999662399, 0.02908669039607048, 0.09423404186964035, 0.11691246181726456, 0.02591029182076454, -0.0062312837690114975, -0.049942247569561005, 0.08337873220443726, 0.07831669598817825, -0.044682879000902176, -0.12028207629919052, 0.06430336833000183, 0.02744681015610695, -0.034886084496974945, 0.015154914930462837, -0.037162430584430695, -0.0940612405538559, -0.012989597395062447, 0.07933572679758072, 0.009447365999221802, -0.03624624386429787, 0.00248679774813354, 0.08277572691440582, -0.10074839740991592, -0.0521535687148571, -0.05712660029530525, -0.08672866970300674, 0.061229586601257324, 0.10353708267211914, -0.07648245245218277, -0.05595928058028221, 0.08561202883720398, 0.0020267274230718613, -0.036745280027389526, 0.12358253449201584, 0.10110202431678772, -0.0203949473798275, 0.03423606604337692, 0.11862882226705551, -0.016671916469931602, 0.08156587928533554, 0.08462700247764587, 0.09149657934904099, -0.10192959755659103, 0.09517421573400497, 0.06384500116109848, -0.043928537517786026, 0.02250954508781433, 0.007516233716160059, -0.10024646669626236, 0.07139137387275696, 0.025346850976347923, 0.07425525039434433, -0.11964360624551773, 0.047334976494312286, 0.08656971156597137, 0.11502589285373688, -0.10026737302541733, 0.02226925641298294, -0.016225235536694527, 0.07163682579994202, 0.09498251229524612, -0.01109151542186737, -0.05442836508154869, -0.060655076056718826, 0.12275683134794235, -0.04171597212553024, 0.08299349248409271, -0.05340589955449104, -0.12624132633209229, -0.11666836589574814, 0.0628993958234787, -0.1226552426815033, -0.03659852594137192, -0.008842343464493752, -0.07090815156698227, 0.00145458965562284, -0.026760289445519447, -0.06806887686252594, 0.00671043898910284, -0.07097042351961136, -0.034447357058525085, 0.07221227884292603, -0.010045467875897884, 0.09673579037189484, 0.08055269718170166, 0.004955878481268883, 0.05229644849896431, 0.01643245294690132, -0.09002529084682465, -0.08282239735126495, -0.004619539249688387, 0.06199461594223976, 0.0273539200425148, -0.12005164474248886, -0.012672694399952888, 0.09595589339733124, 0.06048315018415451, 0.09502053260803223, -0.036050230264663696, 0.11688121408224106, -0.04961732029914856, 0.1021786779165268, -0.06734597682952881, 0.06668633222579956, 0.03334181010723114, 0.09653527289628983, 0.028659271076321602, 0.044908083975315094, 0.008889487944543362, -0.09056112170219421, -0.11086786538362503, -0.044613804668188095, -0.0179749745875597, 0.012633162550628185, 0.08483817428350449, 0.06634428352117538, -0.013004092499613762, 0.10855993628501892, 0.09155329316854477, -0.043211016803979874, -0.10150989890098572, -0.0005469383904710412, -0.04074810817837715, -0.09026382863521576, 0.08362255990505219, 0.08909934014081955, 0.012888720259070396, 0.016067540273070335, -0.07575099915266037, 0.06304822862148285, -0.09869681298732758, -0.08242939412593842, 0.09129783511161804, 0.09189218282699585, 0.10402534157037735, -0.011932145804166794, 0.05017723888158798, -0.015079262666404247, -0.02053806371986866, 0.12206482887268066, 0.09459787607192993, 0.12213452160358429, 0.09869739413261414, 0.10050297528505325, -0.03394072875380516, 0.056295037269592285, 0.02769344672560692, -0.0844544768333435, -0.020875828340649605, 0.03970395401120186, -0.08347362279891968, 0.11837751418352127, -0.08173403888940811, 0.11179118603467941, -0.0070591759867966175, 0.09772620350122452, 0.00699561508372426, 0.040934547781944275, 0.0316062830388546, -0.06345359236001968, -0.07799402624368668, -0.11864838004112244, 0.08963537216186523, -0.047413479536771774, -0.0997578427195549, -0.12426641583442688, -0.11853506416082382, -0.019412696361541748, -0.053300026804208755, -0.035488199442625046, -0.11840047687292099, -0.07101716846227646, 0.0635436475276947, -0.023681744933128357, 0.04351208359003067, 0.007720462512224913, 0.12420792132616043, -0.006713752169162035, 0.11028633266687393, 0.015875574201345444, -0.03879643976688385, -0.01063627190887928, 0.08650898188352585, 0.062474410980939865, 0.06656055897474289, 0.08330747485160828, -0.12067762762308121, 0.10526426881551743, -0.059829339385032654, 0.06656688451766968, -0.007927720434963703, 0.08345478773117065, 0.1071830689907074, -0.032928116619586945, -0.03777837008237839, -0.031574007123708725, 0.034259162843227386, 0.11077840626239777, 0.09293889254331589, -0.10752395540475845, -0.06477648764848709, -0.044218480587005615, 0.11327855288982391, -0.06383930146694183, 0.004160489421337843, 0.08507596701383591, 0.09099214524030685, 0.06154148653149605, -0.10542827844619751, 0.07273668050765991, -0.02269686944782734, 0.0415433906018734, -0.09398595988750458, 0.03832784667611122, 0.08494284749031067, -0.107726089656353, -0.0013103176606819034, -0.02172405645251274, -0.008973823860287666, -0.09372492879629135, -0.11966654658317566, -0.10082824528217316, -0.06102629005908966, 0.07474491000175476, 0.10411348193883896, -0.08962874114513397, 0.12490922957658768, 0.015166964381933212, -0.06246613338589668, -0.11382830888032913, 0.012316606007516384, -0.06762050092220306, 0.057902127504348755, -0.016050493344664574, 0.08292097598314285, -0.09820132702589035, -0.0019155320478603244, 0.05222712829709053, 0.039687756448984146, -0.11207657307386398, -0.05995085835456848, 0.04810900241136551, -0.037180494517087936, 0.047562699764966965, -0.041884660720825195, 0.03677361086010933, 0.01156618632376194, 0.009788885712623596, -0.10542941838502884, 0.01861502230167389, 0.08105302602052689, 0.01688603311777115, 0.022111129015684128, -0.04455830156803131, 0.08218498528003693, -0.08779723197221756, 0.07207958400249481, 0.061368975788354874, 0.12101750075817108, 0.08662612736225128, -0.06155408173799515, -0.0071951039135456085, 0.024077465757727623, 0.09803217649459839, -0.04084013029932976, 0.047898825258016586, -0.11949056386947632, 0.02060682326555252, 0.08617673069238663, -0.004357550293207169, 0.11665789037942886, 0.12040401250123978, -0.06309493631124496, 0.013061168603599072, -0.13276617228984833, 0.012349443510174751, -0.024379653856158257, 0.10135587304830551, 0.043802350759506226, 0.07570997625589371, -0.06350775808095932, -0.04161658138036728, -0.022669168189167976, 0.06521818041801453, 0.04255944862961769, -0.12460701912641525, 0.07099059224128723, 0.08509863913059235, -0.08999087661504745, -0.10088401287794113, 0.08081389963626862, -0.05059399828314781, 0.05784885957837105, -0.04470362141728401, 0.0760524570941925, 0.09468888491392136, -0.02997848019003868, 0.09993820637464523, -0.04907054454088211, 0.010454749688506126, -0.02061152271926403, -0.037349145859479904, -0.041144371032714844, 0.015370724722743034, 0.1141558587551117, -0.06862601637840271, -0.11830472201108932, 0.06689947098493576, 0.08230182528495789, 0.05095243826508522, 0.11764019727706909, -0.00423892168328166, -0.0918043777346611, 0.0009342347620986402, 0.00424908148124814, 0.05084747448563576, 0.09754779934883118, 0.08242551982402802, -0.03948318213224411, 0.0044042496010661125, -0.051916152238845825, -0.006348893977701664, -0.04646450653672218, -0.08465048670768738, 0.10438255220651627, -0.0348992645740509, -0.061949681490659714, -0.07277922332286835, -0.06002286076545715, -0.08959803730249405, -0.09358631074428558, -0.07913017272949219, 0.0386161282658577, 0.06932593882083893, 0.0670645534992218, -0.1114373430609703, -0.04231451824307442, 0.055014003068208694, -0.022151414304971695, 0.021864429116249084, 0.03679303079843521, -0.02253331057727337, 0.06814434379339218, 0.09307366609573364, 0.021545954048633575, -0.0809062123298645, 0.07877697795629501, 0.12335770577192307, 0.04935155063867569, 0.12009713798761368, -0.004154242109507322, 0.11238649487495422, 0.08702412992715836, 0.12767449021339417, 0.11473343521356583, -0.062268853187561035, -0.02532210573554039, 0.08594663441181183, -0.062291260808706284, -0.059255991131067276, 0.02507341280579567, -0.08708232641220093, -0.10929062217473984, -0.05853215232491493, 0.05883154273033142, -0.0915646180510521, -0.06513325870037079, 0.06217336282134056, -0.09263049811124802, -0.010779292322695255, 0.12082553654909134, 0.09414590150117874, -0.04453209415078163, 0.01975741609930992, -0.008354210294783115, 0.0678396224975586, 0.10474209487438202, -0.06021453067660332, 0.0197701808065176, 0.07853681594133377, 0.015891481190919876, 0.03928744047880173, 0.048314232379198074, 0.10672421753406525, -0.13402873277664185, -0.11752248555421829, -0.13058063387870789, -0.07500793784856796, -0.10273582488298416, 0.10603031516075134, 0.023344362154603004, -0.12127985060214996, 0.0481274239718914, 0.10606226325035095, -0.08193482458591461, 0.08464691787958145, -0.037499815225601196, 0.08345495164394379, -0.10596687346696854, -0.03087526373565197, 0.04074449464678764, -0.06639457494020462, 0.05966032296419144, 0.09576528519392014, 0.10638052225112915, -0.03741149976849556, -0.07416325062513351, -0.043796904385089874, 0.07340283691883087, -0.02709292620420456, 0.05800969526171684, -0.09253090620040894, 0.031369466334581375, -0.08827002346515656, 0.013190834783017635, -0.05664246529340744, 0.043161194771528244, -0.013278213329613209, -0.03699580952525139, 0.03840067982673645, -0.10971621423959732, -0.10558898001909256, -0.0045663053169846535, 0.11173077672719955, 0.029522813856601715, 0.11373567581176758, 0.06508125364780426, -0.1231873407959938, -0.04793507233262062, -0.016225263476371765, -0.060784175992012024, -0.05385639891028404, 0.057899150997400284, 0.07154987007379532, 0.05193515866994858, -0.12377087771892548, 0.0190108735114336, -0.08875732123851776, 0.02044684626162052, -0.06562183052301407, -0.09127787500619888, 0.03046863153576851, 0.09817083179950714, -0.0636090561747551, -0.06971406936645508, 0.07694029062986374, -0.10098341107368469, -0.1196911633014679, 0.10840077698230743, 0.1106482595205307, 