{"format": "layers-v1", "algorithm": "stable-baselines3-ppo", "policy": "categorical", "output": "logits", "readOnly": true, "schema_version": 4, "layers": [{"in": 44, "out": 64, "w": [0.012100865133106709, 0.08775416761636734, -0.02896355651319027, -0.11596962064504623, 0.0977349579334259, 0.0907379686832428, -0.06474360823631287, -0.23787112534046173, -0.11700097471475601, -0.12259157001972198, -0.022195372730493546, -0.033553190529346466, 0.09172055870294571, 0.0410923957824707, -0.15592189133167267, -0.06349850445985794, 0.11443714797496796, -0.05598009005188942, 0.19628921151161194, 0.10689658671617508, 0.09475531429052353, 0.12276069074869156, 0.3368159532546997, -0.2841312885284424, -0.028083384037017822, -0.21687497198581696, 0.40163010358810425, 0.10706949234008789, 0.13884377479553223, 0.00997294019907713, -0.31244346499443054, -0.11932335793972015, -0.025484023615717888, 0.21410250663757324, 0.14373239874839783, 0.08432714641094208, 0.11511967331171036, 0.32134178280830383, 0.25378820300102234, -0.0629960298538208, -0.012784796766936779, -0.025135155767202377, -0.08938447386026382, -0.39102768898010254, 0.3450968265533447, -0.26864689588546753, -0.10803993046283722, 0.033740077167749405, 0.14147646725177765, 0.11947120726108551, 0.08046756684780121, 0.04412945732474327, 0.09392551332712173, 0.14684538543224335, -0.22793205082416534, 0.09004312753677368, 0.23963800072669983, 0.027397969737648964, -0.00829504244029522, -0.22173550724983215, 0.12680228054523468, 0.13190458714962006, 0.13861745595932007, 0.3546447455883026, 0.13624294102191925, -0.15142042934894562, 0.1607152819633484, -0.2978164553642273, 0.389293372631073, 0.08860349655151367, -0.0406026728451252, 0.016124827787280083, 0.008794422261416912, 0.13886690139770508, 0.024388037621974945, -0.14451153576374054, -0.1968834400177002, -0.28381744027137756, 0.07752445340156555, 0.06079794466495514, -0.15996432304382324, 0.19226734340190887, -0.034995973110198975, -0.10600895434617996, 0.0977102518081665, 0.269847571849823, -0.004576125647872686, 0.21495644748210907, -0.12082556635141373, -0.15121102333068848, 0.41253015398979187, 0.1017293930053711, -0.10260676592588425, -0.02168174833059311, 0.01074127946048975, -0.3895580768585205, 0.18617455661296844, 0.28041037917137146, -0.1636820286512375, -0.017631199210882187, -0.11549759656190872, -0.09935735911130905, -0.03788869455456734, 0.12956881523132324, 0.031054746359586716, -0.39558619260787964, 0.11162856221199036, -0.09371354430913925, -0.19525568187236786, -0.42615246772766113, 0.02991761825978756, -0.19320356845855713, -0.10478512942790985, 0.23727703094482422, 0.08329340815544128, 0.13656535744667053, -0.0809512734413147, -0.09097260981798172, -0.003940966911613941, 0.012461465783417225, -0.13154236972332, -0.3975476622581482, -0.10721462219953537, 0.175576850771904, -0.380466490983963, -0.061658382415771484, -0.04812399297952652, 0.002165560144931078, -0.2455223798751831, -0.1837579309940338, -0.07486547529697418, -0.03984455019235611, 0.1355825513601303, -0.012370197102427483, 0.022346874698996544, 0.08429908752441406, 0.1354048252105713, -0.13424868881702423, 0.16637101769447327, 0.029401609674096107, -0.08310519903898239, -0.13005220890045166, 0.19348205626010895, -0.25506049394607544, -0.08386643975973129, -0.13630782067775726, 0.1296161562204361, -0.34896427392959595, -0.3057986795902252, -0.06118115410208702, 0.03321215510368347, 0.12084036320447922, 0.1073271781206131, -0.12571416795253754, 0.24784766137599945, -0.0006368520553223789, -0.23111577332019806, 0.06909199804067612, -0.2873314619064331, -0.022826828062534332, 0.37318155169487, -0.32457834482192993, 0.3067176342010498, 0.00948584545403719, 0.07682976126670837, 0.22907818853855133, 0.04930811747908592, -0.03146970272064209, -0.001822938327677548, -0.1155993863940239, 0.07931419461965561, 0.010718679055571556, 0.07141035050153732, 0.3115076720714569, -0.05119573324918747, 0.027583496645092964, -0.19169606268405914, -0.05831902101635933, -0.06513680517673492, 0.22438128292560577, -0.2700633406639099, -0.22339092195034027, 0.29035210609436035, 0.1316743791103363, 0.16325314342975616, -0.20870250463485718, -0.008769967593252659, -0.11698386818170547, 0.15889616310596466, -0.10173483937978745, 0.23026695847511292, -0.23128919303417206, 0.0020436218474060297, 0.11957358568906784, -0.10532320290803909, -0.0761522650718689, 0.08231717348098755, -0.485132098197937, -0.05682869255542755, 0.06257061660289764, -0.19414366781711578, -0.0424981415271759, 0.1370687484741211, -0.0441441684961319, -0.044277846813201904, 0.008899952284991741, -0.1882927566766739, 0.10157343745231628, 0.03549040108919144, 0.043783433735370636, -0.1341504156589508, -0.14961588382720947, -0.08855930715799332, 0.12495865672826767, -0.07565616071224213, 0.12200962752103806, 0.1886996328830719, -0.1811666488647461, -0.11094646155834198, 0.23494622111320496, 0.20294947922229767, 0.2932673692703247, -0.1494276076555252, 0.16511021554470062, -0.058440741151571274, 0.03590017929673195, -0.0428171344101429, -0.15838293731212616, -0.2103320062160492, 0.0009315269999206066, 0.13435037434101105, 0.10509753972291946, 0.07799560576677322, 0.12639586627483368, -0.14273574948310852, -0.04260777309536934, -0.37810009717941284, 0.26473984122276306, -0.14468486607074738, 0.11290885508060455, -0.12401068210601807, -0.09877654165029526, 0.002044527791440487, -0.1586441844701767, -0.0029516653157770634, -0.0743289664387703, 0.1378844976425171, 0.10978386551141739, -0.1484016627073288, -0.13073250651359558, -0.2163897603750229, -0.08566108345985413, -0.09134677052497864, -0.08684732019901276, -0.2777705490589142, -0.3150167167186737, 0.04059360548853874, -0.254446804523468, -0.19121694564819336, 0.11198030412197113, 0.12226273864507675, -0.013814415782690048, -0.19049961864948273, -0.2339532971382141, -0.023838317021727562, -0.19018858671188354, -0.4184194803237915, -0.15656091272830963, -0.09729478508234024, 0.06917073577642441, -0.04208076000213623, -0.05935228615999222, -0.06176478788256645, 0.1114838570356369, -0.11147380620241165, -0.2785033881664276, 0.21446703374385834, 0.3613928556442261, -0.20417095720767975, -0.1488686054944992, -0.044981699436903, -0.049202293157577515, 0.14323461055755615, -0.0011445540003478527, -0.04354757070541382, -0.17730575799942017, -0.2064620852470398, 0.1428886204957962, -0.23769614100456238, -0.11351839452981949, -0.09389155358076096, -0.2587242126464844, 0.023740336298942566, 0.1140781044960022, 0.000949160079471767, 0.19924861192703247, 0.09582897275686264, -0.08950535953044891, 0.038417916744947433, -0.0579017773270607, -0.21724240481853485, -0.1737751066684723, 0.08793165534734726, 0.024835146963596344, -0.20728448033332825, 0.05770431458950043, -0.6054098606109619, -0.2472972422838211, 0.17620058357715607, -0.2600470781326294, 0.06384707242250443, 0.057031333446502686, 0.17955048382282257, -0.04848048463463783, -0.25912943482398987, -0.11092713475227356, 0.093446284532547, -0.09660514444112778, 0.2320244461297989, 0.09733977913856506, 0.0583028718829155, -0.40642571449279785, -0.3582962453365326, 0.1580946147441864, -0.08138875663280487, -0.15009115636348724, -0.16484645009040833, -0.21272894740104675, -0.12381353974342346, 0.08369799703359604, 0.14772993326187134, 0.0862380787730217, 0.04822276532649994, -0.08881764113903046, -0.2504555284976959, -0.09086546301841736, 0.10082565248012543, 0.009567133150994778, 0.15158604085445404, 0.04789343848824501, -0.02917402610182762, 0.17572923004627228, -0.10215375572443008, -0.25760912895202637, 0.09817835688591003, 0.06094936281442642, -0.04722592607140541, 0.1330053061246872, 0.3233461081981659, -0.07223324477672577, 0.11226994544267654, -0.07584702968597412, 0.1382744461297989, -0.25776156783103943, -0.24692033231258392, -0.20765484869480133, 0.12464436888694763, 0.07220698148012161, 0.006069590803235769, 0.12889179587364197, -0.06583640724420547, 0.05911550670862198, -0.042060915380716324, 0.1941773146390915, -0.04109635949134827, -0.2846583127975464, 0.12408488243818283, -0.18426735699176788, -0.15857748687267303, -0.13427844643592834, -0.01936977729201317, -0.04807685688138008, -0.29312583804130554, 0.026153704151511192, 0.028955886140465736, -0.5338916778564453, -0.139395609498024, 0.27375590801239014, -0.29084429144859314, -0.104307621717453, -0.21016144752502441, -0.05906032770872116, -0.3575354516506195, 0.0530996173620224, -0.10131139308214188, -0.22180627286434174, -0.06602936238050461, 0.12612763047218323, 0.4020785391330719, -0.18301212787628174, 0.06335711479187012, 0.009517562575638294, 0.12270300090312958, 0.11360947042703629, -0.026775464415550232, -0.04842774197459221, 0.2005303055047989, 0.33010727167129517, 0.12263227999210358, -0.41446825861930847, -0.2572343349456787, 0.16039541363716125, -0.38963139057159424, -0.15472684800624847, -0.18938319385051727, 0.22988508641719818, -0.06153089925646782, 0.012415515258908272, 0.179855078458786, -0.021405190229415894, 0.3496960997581482, -0.07844202220439911, 0.267747163772583, -0.11830773204565048, -0.09276486188173294, -0.11842338740825653, -0.21126678586006165, -0.12042279541492462, 0.1281844973564148, 0.07846280932426453, 0.28404703736305237, -0.16341382265090942, 0.1577642858028412, -0.2132173627614975, 0.17343704402446747, -0.28807440400123596, -0.007173205725848675, 0.33016857504844666, 0.08052881062030792, 0.05575502663850784, 0.16986218094825745, 0.08831992000341415, -0.10430124402046204, -0.11275335401296616, -0.285662442445755, 0.1894792765378952, 0.041081659495830536, 0.17540386319160461, 0.13564100861549377, 0.046233151108026505, -0.3312130272388458, 0.03163756802678108, -0.040141377598047256, -0.07386616617441177, -0.049081284552812576, -0.18831047415733337, 0.006622225511819124, -0.0485716350376606, 0.14807604253292084, -0.06126219406723976, -0.2695906162261963, 0.2795444428920746, -0.24377287924289703, 0.11342184245586395, 0.03572038561105728, 0.041988324373960495, -0.046742331236600876, 0.11339426040649414, -0.012506023049354553, -0.06745214015245438, -0.12086818367242813, -0.003413120284676552, -0.07721628248691559, -0.410118967294693, 0.20625369250774384, 0.054291460663080215, -0.13714678585529327, -0.439861536026001, 0.10745760053396225, 0.044342029839754105, 0.17618168890476227, 0.1075226292014122, 0.13892492651939392, 0.0012058804277330637, -0.06838735938072205, -0.23580563068389893, -0.06380369514226913, 0.32005614042282104, 0.11733756214380264, -0.12704311311244965, -0.12334363162517548, 0.05302112549543381, 0.11113397777080536, 0.08772804588079453, -0.2767179608345032, 0.12588943541049957, -0.021547211334109306, -0.1574394702911377, -0.014012280851602554, 0.2245570719242096, -0.05568721890449524, 0.04100789129734039, 0.043405141681432724, 0.09791123867034912, 0.03376290574669838, 0.17799794673919678, 0.0664636641740799, -0.2089398205280304, 0.027023637667298317, 0.21781130135059357, -0.10531128197908401, -0.06547103822231293, 0.2094465047121048, -0.18563959002494812, 0.0866590216755867, -0.21079100668430328, 0.122017502784729, -0.10873140394687653, -0.23206283152103424, 0.03603903576731682, -0.03306819871068001, -0.000657681783195585, 0.15204381942749023, -0.059114422649145126, 0.04489944502711296, -0.23848696053028107, 0.02801366150379181, -0.01880386471748352, -0.2664720416069031, -0.08036085218191147, 0.22493882477283478, 0.11130619794130325, -0.1732102632522583, -0.22687044739723206, -0.006119042169302702, 0.10606219619512558, -0.3040917217731476, 0.14856284856796265, -0.2802349925041199, 0.24152985215187073, 0.17780442535877228, -0.01738782413303852, 0.2634287476539612, 0.0831131711602211, 0.01641012355685234, -0.07421860843896866, -0.0625903531908989, -0.06317838281393051, -0.021392853930592537, 0.0719810277223587, 0.34602394700050354, -0.14306360483169556, 0.049557510763406754, -0.15623730421066284, -0.029096709564328194, -0.07125134021043777, 0.014340952038764954, 0.11567171663045883, -0.060503337532281876, -0.2309904396533966, 0.009851841256022453, -0.12379427254199982, -0.16963385045528412, -0.2911126911640167, -0.2672513723373413, 0.08649231493473053, -0.37584832310676575, 0.09557463973760605, -0.09647982567548752, -0.2000821977853775, -0.20457205176353455, 0.35659804940223694, -0.06649622321128845, -0.046084512025117874, 0.07345712929964066, -0.19138585031032562, -0.05824396759271622, -0.31844010949134827, -0.32686561346054077, 0.17450232803821564, -0.18338842689990997, -0.04713461175560951, -0.11499116569757462, -0.1021895557641983, 0.25815704464912415, -0.05474332347512245, 0.16586898267269135, 0.16757816076278687, 0.05989411100745201, -0.1892215758562088, 0.18060968816280365, 0.0496133416891098, 0.4053284227848053, -0.2719726860523224, -0.04949295520782471, 0.06920057535171509, 0.2628687024116516, -0.011487461626529694, -0.23022305965423584, 0.21997134387493134, -0.10303420573472977, 0.08305750042200089, -0.3740966320037842, 0.010040614753961563, 0.15264306962490082, 0.15587526559829712, 0.14360672235488892, 0.08572062849998474, -0.17751170694828033, 0.08701355755329132, 0.23892995715141296, 0.3909297585487366, -0.24846085906028748, 0.03488177806138992, 0.15041817724704742, 0.02605282887816429, 0.2944640815258026, -0.12099339812994003, -0.010717853903770447, 0.21267636120319366, 0.06666584312915802, 0.3026063144207001, -0.3202047348022461, 0.2808132469654083, -0.005718966946005821, -0.04182778298854828, 0.043103061616420746, -0.20242248475551605, -0.0636138916015625, 0.21623587608337402, -0.029397599399089813, 0.2544670104980469, -0.08197059482336044, -0.10512560606002808, -0.25875627994537354, 0.09672293812036514, -0.30662107467651367, -0.24260076880455017, -0.050358593463897705, -0.04276813194155693, -0.024217747151851654, 0.06805362552404404, -0.12425495684146881, -0.2630114257335663, -0.23584431409835815, -0.04891577735543251, -0.006539671681821346, 0.4993053078651428, -0.23794734477996826, -0.25981229543685913, -0.14097389578819275, 0.056571539491415024, 0.1625874936580658, -0.04618671163916588, 0.1564079374074936, 0.15033157169818878, -0.023340128362178802, 0.08405764400959015, -0.2219918966293335, 0.17482304573059082, 0.3209459185600281, -0.013309355825185776, -0.03083314187824726, -0.06161726266145706, 0.06350737810134888, 0.007723049260675907, 0.01143625471740961, 0.14233753085136414, -0.10100775212049484, 0.14407816529273987, -0.17596912384033203, -0.00025677247322164476, -0.11640991270542145, -0.12310989201068878, -0.043255895376205444, 0.18113058805465698, -0.23437219858169556, 0.03930775448679924, 0.40184709429740906, 0.10575197637081146, -0.023994041606783867, -0.16339190304279327, -0.27726125717163086, -0.21733862161636353, -0.11465582251548767, 0.0393124483525753, 0.17143139243125916, -0.15585999190807343, -0.038439784198999405, 0.4838389456272125, 0.1716248244047165, 0.05856086313724518, 0.06510716676712036, -0.12786059081554413, 0.10930076986551285, 0.2987441122531891, 0.0168052539229393, -0.046184852719306946, -0.12870121002197266, -0.03762228414416313, -0.03771505877375603, 0.05271364375948906, 0.2968820035457611, 0.37178686261177063, -0.06250899285078049, -0.07301848381757736, -0.0023756823502480984, -0.47307080030441284, -0.10175925493240356, 0.09070009738206863, 0.03257990628480911, -0.07941404730081558, -0.03584074601531029, -0.2136545032262802, -0.16833655536174774, 0.18114489316940308, -0.15682747960090637, 0.10154924541711807, 0.1901896744966507, -0.022948957979679108, -0.029819287359714508, -0.2801731824874878, -0.014461730606853962, -0.10246918350458145, 0.253243088722229, -0.0571175292134285, -0.0344010591506958, -0.18622517585754395, -0.2364240437746048, 0.07673259824514389, 0.2471572607755661, 0.08170544356107712, -0.10945329815149307, 0.13725627958774567, 0.16689832508563995, 0.030655940994620323, 0.25565528869628906, -0.12471327185630798, 0.30407091975212097, 0.09704220294952393, 0.1572408527135849, -0.03632011637091637, 0.018607616424560547, 0.21187828481197357, -0.16668559610843658, 0.22091320157051086, -0.34076717495918274, -0.004243590869009495, -0.08013664931058884, -0.2545790672302246, -0.21141642332077026, 0.05258677899837494, -0.13242265582084656, -0.1396285742521286, 0.04980885609984398, -0.0477200448513031, -0.11400564014911652, 0.20896178483963013, 0.07479050755500793, 0.3097887635231018, -0.11291301250457764, -0.030136682093143463, 0.01984708569943905, -0.02088247612118721, 0.10712496936321259, 0.26595157384872437, -0.2627030313014984, -0.11083124577999115, -0.04900138080120087, 0.002343948232010007, -0.010590680874884129, -0.05994977802038193, -0.3351501226425171, -0.27114880084991455, 0.14870478212833405, 0.19188359379768372, -0.16179227828979492, -0.07235807180404663, -0.20042496919631958, 0.0457727424800396, -0.1282823532819748, -0.11258754134178162, -0.025025686249136925, -0.03699394688010216, -0.1844908446073532, 0.2487407773733139, 0.2916262745857239, 0.16147135198116302, -0.0196054857224226, 0.025072893127799034, 0.013335086405277252, -0.2295566350221634, 0.15981794893741608, 0.19333648681640625, -0.1797391176223755, -0.35191696882247925, -0.004600080661475658, -0.057527411729097366, -0.03046463429927826, -0.3022370934486389, -0.17479215562343597, 0.13727165758609772, -0.010518734343349934, -0.12142127007246017, 0.2937486171722412, -0.39166784286499023, 0.19113920629024506, -0.0882711187005043, -0.012447444722056389, -0.1693045198917389, -0.01570538990199566, 0.18824148178100586, -0.07950033247470856, -0.2001686841249466, -0.08386991173028946, 0.17243734002113342, -0.415762722492218, -0.3052264451980591, 0.1888674646615982, -0.1674002707004547, -0.4648158848285675, -0.0543786957859993, -0.01406149473041296, -0.1258319616317749, -0.13928557932376862, 0.04777601361274719, -0.2078709751367569, -0.30404403805732727, 0.020222069695591927, 0.10707220435142517, 0.06720444560050964, -0.10349161922931671, -0.02422032691538334, -0.13106265664100647, 0.007918953895568848, -0.15834131836891174, -0.2959064841270447, -0.3098287284374237, 0.10762151330709457, -0.06910579651594162, 0.19166038930416107, -0.18979984521865845, -0.041430626064538956, 0.23031944036483765, 0.30785077810287476, 0.09567343443632126, 0.19727984070777893, -0.20289726555347443, -0.028440186753869057, 0.012787857092916965, 0.050025083124637604, -0.18094764649868011, 0.07310625910758972, -0.02854161337018013, -0.38433730602264404, 0.03298287093639374, -0.16897177696228027, 0.09972496330738068, -0.3420116603374481, -0.1408507227897644, 0.10896028578281403, -0.0035149315372109413, 0.1370829939842224, 0.019830238074064255, 0.13391798734664917, 0.04747110605239868, -0.04903511703014374, 0.014324757270514965, -0.010171135887503624, 0.21092648804187775, 0.16473190486431122, -0.07469608634710312, -0.2931831181049347, 0.012350901961326599, 0.15165512263774872, 0.026361525058746338, 0.052613310515880585, -0.08535083383321762, -0.07438981533050537, 0.17959626019001007, -0.06956315785646439, -0.06839640438556671, -0.11654605716466904, -0.1486680805683136, -0.2792835235595703, -0.3348137140274048, -0.3077547550201416, -0.1168559193611145, 0.008983340114355087, -0.17037640511989594, 0.016712885349988937, -0.05252447724342346, -0.07614891976118088, -0.3289416432380676, -0.24155226349830627, -0.16207125782966614, 0.12499319016933441, 0.19554832577705383, -0.2835254669189453, 0.009062973782420158, 0.08091717213392258, -0.290018767118454, 0.027727536857128143, 0.17584756016731262, -0.04789871349930763, 0.34824320673942566, -0.08504481613636017, 0.06295488774776459, -0.07692945748567581, -0.2018573135137558, 0.17118915915489197, -0.250672847032547, 0.028943009674549103, -0.3326742351055145, 0.20062528550624847, 0.003715961240231991, -0.05553314834833145, 0.09032990038394928, -0.25935083627700806, -0.09231109172105789, -0.0400867834687233, -0.34648019075393677, -0.0871768593788147, 0.33544039726257324, 0.21455243229866028, -0.18932785093784332, -0.08316348493099213, 0.05136466398835182, -0.11566751450300217, 0.3498671352863312, 0.14594396948814392, 0.08015759289264679, 0.09174539893865585, 0.25613686442375183, -0.2949049174785614, -0.10147253423929214, 0.17383717000484467, -0.09315487742424011, -0.2134893834590912, -0.11162208765745163, 0.12034553289413452, 0.16692110896110535, -0.12210389971733093, -0.18115848302841187, 0.057244542986154556, 0.05801830068230629, 0.1324627697467804, -0.1517951339483261, 0.030814385041594505, 0.00792838167399168, 0.03754409775137901, 0.0021139520686119795, -0.5082029700279236, 0.03282923996448517, -0.0043738726526498795, 0.17481577396392822, 0.3465502858161926, -0.07954272627830505, -0.06990895420312881, -0.1589592695236206, 0.07266101986169815, -0.18458859622478485, -0.284617155790329, 0.2280072271823883, 0.0384712889790535, 0.04505901411175728, 0.21308299899101257, -0.3195546865463257, 0.3163474202156067, 0.11074396967887878, 0.037132490426301956, 0.0020641048904508352, -0.509243905544281, -0.2140292227268219, -0.10087867081165314, 0.25351226329803467, -0.02553313784301281, -0.1619071215391159, 0.05732359364628792, -0.33347055315971375, -0.30483120679855347, 0.00995407160371542, 0.1438785344362259, 0.1927315890789032, 0.1909378618001938, -0.019708698615431786, 0.1043548583984375, -0.08748038113117218, 0.15835504233837128, -0.12452392280101776, 0.08316988497972488, 0.3514578342437744, 0.208199143409729, 0.19922015070915222, 0.17014025151729584, -0.12636549770832062, -0.021312154829502106, 0.07049951702356339, 0.04478316381573677, 0.16383832693099976, -0.05589595064520836, 0.03401712700724602, -0.23133011162281036, -0.2774098813533783, -0.11140773445367813, -0.36340174078941345, -0.09164471924304962, 0.003109813667833805, 0.14298205077648163, -0.1878272145986557, -0.28352513909339905, -0.00548562640324235, 0.01463300921022892, 0.03688395023345947, -0.04359112307429314, 0.021269416436553, -0.31684592366218567, -0.16550536453723907, -0.03648107498884201, -0.22797368466854095, 0.2181529998779297, -0.04226239025592804, 0.13956128060817719, -0.3190716505050659, 0.0005340552888810635, -0.03316672518849373, -0.1980101317167282, -0.12088575959205627, 0.16161298751831055, 0.029359593987464905, 0.143077552318573, 0.19427235424518585, 0.30646902322769165, 0.14909932017326355, 0.06713616847991943, -0.027602022513747215, -0.309970885515213, -0.27818894386291504, 0.4387636184692383, 0.08261039853096008, 0.23547977209091187, -0.4069511592388153, 0.0415043868124485, 0.13899649679660797, 0.10735540837049484, -0.2898300588130951, -0.08803638815879822, -0.18207910656929016, -0.12721900641918182, 0.0983133465051651, -0.0883888229727745, 0.07135616987943649, -0.04529714584350586, 0.19115491211414337, 0.18081292510032654, 0.2278795689344406, -0.1302114576101303, 0.20213674008846283, -0.12733779847621918, 0.006528254132717848, -0.022922229021787643, 0.29107025265693665, -0.09697085618972778, 0.12698966264724731, 0.04907779395580292, 0.119150310754776, 0.2629491090774536, 0.3198585510253906, -0.2334563285112381, 0.04264267906546593, -0.10705187916755676, -0.13491833209991455, 0.26661255955696106, 0.3418633043766022, -0.021631088107824326, 0.3469909131526947, 0.03372253477573395, 0.09745530039072037, -0.17860226333141327, -0.10310712456703186, -0.17846255004405975, 0.20576180517673492, -0.08561155945062637, -0.24641452729701996, -0.11898510158061981, -0.03097846545279026, 0.03004223108291626, 0.04039081931114197, 0.17140838503837585, 0.2443258911371231, 0.11684010922908783, 0.15274678170681, 0.040632590651512146, -0.2805199921131134, -0.09377511590719223, -0.1796722412109375, -0.0758945420384407, -0.27011385560035706, -0.009214918129146099, -0.015851499512791634, -0.1265251189470291, -0.051676198840141296, -0.3070005774497986, 0.15200725197792053, 0.20401914417743683, -0.21980811655521393, -0.31249645352363586, 0.41489237546920776, -0.13205960392951965, -0.11185254901647568, 0.09764020144939423, 0.11919893324375153, 0.16459819674491882, -0.030383925884962082, 0.2496667206287384, -0.054061394184827805, -0.1636154055595398, -0.11557278782129288, -0.1184375137090683, 0.07870811969041824, -0.1668311506509781, 0.19450139999389648, 0.07448782026767731, 0.12224625796079636, 0.13685694336891174, 0.14738060534000397, 0.08348393440246582, 0.09197942912578583, -0.28008830547332764, 0.026983391493558884, 0.09696829319000244, -0.056999437510967255, -0.18895569443702698, -0.2689674496650696, -0.00960166659206152, -0.10050950199365616, -0.25200244784355164, -0.43275186419487, 0.07267256826162338, -0.07570790499448776, -0.03610246255993843, 0.017931926995515823, 0.10105730593204498, 0.06131141260266304, 0.040097493678331375, -0.1099773719906807, 0.10628210008144379, 0.07855693250894547, 0.02153211273252964, 0.15014848113059998, -0.00627888971939683, -0.36882203817367554, -0.09542834013700485, 0.16883260011672974, 0.22467757761478424, 0.047601811587810516, 0.08725327253341675, 0.10230785608291626, -0.07541777938604355, -0.29220351576805115, -0.1539013832807541, -0.03260836377739906, 0.3206585943698883, 0.017831195145845413, -0.09427859634160995, -0.09685252606868744, 0.1560523509979248, 0.05174301937222481, -0.022112153470516205, 0.27064722776412964, -0.2937665581703186, 0.054642900824546814, 0.043667569756507874, -0.37166640162467957, 0.020301535725593567, -0.06420503556728363, 0.09544404596090317, -0.06524058431386948, 0.17815552651882172, -0.25608667731285095, 0.03589507192373276, -0.010516874492168427, 0.17031261324882507, -0.04185579717159271, 0.08021767437458038, 0.290457546710968, -0.4630739986896515, 0.1516946405172348, -0.07286076992750168, 0.282461941242218, 0.2361968457698822, -0.15984463691711426, -0.1094089075922966, -0.14345546066761017, -0.03088468872010708, 0.03981524705886841, -0.10201910138130188, -0.2346312254667282, 0.12187623232603073, -0.09513963013887405, 0.338069349527359, 0.09147965908050537, 0.01945006661117077, -0.08389724045991898, -0.2895500957965851, 0.44734132289886475, -0.221491277217865, 0.006889165844768286, 0.14815829694271088, -0.09137691557407379, -0.2230355143547058, 0.12771303951740265, 0.11232184618711472, -0.12043802440166473, -0.0033807556610554457, 0.16839013993740082, -0.05151687189936638, -0.07170256227254868, -0.008095428347587585, 0.11123892664909363, 0.24282658100128174, -0.4012010395526886, -0.12809906899929047, 0.18016508221626282, 0.18592877686023712, -0.024663755670189857, 0.07298585772514343, -0.0498507022857666, 0.25085991621017456, 0.19957572221755981, 0.1159602627158165, 0.1958635300397873, -0.12679125368595123, -0.17006787657737732, -0.11696945130825043, 0.08182097971439362, 0.025548897683620453, -0.16255100071430206, -0.28199148178100586, -0.19851365685462952, -0.26109927892684937, 0.08264567703008652, 0.11577410995960236, -0.10181297361850739, 0.10875857621431351, 0.12980765104293823, 0.16678914427757263, 0.2247956097126007, 0.132130429148674, -0.048048898577690125, 0.08359743654727936, -0.13163015246391296, -0.2779501676559448, 0.2882864773273468, -0.36954137682914734, -0.014155284501612186, -0.05335317924618721, -0.17999903857707977, -0.013886681757867336, -0.05104297772049904, 0.012474228627979755, -0.01675529032945633, 0.26427868008613586, -0.19012673199176788, -0.10254121571779251, 0.07301989942789078, -0.13530197739601135, -0.24105525016784668, -0.12298084795475006, -0.027661360800266266, 0.10293066501617432, -0.1942305862903595, -0.41562560200691223, 0.07484596967697144, 0.018456142395734787, 0.2590234875679016, 0.13685661554336548, -0.022199945524334908, -0.4162578284740448, 0.11518961936235428, -0.34253567457199097, -0.0205595251172781, 0.29803019762039185, 0.3097335696220398, -0.05031171441078186, -0.09783453494310379, 0.3325430154800415, 0.049897704273462296, 0.07035656273365021, -0.15382565557956696, 0.41644200682640076, -0.39574941992759705, 0.3147304058074951, -0.1924467235803604, -0.15987470746040344, 0.0685170590877533, -0.08514109253883362, 0.29172125458717346, 0.08318934589624405, 0.019247474148869514, -0.004838026128709316, 0.21470434963703156, 0.027116132900118828, 0.08158361911773682, -0.011384730227291584, 0.1945851445198059, -0.31001877784729004, -0.0857914462685585, -0.016638563945889473, -0.05456496775150299, -0.26917025446891785, 0.10556609183549881, 0.34662723541259766, 0.24603675305843353, -0.16512641310691833, -0.05544387176632881, 0.2504381537437439, 0.12947362661361694, 0.07440990954637527, 0.19983871281147003, 0.3317054212093353, 0.04944336786866188, 0.01904662698507309, 0.2042437493801117, -0.010302122682332993, 0.07641136646270752, -0.02464265562593937, -0.013886080123484135, -0.01098059955984354, -0.027483398094773293, 0.22933009266853333, -0.21017855405807495, 0.13237574696540833, 0.22804774343967438, 0.05965990573167801, -0.1572980284690857, -0.4504735469818115, 0.23875156044960022, -0.1478966325521469, 0.09132017940282822, 0.2051139622926712, 0.04636538773775101, -0.07803971320390701, 0.13034243881702423, -0.027935897931456566, -0.11355768889188766, 0.1290474236011505, 0.25319647789001465, 0.12004280090332031, 0.32346558570861816, 0.05988331511616707, -0.32894474267959595, -0.16475547850131989, 0.1021781638264656, 0.00684331264346838, -0.04747125878930092, 0.30876877903938293, -0.2939613163471222, -0.11565690487623215, 0.0876116007566452, -0.28857943415641785, -0.004585387650877237, 0.12843625247478485, -0.024718759581446648, -0.11036393791437149, 0.14951977133750916, 0.2603693902492523, -0.00585657823830843, -0.14600342512130737, -0.07262544333934784, -0.045683421194553375, 0.1392773985862732, 0.06056203693151474, -0.029004257172346115, 0.1964249610900879, -0.2621631920337677, 0.2999213933944702, 0.026486443355679512, -0.008126615546643734, 0.1129591166973114, -0.039995431900024414, 0.001892593689262867, -0.11682252585887909, -0.020908862352371216, -0.05867960304021835, -0.1867288500070572, 0.419556200504303, -0.11384431272745132, 0.24898788332939148, 0.096377432346344, -0.11116067320108414, 0.012081910856068134, 0.14668558537960052, -0.02773556485772133, -0.059275347739458084, -0.08365076780319214, 0.03882349655032158, -0.15887673199176788, 0.09278549998998642, -0.008433246985077858, -0.06761699914932251, -0.020977260544896126, 0.0719592273235321, 0.21239598095417023, 0.21782547235488892, -0.14340227842330933, 0.19540776312351227, -0.04956190660595894, -0.15757979452610016, -0.21878565847873688, -0.46457961201667786, -0.13104347884655, -0.00982841569930315, -0.23800183832645416, 0.35242512822151184, 0.02235705591738224, -0.09899715334177017, -0.2886284291744232, 0.0800483226776123, -0.1767934262752533, -0.04235570877790451, -0.16405455768108368, -0.37940090894699097, 0.02252993732690811, 0.03538507595658302, -0.2677774131298065, -0.014823004603385925, -0.045782871544361115, 0.37062782049179077, 0.042332593351602554, -0.29543647170066833, -0.015393735840916634, 0.1400507390499115, 0.07405071705579758, 0.09311553835868835, 0.11774119734764099, 0.17845621705055237, 0.0724441409111023, -0.2863057851791382, -0.14157824218273163, 0.0949319526553154, 0.013866839930415154, -0.27791112661361694, -0.08658859878778458, 0.1295337826013565, -0.26121780276298523, 0.07264868170022964, -0.1924794614315033, -0.15797480940818787, -0.1829020380973816, -0.04129432141780853, -0.016927428543567657, 0.2700946629047394, -0.13424809277057648, 0.0678703784942627, -0.19746644794940948, 0.37496593594551086, -0.49915632605552673, 0.2027025669813156, -0.1255982667207718, 0.025784838944673538, 0.1040903776884079, -0.17436011135578156, -0.051418524235486984, -0.10151417553424835, 0.06866153329610825, -0.010714974254369736, 0.01934763602912426, 0.21194171905517578, -0.12136893719434738, -0.4154577851295471, 0.28336551785469055, 0.06247187405824661, 0.002174671972170472, -0.005150072276592255, -0.22068548202514648, 0.21567869186401367, -0.04118669405579567, 0.0028890471439808607, 0.060334157198667526, 0.06367188692092896, 0.12811946868896484, 0.22201408445835114, 0.018457217141985893, 0.132518470287323, 0.05902538076043129, 0.32566899061203003, -0.3763085603713989, -0.21425437927246094, 0.11771928519010544, 0.04089377075433731, 0.016321735456585884, 0.04877901449799538, 0.20882926881313324, 0.156288281083107, -0.22570393979549408, -0.23415756225585938, 0.13403087854385376, 0.12311674654483795, 0.08033039420843124, 0.35310667753219604, -0.19507136940956116, 0.21993260085582733, -0.10061273723840714, 0.0027360504027456045, -0.020790424197912216, -0.1471157819032669, -0.2968994081020355, -0.19995084404945374, -0.4219842851161957, 0.07342462241649628, -0.22621101140975952, -0.06818254292011261, 0.17928780615329742, 0.05245435610413551, 0.12854160368442535, 0.14074234664440155, 0.02950865402817726, 0.09973421692848206, -0.15726573765277863, -0.03535153344273567, -0.18444155156612396, -0.035471417009830475, -0.2336675524711609, 0.04900304228067398, 0.1695377379655838, 0.03589501604437828, -0.05502115935087204, 0.04515143483877182, 0.044077206403017044, 0.0643005296587944, -0.06910353899002075, 0.06946350634098053, -0.03595135733485222, 0.12726990878582, -0.1853853315114975, -0.08514301478862762, 0.03854437172412872, -0.34762340784072876, -0.14751623570919037, 0.11165900528430939, -0.26978975534439087, -0.11411909013986588, 0.30350688099861145, 0.04742472246289253, 0.13375191390514374, 0.032048895955085754, -0.2521447539329529, -0.41344523429870605, -0.21873022615909576, -0.01870996132493019, -0.14223988354206085, -0.010949105024337769, -0.02429821342229843, 0.04812198877334595, 0.1258275955915451, -0.06842974573373795, 0.09560033679008484, -0.1395629197359085, 0.0010635651415213943, 0.11752251535654068, -0.20360752940177917, 0.0060023777186870575, -0.13210999965667725, -0.24964013695716858, 0.08155356347560883, -0.12938375771045685, -0.2314077615737915, 0.07622578740119934, -0.09707808494567871, 0.19545751810073853, -0.41244086623191833, -0.24797354638576508, -0.13695627450942993, 0.3502368927001953, -0.04340062662959099, 0.03583596646785736, 0.14157932996749878, 0.29890358448028564, 0.03642914071679115, -0.05108082666993141, -0.35731184482574463, 0.26800337433815, 0.08205264061689377, 0.3172224164009094, 0.24199940264225006, 0.25514498353004456, 0.0880504623055458, -0.15166667103767395, -0.15540608763694763, -0.3063246011734009, -0.2392057180404663, 0.10566091537475586, 0.047374386340379715, -0.3219534158706665, 0.0866493433713913, -0.2384810596704483, -0.04070765897631645, 0.18116603791713715, -0.19762365520000458, -0.09567845612764359, -0.22261248528957367, -0.20858097076416016, 0.19187891483306885, 0.005257002543658018, 0.10276008397340775, -0.20587655901908875, 0.18085819482803345, -0.11864504218101501, -0.13200601935386658, 0.049595337361097336, -0.08874084800481796, 0.21111293137073517, -0.20694482326507568, -0.17452886700630188, -0.12840484082698822, 0.053844064474105835, 0.19676250219345093, 0.09566305577754974, 0.22571656107902527, -0.0687185749411583, 0.03184456750750542, 0.03743549436330795, 0.12275800108909607, 0.22973982989788055, 0.05486147478222847, 0.1652442365884781, 0.015423357486724854, 0.2975269556045532, -0.09650692343711853, 0.18384169042110443, -0.002263838890939951, -0.4211144745349884, -0.09190712869167328, 0.4064019024372101, 0.07172638177871704, -0.221845343708992, 0.09099423885345459, -0.1627928912639618, 0.039390068501234055, -0.030660565942525864, -0.17126640677452087, 0.13224312663078308, 0.184022456407547, 0.10885725915431976, -0.10866206884384155, -0.04928867891430855, -0.13001075387001038, -0.10471776127815247, -0.03762054070830345, -0.013151143677532673, -0.1368439942598343, 0.04725479334592819, 0.035168297588825226, 0.15679775178432465, 0.5078203678131104, 0.22070308029651642, -0.3446897268295288, 0.3639729619026184, -0.031518030911684036, -0.07639569044113159, -0.07280305027961731, -0.039900317788124084, 0.07323969155550003, -0.04559602215886116, -0.11613382399082184, 0.0054807341657578945, -0.23230324685573578, 0.04285554587841034, 0.32688310742378235, -0.025214899331331253, -0.01606469787657261, 0.13681204617023468, -0.0724843367934227, 0.1433069258928299, 0.056049834936857224, 0.05944538861513138, 0.04905413091182709, -0.3824777603149414, 0.12676861882209778, 0.09143701195716858, -0.33171364665031433, -0.17701531946659088, -0.08448565751314163, 0.21917779743671417, 0.22752586007118225, -0.20903700590133667, 0.1582861691713333, 0.14625245332717896, 0.05720866844058037, -0.09454899281263351, 0.1842176914215088, 0.034858934581279755, 0.5834231972694397, 0.1550227701663971, -0.1395745724439621, 0.10315579921007156, -0.06246405839920044, 0.1006670668721199, -0.00991313997656107, 5.176159902475774e-05, -0.03387025371193886, -0.1419118195772171, 0.07096408307552338, -0.13289515674114227, 0.10149367898702621, 0.2309536635875702, -0.192476287484169, 0.10713512450456619, -0.17612585425376892, 0.1626633107662201, 0.05060463026165962, -0.002839313354343176, -0.28651875257492065, -0.18541398644447327, 0.2357747107744217, 0.18912453949451447, -0.14907199144363403, 0.05865691974759102, -0.3268536329269409, 0.25051799416542053, 0.37992149591445923, -0.13618788123130798, 0.049215544015169144, -0.20404662191867828, 0.12417122721672058, -0.011460189707577229, 0.0416182205080986, 0.3055397570133209, -0.12806525826454163, 0.15639059245586395, 0.1912955790758133, 0.36608365178108215, 0.19879880547523499, 0.17341627180576324, -0.119460329413414, -0.11437779664993286, -0.10814832895994186, -0.03816254809498787, 0.3234143555164337, -0.08429313451051712, -0.13341587781906128, -0.16665390133857727, -0.10698223859071732, 0.35091784596443176, 0.18646563589572906, -0.2973215579986572, 0.15967565774917603, -0.07034697383642197, -0.05777905136346817, 0.3936634659767151, -0.08047065883874893, -0.05679822340607643, -0.0676378533244133, -0.21430015563964844, -0.38385120034217834, 0.060997217893600464, 0.04090268164873123, 0.14136892557144165, -0.08047586679458618, -0.04528012126684189, -0.008007855154573917, 0.23709574341773987, -0.030740398913621902, -0.10061712563037872, 0.07373230159282684, 0.11813300848007202, -0.03667436167597771, -0.10953235626220703, -0.027705863118171692, -0.1905452013015747, -0.008389191702008247, 0.08043863624334335, 0.32974570989608765, -0.0655098482966423, 0.05843661352992058, 0.007567260880023241, 0.047450244426727295, -0.2300979197025299, 0.1335410177707672, 0.09654296189546585, -0.20186154544353485, 0.020215192809700966, 0.2979957163333893, -0.11407461762428284, 0.13407446444034576, 0.20657868683338165, -0.2703218162059784, 0.06874732673168182, -0.062124915421009064, -0.28830018639564514, -0.043861620128154755, -0.043300237506628036, -0.03779083490371704, 0.0917152389883995, 0.006367838010191917, -0.09444218873977661, -0.045496322214603424, -0.21266022324562073, 0.10164757072925568, -0.0588909275829792, 0.31635481119155884, -0.04239637777209282, 0.36019018292427063, -0.15902958810329437, 0.1629173457622528, 0.15483148396015167, 0.23747308552265167, 0.15117309987545013, -0.21067698299884796, 0.1992943435907364, 0.2755618989467621, -0.1731412708759308, 0.13970717787742615, -0.1623106598854065, 0.008631431497633457, 0.16110657155513763, -0.1556481122970581, 0.085209421813488, -0.283981591463089, -0.2763981819152832, 0.027646537870168686, -0.07957032322883606, -0.28299418091773987, -0.18349479138851166, -0.08146169781684875, 0.12331933528184891, -0.05908222496509552, 0.04955489560961723, -0.038473956286907196, 0.06361814588308334, -0.023922154679894447, 0.2935355007648468, 0.11770280450582504, 0.10377253592014313, 0.2161892205476761, -0.04418832063674927, 0.12348303943872452, -0.23993512988090515, 0.16285544633865356, 0.07044173777103424, -0.1457459032535553, 0.3694086968898773, 0.000976043229456991, -0.07253479212522507, -0.29706403613090515, -0.23726361989974976, -0.16492053866386414, -0.19314825534820557, 0.2377677708864212, 0.058296434581279755, 0.015464873984456062, -0.05638701468706131, 0.11242468655109406, 0.06730613112449646, 0.3824646770954132, -0.15492402017116547, 0.3665018677711487, -0.13300590217113495, -0.17486348748207092, 0.07561802864074707, 0.18046437203884125, -0.1491977721452713, 0.06065988168120384, -0.3044232130050659, -0.032132603228092194, -0.3908441960811615, -0.06341364234685898, -0.011313523165881634, 0.2352094203233719, -0.178432434797287, 0.33668726682662964, 0.16624148190021515, 0.02496219612658024, -0.016163794323801994, -0.13744887709617615, -0.08212845027446747, -0.07064247131347656, 0.28337642550468445, -0.10753276944160461, 0.09050945192575455, 0.04784379526972771, -0.1503770649433136, 0.28723081946372986, -0.33278852701187134, 0.35856127738952637, -0.18133415281772614, -0.11068714410066605, -0.17028723657131195, -0.0695883184671402, -0.16516773402690887, -0.18780963122844696, 0.07802531123161316, -0.01151488721370697, -0.037393491715192795, 0.10400065779685974, 0.15803417563438416, 0.14404171705245972, 0.07001889497041702, 0.04224569723010063, 0.031249459832906723, -0.3633207380771637, -0.13878610730171204, -0.06469690054655075, -0.08528788387775421, 0.13504426181316376, -0.28639206290245056, 0.01528083998709917, -0.30437928438186646, -0.09458886086940765, 0.041422825306653976, 0.40002530813217163, 0.10611503571271896, 0.19615520536899567, 0.20749521255493164, 0.008636021055281162, -0.37378156185150146, -0.004711827728897333, -0.23038633167743683, 0.3939308822154999, 0.19941183924674988, 0.29455137252807617, -0.20134790241718292, 0.16639071702957153, -0.16222155094146729, -0.026082471013069153, -0.17798522114753723, -0.040001627057790756, -0.24407587945461273, 0.08119843900203705, 0.05243132263422012, -0.08864931017160416, 0.2193032205104828, -0.12036698311567307, -0.03204873576760292, 0.022451763972640038, 0.0144601259380579, -0.06358858197927475, -0.09161672741174698, 0.28412288427352905, -0.27595481276512146, 0.01761157065629959, -0.129318967461586, 0.057791851460933685, 0.2579326033592224, -0.05322042480111122, -0.14357444643974304, -0.008805075660347939, -0.08936214447021484, 0.1527881920337677, 0.12656015157699585, -0.08451307564973831, 0.07411819696426392, -0.25699830055236816, -0.2748583257198334, 0.20501065254211426, 0.1300126612186432, -0.415191113948822, 0.08014024794101715, -0.3853748142719269, 0.00867910124361515, -0.03087117150425911, 0.09932582080364227, 0.21951182186603546, -0.11575096845626831, 0.11914411187171936, 0.011165464296936989, -0.10373920947313309, -0.1738816499710083, -0.05434229224920273, 0.0036041010171175003, 0.19352510571479797, -0.01247350312769413, -0.29134321212768555, -0.2434411346912384, -0.3711386024951935, 0.22095125913619995, -0.017751554027199745, -0.17482861876487732, -0.0026430077850818634, 0.030071202665567398, 0.32265350222587585, -0.07530077546834946, -0.0771951973438263, 0.04290825128555298, 0.21638256311416626, 0.004047846421599388, 0.1322118490934372, 0.12137435376644135, -0.01742308959364891, 0.18792325258255005, 0.21750861406326294, -0.320114403963089, 0.021251453086733818, 0.13331638276576996, 0.3102903962135315, -0.023669470101594925, -0.030355283990502357, 0.204755038022995, 0.285142719745636, 0.06030532345175743, -0.11527406424283981, -0.4084709882736206, -0.07513770461082458, 0.3298107087612152, -0.13732750713825226, -0.061904702335596085, 0.15430842339992523, -0.0825820118188858, -0.2703738212585449, -0.22182020545005798, -0.11095258593559265, 0.027288397774100304, -0.18858975172042847, -0.16131672263145447, -0.15113934874534607, 0.08924202620983124, 0.07124944776296616, 0.05247137323021889, 0.25385409593582153, 0.0012241717195138335, -0.2038002610206604, -0.08221922069787979, -0.010841664858162403, -0.12680228054523468, 0.23524102568626404, -0.022664306685328484, 0.18403156101703644, -0.17584776878356934, 0.03003816492855549, 0.04490070044994354, -0.00275995465926826, -0.033785559237003326, 0.07560151815414429, -0.13896936178207397, -0.2844241261482239, -0.2586946189403534, -0.011121241375803947, 0.2748686373233795, -0.33135396242141724, -0.1084027886390686, 0.09932946413755417, 0.10527332127094269, 0.42521902918815613, -0.14248782396316528, 0.09058988839387894, 0.07296160608530045, 0.08243907988071442, 0.23326027393341064, 0.2593640685081482, -0.3646984398365021, -0.05753336846828461, -0.004878081381320953, 0.062437985092401505, 0.20427578687667847, 0.036793842911720276, 0.2319418340921402, 0.0686519667506218, -0.07230925559997559, -0.26746684312820435, 0.049189671874046326, 0.2086673378944397, 0.004936049226671457, -0.01863081380724907, -0.2658365070819855, 0.2652064263820648, 0.23122665286064148, -0.019891252741217613, 0.05528496205806732, -0.027213387191295624, -0.008001222275197506, -0.3511151373386383, 0.05447771027684212, -0.001308648381382227, -0.15069769322872162, 0.06322870403528214, 0.09405127912759781, 0.3369430601596832, 0.03567499294877052, 0.14375196397304535, 0.023280184715986252, 0.12240814417600632, -0.3432704210281372, -0.007500921841710806, 0.2648216187953949, -0.21003732085227966, -0.10398533195257187, 0.28701841831207275, -0.1805967092514038, -0.023482879623770714, 0.13562262058258057, 0.1802515685558319, -0.030243566259741783, -0.5314014554023743, -0.3093527853488922, -0.21746741235256195, 0.03765464574098587, 0.024341417476534843, 0.27343615889549255, 0.0046622054651379585, 0.26499342918395996, -0.10350102931261063, -0.055551569908857346, 0.19797591865062714, 0.20925049483776093, -0.21668463945388794, 0.16993430256843567, 0.20428231358528137, 0.098684161901474, 0.06121304631233215, -0.07851090282201767, 0.13451366126537323, 0.006702938582748175, -0.17966604232788086, 0.30220839381217957, 0.011153855361044407, -0.1527588814496994, 0.010147159919142723, -0.05444413796067238, -0.15240596234798431, 0.39727118611335754, -0.041499730199575424, -0.16254521906375885, -0.08032602816820145, -0.08506599813699722, 0.1119745671749115, 0.1205432265996933, 0.07471375167369843, 0.11249691992998123, 0.04520565643906593, -0.16455970704555511, -0.05030282586812973, 0.2350880205631256, -0.06094564497470856, -0.258488267660141, 0.1254531443119049, 0.1357395499944687, 0.1559729427099228, 0.0708504468202591, -0.03118402510881424, 0.13505476713180542, -0.0214521624147892, -0.048849765211343765, 0.028486071154475212, -0.2851124703884125, -0.277607798576355, 0.1539289504289627, -0.1955810934305191, 0.33839190006256104, 0.2247544229030609, 0.21554188430309296, -0.10330240428447723, 0.1432529091835022, 0.10381150990724564, -0.16946426033973694, -0.2887392044067383, -0.22901029884815216, -0.44017982482910156, 0.025318525731563568, -0.22231315076351166, -0.20314015448093414, 0.14552201330661774, -0.12482891976833344, 0.3422165513038635, 0.12349166721105576, -0.019479187205433846, 0.2237519919872284, 0.24024665355682373, 0.29480820894241333, -0.19095851480960846, -0.021483320742845535, 0.220257967710495, -0.02243911661207676, 0.13357225060462952, 0.06815610080957413, 0.14207887649536133, 0.3684646487236023, 0.16002622246742249, -0.2507672905921936, 0.013697609305381775, -0.04894755780696869, 0.047565165907144547, -0.026695922017097473, -0.1607576161623001, 0.14710555970668793, 0.16977490484714508, 0.45873820781707764, -0.12016640603542328, -0.02306269109249115, -0.009088093414902687, -0.17636406421661377, -0.1724080741405487, -0.09345611184835434, -0.04901658371090889, -0.2198600023984909, 0.34570378065109253, 0.5173678994178772, 0.24289366602897644, -0.2813614308834076, -0.1822812706232071, 0.29033708572387695, 0.005366695113480091, 0.14930100739002228, -0.07104185223579407, 0.03923387452960014, 0.17839190363883972, 0.052326321601867676, 0.06116367504000664, -0.12066549062728882, 0.13719160854816437, -0.003416953608393669, 0.11457180231809616, -0.3008913993835449, 0.20410005748271942, 0.13731645047664642, -0.09346935898065567, -0.24319618940353394, 0.004746435675770044, 0.3692990243434906, 0.01501644216477871, 0.07627833634614944, 0.1291777640581131, 0.2815435230731964, 0.2868029773235321, 0.3343033194541931, -0.216853067278862, 0.4679335057735443, -0.07760392874479294, -0.24325226247310638, -0.06411702930927277, 0.04401615634560585, -0.11134030669927597, 0.01382527220994234, -0.1365334838628769, 0.12673082947731018, 0.13255654275417328, -0.057300832122564316, 0.2798096537590027, 0.0643419697880745, -0.13024604320526123, 0.3754391074180603, -0.22415317595005035, 0.031872183084487915, 0.111989825963974, 0.17366476356983185, -0.10646554827690125, 0.08032491058111191, -0.1007610410451889, 0.17953556776046753, -0.13333147764205933, -0.02461005002260208, 0.16451449692249298, 0.028342070057988167, -0.10866377502679825, 0.1593184620141983, -0.08496838063001633, 0.1357114315032959, 0.18005040287971497, -0.23002120852470398, -0.36444079875946045, 0.2885362207889557, -0.05368363484740257, 0.18455009162425995, 0.15053437650203705, 0.03537069633603096, -0.0664745420217514, -0.03686727583408356, -0.29076603055000305, 0.1924728900194168, 0.014993620105087757, 0.2402316778898239, -0.08071518689393997, -0.07599908858537674, 0.08532078564167023, 0.08084002137184143, 0.09800467640161514, -0.5103132724761963, -0.061478737741708755, -0.00048519784468226135, 0.11166516691446304, 0.03399086743593216, 0.14858242869377136, 0.11144048720598221, 0.07930728048086166, -0.0716671571135521, 0.07948508113622665, 0.006631166208535433, 0.027144666761159897, 0.11042056977748871, -0.19295935332775116, 0.3988491892814636, 0.08845417946577072, -0.2252887487411499, -0.08579492568969727, 0.004423290491104126, 0.08735796809196472, -0.23757389187812805, -0.2318495362997055, 0.02147589437663555, 0.35069531202316284, 0.14737609028816223, 0.1768314391374588, 0.04609698802232742, -0.46547573804855347, 0.0601862296462059, -0.27120816707611084, 0.11318030953407288, 0.1110343337059021, 0.23785485327243805, -0.11388649046421051, -0.0502297580242157, 0.23334018886089325, -0.03540085628628731, 0.13523641228675842, 0.04861834645271301, -0.06974422186613083, 0.1819036304950714, -0.020176032558083534, 0.24064069986343384, 0.2462540864944458, 0.005819088779389858, -0.3585273325443268, -0.049240514636039734, -0.15709646046161652, -0.28076034784317017, -0.2236369103193283, 0.12649720907211304, 0.011290684342384338, -0.27920040488243103, -0.30913811922073364, 0.2704571783542633, -0.2744390666484833, 0.12458263337612152, 0.09107322990894318, -0.1453762799501419, -0.18347005546092987, 0.00838401447981596, 0.05675876885652542, 0.15199874341487885, 0.040731605142354965, -0.120954729616642, -0.17515745759010315, 0.2599254548549652, -0.021869558840990067, -0.22650888562202454, -0.0818314328789711, -0.13014647364616394, -0.0690222829580307, -0.010313748382031918, -0.42364537715911865, -0.08214385062456131, -0.4586358964443207, 0.14439569413661957, 0.1988835334777832, -0.05171622708439827, 0.0808756947517395, 0.016542816534638405, 0.05066973716020584, -0.1728736013174057, -0.2599194049835205, -0.23994727432727814, 0.24731239676475525, 0.030367258936166763, -0.2401861548423767, -0.17187049984931946, -0.07574238628149033, 0.15313942730426788, 0.005994446109980345, -0.14355845749378204, -0.12149421870708466, 0.07063466310501099, 0.24035699665546417, 0.1387270987033844, 0.16777090728282928, 0.17416760325431824, 0.0817423015832901, -0.3128340244293213, 0.17427334189414978, 0.03559807687997818, 0.10826094448566437, 0.0782431960105896, 0.21523383259773254, -0.2956688106060028, 0.11159127205610275, -0.10864382237195969, 0.10862851142883301, 0.03216618672013283, -0.2794814705848694, 0.1194523349404335, 0.14920572936534882, 0.20381256937980652, 0.16229505836963654, 0.03556285798549652, -0.412278413772583, 0.0833142027258873, 0.0011440577218309045, 0.15705902874469757, 0.12754297256469727, 0.012929356656968594, 0.10508020222187042, -0.11420038342475891, -0.18045881390571594, -0.251861572265625, 0.1878344714641571, -0.06825276464223862, -0.23518379032611847, 0.27169880270957947, 0.13950225710868835, 0.013291619718074799, 0.08685531467199326, 0.1510673314332962, 0.17528265714645386, 0.2295384258031845, -0.070839062333107, -0.24799789488315582, -0.2641298472881317, 0.0382215715944767, -0.09267746657133102, 0.1087552011013031, -0.012466692365705967, 0.1125963032245636, 0.04418959841132164, -0.08821450918912888, -0.1828114092350006, -0.016882451251149178, -0.24461953341960907, -0.09498666971921921, -0.061270177364349365, -0.32911261916160583, 0.38530340790748596, 0.060695961117744446, -0.22791147232055664, -0.14217382669448853, 0.11508575826883316, -0.23711559176445007, -0.165372833609581, -0.030200902372598648, -0.2221153825521469, -0.04899953678250313, -0.36217164993286133, -0.2538672387599945, -0.028329409658908844, -0.2549985945224762, 0.005951340310275555, -0.05756351724267006, -0.019147224724292755, 0.16159696877002716, -0.008877255022525787, 0.1698487102985382, 0.019329829141497612, -0.1742967665195465, 0.009845159016549587, 0.5177438855171204, 0.005768459755927324, 0.0901254191994667, -0.21149979531764984, 0.03174937516450882, 0.07545733451843262, -0.14748117327690125, -0.012679152190685272, 0.23641963303089142, -0.2240266054868698, -0.026858005672693253, -0.05673474073410034, -0.03128442540764809, 0.021913379430770874, 0.19193410873413086, -0.20280085504055023, -0.09998354315757751, 0.27110162377357483, -0.2282780259847641, 0.05239259451627731, -0.08117228746414185, 0.03736643120646477, -0.2287244349718094, -0.015966931357979774, 0.08093945682048798, 0.289581835269928, 0.35336342453956604, 0.037406910210847855, 0.1751958131790161, 0.16629721224308014, -0.10320829600095749, 0.15945737063884735, 0.1873759925365448, 0.039529912173748016, -0.02098066173493862, 0.1372862160205841, 0.020219992846250534, -0.01723305881023407, 0.15652640163898468, -0.1957515925168991, -0.1300743669271469, 0.12869574129581451, -0.10325497388839722, -0.06700508296489716, 0.3135513663291931, 0.016603590920567513, -0.09962601214647293, -0.056733354926109314, 0.015951162204146385, -0.183347687125206, 0.270711213350296, -0.18768523633480072, -0.013938887976109982, -0.04547475278377533, -0.12380806356668472, 0.042343851178884506, -0.1528615653514862, 0.22780093550682068, 0.0040029920637607574, 0.0464508943259716, -0.18959610164165497, 0.316050261259079, -0.07246855646371841, -0.3216741979122162, 0.00919006671756506, -0.1277891844511032, -0.005125545430928469, 0.24433200061321259, -0.07089748978614807, 0.16928334534168243, 0.18364641070365906, -0.23765955865383148, -0.23569782078266144, 0.061663683503866196, -0.06896186619997025, -0.16493132710456848, 0.005689037032425404, -0.11125218868255615, -0.016683898866176605, -0.24286657571792603, 0.12618553638458252, -0.25566622614860535, -0.07396142929792404, -0.3087082505226135, 0.5098903775215149, -0.06536594778299332, -0.1419757455587387, -0.002059904858469963, -0.13609564304351807, -0.05830780416727066, -0.013377021066844463, -0.1494859755039215, -0.009286416694521904, -0.10611650347709656, -0.3506821095943451, 0.21345824003219604, -0.07473999261856079, 0.10400285571813583, -0.06150491535663605, 0.05238165706396103, 0.23494775593280792, -0.2862001359462738, -0.24642102420330048, -0.029090197756886482, 0.08474674075841904, 0.04877842217683792, -0.1825709342956543, -0.11371805518865585, 0.4075210690498352, 0.11765382438898087, -0.21481315791606903, -0.06541365385055542, 0.015461413189768791, -0.16646896302700043, -0.07511287182569504, -0.27810749411582947, -0.1744895875453949, 0.02188430353999138, 0.09821215271949768, -0.11631106585264206, 0.31040719151496887, 0.11093170195817947, -0.17361919581890106, 0.07736864686012268, 0.12686336040496826, -0.437166303396225, -0.3615071773529053, -0.09680166095495224, -0.1823805421590805, -0.07768934965133667, -0.016951752826571465, 0.17901675403118134, -0.2716107964515686, -0.028656749054789543, 0.31752902269363403, -0.11828186362981796, 0.04854593053460121, 0.06376811861991882, -0.13523012399673462, -0.19010549783706665, -0.02001657709479332, -0.06351233273744583, -0.2923491597175598, 0.040699634701013565, 0.01783316768705845, 0.35444188117980957, -0.24030959606170654, 0.07609106600284576, -0.0058937096036970615, -0.2229517549276352, 0.046626195311546326, -0.023665638640522957, -0.022902658209204674, -0.12927591800689697, -0.010044624097645283, -0.019348876550793648, -0.16726955771446228, -0.11526679247617722, 0.0978795737028122, 0.10239171981811523, 0.0019674755167216063, -0.0790010318160057, -0.2087942212820053, -0.05710459500551224, 0.2518285810947418, 0.23143602907657623, 0.18766969442367554, -0.14261120557785034, 0.15990345180034637, -0.054767727851867676, -0.06485344469547272, -0.3239404857158661, 0.14425508677959442, -0.16850295662879944, 0.12208698689937592, 0.2616928815841675, -0.20905429124832153, -0.014736384153366089, -0.1412210464477539, -0.008313500322401524, 0.3605072796344757, 0.02656920999288559, -0.08881017565727234, -0.016084391623735428, 0.11068681627511978, -0.136718288064003, 0.4581792950630188, -0.014183352701365948, -0.3092404007911682, 0.10204771906137466, -0.13823500275611877, 0.09542553871870041, -0.1055903509259224, 0.062399972230196, 0.02923709526658058, 0.021215802058577538, -0.016156040132045746, -0.12177398055791855, -0.13270017504692078, 0.02294311672449112, -0.10252104699611664, 0.03547665849328041, -0.10043491423130035, 0.10438024997711182, 0.178133025765419, 0.13106517493724823, -0.0024989850353449583, -0.25633490085601807, 0.26852551102638245, 0.2893464267253876, 0.23417365550994873, 0.10592865943908691, -0.17953115701675415, 0.223839670419693, -0.04632973670959473, -0.12332189083099365, 0.05957280099391937, 0.19521275162696838, -0.08554218709468842, -0.18960480391979218, -0.013899145647883415, -0.24009385704994202, -0.0994560495018959, 0.15845675766468048, 0.02975429967045784, 0.04744831472635269, 0.3649592995643616, -0.1587260514497757, -0.04534728452563286, 0.3696405291557312, -0.039840683341026306, 0.01588236168026924, 0.17911602556705475, 0.18098478019237518, -0.16603687405586243, -0.22668127715587616, -0.019336765632033348, -0.2169063240289688, 0.017240334302186966, 0.14112915098667145, 0.3265315592288971, 0.04985441267490387, -0.273676335811615, -0.060797300189733505, -0.04807857796549797, 0.20324255526065826, 0.06695380806922913, -0.026866666972637177, -0.09922724962234497, 0.13233333826065063, 0.07996784150600433, -0.02074356935918331, -0.26084282994270325, 0.03211073949933052, -0.24209918081760406, -0.140300452709198, -0.18957599997520447, 0.031067214906215668, -0.14878198504447937, 0.12882880866527557, -0.12716534733772278, 0.04395505413413048, -0.05978972464799881, -0.26728448271751404, -0.0435294434428215, -0.1747969686985016, -0.017136912792921066, -0.3738711178302765, 0.33143606781959534, -0.14747901260852814, 0.01979517564177513, 0.16077932715415955, 0.4018349349498749, -0.06053289398550987, 0.14540903270244598, -0.007713829167187214, 0.19423741102218628, 0.18027573823928833, -0.029250286519527435, -0.02934369444847107, 0.29181018471717834, 0.17394673824310303, 0.2657063901424408, 0.1656297892332077, 0.03891370818018913, -0.2640054225921631, 0.07720024138689041, -0.09138012677431107, 0.008632169105112553, 0.020802246406674385, 0.33094826340675354, -0.043204884976148605, 0.0720892995595932, 0.14013922214508057, -0.04148075729608536, -0.04465270787477493, 0.10867368429899216, 0.115421362221241, 0.1013541892170906, 0.08278769254684448, -0.15062099695205688, -0.025490764528512955, 0.00857115350663662, 0.015165458433330059, 0.01644846610724926, -0.45444434881210327, -0.042013019323349, -0.18566098809242249, 0.04115566238760948, 0.17948639392852783, 0.16506712138652802, 0.3654719591140747, 0.1341172158718109, -0.37499240040779114, 0.015707233920693398, 0.33537283539772034, -0.045709796249866486, -0.038019269704818726, -0.07395526021718979, -0.11869581788778305, 0.03665083274245262, -0.0740450993180275, 0.10849594324827194, -0.2387412190437317, 0.0985778346657753, 0.06964844465255737, 0.03935839235782623, 0.09920702874660492, 0.22675561904907227, -0.2693301737308502, 0.23252826929092407, 0.09258852899074554, -0.10818272829055786, 0.4789407551288605, -0.025709498673677444, 0.1656743884086609, -0.2060597687959671, 0.06945554167032242, 0.06524580717086792, -0.15550382435321808, 0.02526102215051651, -0.10373605787754059, 0.13435278832912445, -0.17598287761211395, -0.12992636859416962, -0.011382345110177994, 0.03156394138932228, -0.23383034765720367, -0.05355922505259514, -0.1220935583114624, -0.06598198413848877, -0.02400456927716732, 0.07562246918678284, 0.032182056456804276, -0.012188456021249294, -0.21139447391033173, -0.05782333016395569, -0.04091600328683853, -0.05654895305633545, -0.4177474081516266, -0.026037322357296944, 0.12097055464982986, 0.20039190351963043, -0.3962145447731018, 0.31893375515937805, -0.24541287124156952, 0.18699072301387787, 0.28345435857772827, -0.009067649021744728, 0.007367131300270557, -0.14772284030914307, 0.042182087898254395, -0.09025923162698746, 0.1714121252298355], "b": [-0.008662894368171692, -0.0059488434344530106, -0.013210137374699116, 0.006644740235060453, -0.0008198753348551691, -0.00753575237467885, -0.013684249483048916, 0.01292758621275425, -0.012939192354679108, 0.014512401074171066, 0.015597117133438587, -0.014760729856789112, -0.010141253471374512, 0.01406264491379261, 0.014577722176909447, 0.006167704239487648, -0.011736615560948849, -0.012781835161149502, -0.011929929256439209, -0.014476302079856396, 0.009651219472289085, 0.016006629914045334, -0.014875167980790138, 0.014815176837146282, -0.012386246584355831, 0.01493039820343256, 0.010651245713233948, 0.013408947736024857, -0.014456522651016712, 0.015163700096309185, -0.005404976196587086, -0.015721753239631653, -0.014972934499382973, -0.01129490789026022, -0.014829237014055252, 0.01257378701120615, 0.009447393007576466, 0.012423278763890266, 0.01531258411705494, -0.0027942315209656954, -0.006112763658165932, -0.015114784240722656, -0.01498384214937687, 0.010610811412334442, 0.006982880644500256, 0.01289415080100298, -0.015308558940887451, 0.014774588868021965, 0.014590860344469547, 0.013409122824668884, 0.013530420139431953, -0.010012381710112095, -0.010220174677670002, 0.005117887165397406, -0.014645110815763474, 0.009736357256770134, 0.008732245303690434, 0.014463855884969234, -0.014441507868468761, -0.014017573557794094, 0.01351010799407959, 0.011878684163093567, 0.015274744480848312, 0.014973162673413754], "act": "tanh"}, {"in": 64, "out": 64, "w": [0.2900638282299042, 0.08202258497476578, -0.03932395577430725, 0.013938402757048607, 0.08031219244003296, 0.1186310350894928, -0.11427494138479233, -0.271356463432312, 0.026430601254105568, -0.13699303567409515, -0.052942901849746704, 0.11123039573431015, -0.1380525380373001, 0.11846330761909485, -0.06636544317007065, -0.18569912016391754, 0.016943983733654022, -0.3594488501548767, -0.08793167769908905, 0.20085179805755615, -0.1830657720565796, -0.11779282242059708, -0.01747181825339794, -0.0058741443790495396, 0.16902953386306763, 0.034621357917785645, 0.3749660849571228, 0.0021415685769170523, -0.012742561288177967, -0.1838807761669159, 0.16704663634300232, -0.028292717412114143, 0.22700370848178864, 0.1498779058456421, -0.028112977743148804, 0.025437932461500168, 0.0704227089881897, 0.4158457815647125, 0.06128699332475662, 0.08601813018321991, -0.13622546195983887, 0.0891791358590126, 0.1710686832666397, 0.07784078270196915, -0.06290674954652786, 0.12388234585523605, 0.1755661815404892, 0.08997663855552673, 0.04013315960764885, -0.18574807047843933, -0.029783407226204872, -0.15536119043827057, 0.2777843177318573, 0.5503607392311096, -0.1128934994339943, -0.0020213669631630182, 0.08715589344501495, -0.1745411604642868, -0.21088914573192596, 0.35557305812835693, -0.09866346418857574, -0.29497435688972473, 0.12535840272903442, -0.29234015941619873, 0.1980491578578949, 0.13237296044826508, 0.06925628334283829, -0.07964134216308594, -0.1383323073387146, 0.06577351689338684, 0.11998425424098969, 0.2831074893474579, -0.3015274107456207, 0.14454589784145355, -0.18102756142616272, 0.11231473833322525, 0.015257725492119789, 0.07072516530752182, 0.035370852798223495, 0.08921129256486893, 0.2146557867527008, 0.004687660839408636, 0.4360809624195099, 0.2474915236234665, -0.10991940647363663, 0.12729685008525848, -0.06648693233728409, 0.02122819423675537, 0.0973966047167778, -0.20091335475444794, 0.002799032721668482, 0.20665383338928223, 0.15057244896888733, -0.034304551780223846, -0.008119110018014908, 0.04106973111629486, 0.038348693400621414, 0.022114306688308716, -0.33366891741752625, 0.2985607981681824, -0.021603556349873543, -0.05142654478549957, 0.4023997187614441, -0.050266511738300323, -0.018848702311515808, -0.07776287943124771, 0.07912866026163101, 0.013330074027180672, 0.07978186756372452, -0.13102300465106964, 0.036707863211631775, -0.05802597478032112, 0.050470639020204544, 0.23874565958976746, 0.07455416023731232, 0.12350844591856003, -0.15668191015720367, 0.026286277920007706, -0.292843759059906, 0.035903800278902054, -0.12008630484342575, 0.11680561304092407, -0.05478137731552124, 0.20910783112049103, -0.1847228854894638, 0.4179425537586212, 0.5878702998161316, -0.03732629492878914, -0.05760630592703819, -0.17704856395721436, -0.2231581062078476, 0.09289269149303436, 0.1616000533103943, 0.14047546684741974, -0.04491899535059929, -0.015902860090136528, -0.037468764930963516, -0.2641936242580414, 0.060737986117601395, 0.06494925171136856, -0.031200222671031952, 0.12491382658481598, -0.028390182182192802, -0.07216427475214005, 0.37507492303848267, -0.28516262769699097, -0.023250730708241463, -0.03247184306383133, 0.2895001173019409, -0.4467810094356537, 0.24246448278427124, -0.21534591913223267, 0.13943079113960266, -0.03749920427799225, -0.2252824902534485, -0.02294384129345417, 0.0573088712990284, -0.021859746426343918, 0.05577217414975166, 0.2374354749917984, -0.22679418325424194, -0.027967270463705063, -0.30049434304237366, 0.07389280200004578, 0.06613204628229141, 0.2603546679019928, -0.1582908034324646, -0.003931985702365637, -0.26484695076942444, 0.3231857419013977, -0.14467138051986694, 0.0022529547568410635, -0.29864582419395447, -0.21929776668548584, -0.3704405426979065, -0.23863191902637482, 0.08990037441253662, -0.004704277962446213, -0.060322582721710205, -0.1276656985282898, 0.06765297800302505, -0.16444627940654755, 0.1634388566017151, 0.14341793954372406, -0.0522066205739975, 0.2111281454563141, 0.09495346248149872, 0.04980489984154701, -0.23116064071655273, 0.19057439267635345, -0.0010753500973805785, -0.052014563232660294, 0.18739663064479828, 0.11577359586954117, 0.18246719241142273, -0.11222391575574875, 0.157433420419693, -0.1840876191854477, -0.03160334751009941, 0.2769343852996826, 0.26480889320373535, 0.03241950273513794, 0.1455707848072052, -0.06360986083745956, -0.057933613657951355, 0.1273755133152008, -0.2768285870552063, 0.43080827593803406, -0.11394020169973373, -0.23762176930904388, -0.10655755549669266, 0.2067451924085617, 0.21003924310207367, 0.10542071610689163, 0.2609366178512573, -0.25116240978240967, -0.11513592302799225, -0.09027120471000671, -0.17079827189445496, 0.002619346370920539, 0.08425147831439972, 0.035754360258579254, 0.287620484828949, -0.06228417903184891, -0.2816547453403473, -0.12287800014019012, 0.13721013069152832, 0.28223466873168945, -0.1223842054605484, 0.14742743968963623, -0.1758725345134735, -0.12082640826702118, -0.0930885300040245, -0.1425751894712448, 0.30723538994789124, -0.052477817982435226, 0.1118713766336441, 0.1457464098930359, 0.0922112837433815, 0.13158757984638214, 0.16174224019050598, 0.23937593400478363, 0.3361409604549408, -0.2665533423423767, 0.0867425873875618, -0.12406440824270248, -0.20256668329238892, 0.22768861055374146, 0.1685638725757599, 0.03723807632923126, -0.015738938003778458, -0.12990956008434296, 0.021813824772834778, -0.19368144869804382, 0.11155922710895538, 0.05065459385514259, -0.03467849642038345, 0.30456972122192383, 0.09016385674476624, 0.20583970844745636, 0.06275973469018936, -0.23912015557289124, 0.03716438263654709, 0.031999800354242325, -0.00886825192719698, 0.17794162034988403, -0.13610559701919556, 0.08267537504434586, -0.24896034598350525, -0.13738715648651123, -0.1788904070854187, -0.004331864416599274, 0.38325589895248413, 0.05242820829153061, -0.01627916470170021, -0.2443351000547409, -0.028050066903233528, -0.05208570137619972, 0.09965086728334427, 0.0997544527053833, 0.21368879079818726, -0.3763592839241028, 0.04608849808573723, -0.032612115144729614, 0.1434895396232605, 0.0762748196721077, 0.15879906713962555, -0.12643662095069885, 0.14198827743530273, -0.18099015951156616, 0.12384676933288574, -0.2657281458377838, 0.09263267368078232, 0.05387410521507263, -0.02087140642106533, -0.44973140954971313, 0.31456315517425537, 0.0786547139286995, -0.03727461397647858, 0.43840518593788147, 0.022499531507492065, -0.12835723161697388, -0.033811528235673904, -0.1473415195941925, 0.1954069584608078, -0.12725427746772766, -0.07322979718446732, -0.09171494841575623, 0.2225850224494934, -0.35005858540534973, 0.06742993742227554, -0.07634519040584564, 0.177655890583992, -0.2696773111820221, 0.08073016256093979, 0.11432483792304993, 0.13933874666690826, -0.07905106991529465, 0.1590321809053421, -0.13668681681156158, 0.33022481203079224, 0.088259257376194, -0.16041754186153412, -0.011685609817504883, -0.14845998585224152, 0.043428145349025726, 0.36820125579833984, -0.20589561760425568, 0.21056833863258362, -0.13127774000167847, -0.09021665900945663, -0.2879410684108734, -0.22619888186454773, -0.26054224371910095, -0.16425514221191406, 0.18558475375175476, 0.3179582953453064, -0.06260976940393448, -0.0275685153901577, 0.24846620857715607, 0.10125567018985748, -0.31569352746009827, -0.08100578188896179, 0.17103010416030884, 0.012703738175332546, 0.020963668823242188, -0.19339050352573395, 0.12854896485805511, 0.049682002514600754, -0.14509715139865875, -0.14682775735855103, -0.29071158170700073, -0.020692188292741776, 0.0034485848154872656, -0.12924496829509735, -0.19763614237308502, -0.15357288718223572, -0.3158588707447052, -0.1694362908601761, 0.16617290675640106, 0.11670751869678497, -0.00496064405888319, 0.19681744277477264, -0.23888589441776276, -0.35973605513572693, -0.18581968545913696, 0.09162230789661407, -0.006317496299743652, 0.016889134421944618, -0.22005511820316315, 0.1394498199224472, -0.10135434567928314, -0.1590990424156189, 0.007201591972261667, -0.08879948407411575, -0.13341102004051208, -0.07906710356473923, -0.009044948033988476, -0.19758616387844086, 0.09899897873401642, 0.34739476442337036, -0.021417148411273956, 0.018235350027680397, 0.16877637803554535, 0.02496429905295372, 0.1560133695602417, -0.360186904668808, 0.0713883638381958, 0.04827204719185829, -0.002289553638547659, -0.4213131368160248, -0.261910080909729, 0.18227939307689667, -0.378278911113739, 0.03292842209339142, 0.055005695670843124, -0.15354318916797638, -0.3680058717727661, -0.08997209370136261, 0.022065818309783936, -0.1403414011001587, -0.04380106180906296, 0.10727208852767944, 0.2680111229419708, 0.016183195635676384, 0.1284346729516983, 0.07867419719696045, -0.09734266251325607, 0.18760031461715698, -0.030497780069708824, -0.07700525969266891, 0.22344189882278442, 0.18824578821659088, -0.2739989757537842, -0.2873678505420685, 0.20799174904823303, -0.07942834496498108, -0.20702995359897614, -0.007068568840622902, 0.2057047337293625, 0.2794737219810486, -0.32223111391067505, 0.03393630310893059, 0.04543159157037735, 0.0347863994538784, -0.22566889226436615, -0.2599932849407196, 0.16675952076911926, 0.28120335936546326, 0.05701233819127083, 0.01458123978227377, -0.30870187282562256, 0.09148435294628143, -0.12877318263053894, -0.03216351941227913, 0.2003779113292694, 0.1924677938222885, -0.07703502476215363, -0.13833913207054138, 0.2263595014810562, -0.01496304851025343, -0.09969579428434372, -0.026504550129175186, -0.010850823484361172, 0.0015067517524585128, -0.13338978588581085, -0.05348219722509384, 0.11203327775001526, -0.1197981908917427, -0.08346297591924667, 0.256589412689209, -0.0014192357193678617, 0.309390127658844, -0.10419519990682602, -0.09917722642421722, -0.12166344374418259, -0.039610542356967926, -0.11144641041755676, -0.0756906270980835, -0.11393717676401138, -0.18603515625, -0.06089877709746361, 0.08941672742366791, -0.1712890863418579, 0.17376433312892914, -0.17623034119606018, 0.3271026313304901, -0.050378747284412384, -0.027208153158426285, 0.18292973935604095, 0.4617184102535248, 0.12041812390089035, -0.023660894483327866, -0.007942888885736465, 0.2823679447174072, 0.4387194812297821, -0.15296268463134766, 0.12145112454891205, -0.02927631326019764, -0.23059487342834473, -0.07554055750370026, 0.07065308094024658, -0.13047215342521667, 0.02717486582696438, -0.030439021065831184, 0.0947701558470726, 0.07452114671468735, 0.13003568351268768, 0.1814558357000351, 0.09778463840484619, -0.09318722784519196, -0.35188981890678406, 0.06777533888816833, -0.018441028892993927, -0.11579781025648117, 0.2722131013870239, -0.18826599419116974, 0.146702840924263, -0.04232628643512726, -0.11539532244205475, 0.04467443749308586, -0.12322336435317993, 0.26989316940307617, 0.16436569392681122, -0.2432972937822342, -0.33163097500801086, -0.04778161272406578, -0.10710874199867249, 0.022271331399679184, -0.15389494597911835, 0.15678958594799042, 0.35461926460266113, -0.02928146906197071, -0.13333085179328918, -0.012543749995529652, -0.015201193280518055, -0.1528579741716385, -0.021760843694210052, 0.08216098695993423, -0.08946479111909866, -0.03827522695064545, -0.0641687735915184, 0.08812494575977325, -0.17304685711860657, 0.034061819314956665, -0.12001267820596695, 0.09027091413736343, 0.13785450160503387, 0.23867130279541016, -0.27336448431015015, -0.30630573630332947, 0.12142767757177353, 0.4048348665237427, 0.3982870578765869, 0.034074049443006516, 0.07693013548851013, 0.027123427018523216, 0.18371820449829102, -0.11480655521154404, -0.07459420710802078, 0.06302779167890549, -0.22869443893432617, -0.060555629432201385, -0.23787951469421387, 0.018797671422362328, 0.04702666029334068, 0.021729856729507446, 0.07554126530885696, -0.09535376727581024, 0.17612695693969727, 0.10777697712182999, -0.06172744557261467, -0.11911314725875854, 0.12576958537101746, -0.12870913743972778, 0.1578242927789688, 0.020049095153808594, 0.3445853888988495, -0.2556265890598297, 0.30921149253845215, -0.17840658128261566, -0.0014461943646892905, -0.3712516129016876, 0.43591246008872986, -0.2234829217195511, -0.11150107532739639, -0.1038869321346283, -0.11571568250656128, 0.31810909509658813, -0.157329723238945, 0.16188402473926544, -0.0006402477738447487, 0.07396236062049866, 0.007313479203730822, 0.330573171377182, -0.10743182897567749, -0.05283435806632042, -0.1643507033586502, 0.03998495265841484, 0.0915306955575943, -0.0026733309496194124, -0.11837299913167953, -0.07505038380622864, -0.12536919116973877, 0.10004822909832001, 0.10628803819417953, -0.2190256416797638, -0.144887775182724, -0.20495465397834778, -0.004348144866526127, -0.04018312692642212, 0.023676816374063492, -0.21224980056285858, -0.3053281009197235, 0.06088614463806152, 0.16741417348384857, 0.23196421563625336, 0.059926752001047134, -0.007630470208823681, 0.2109028697013855, 0.0449904166162014, 0.09818217903375626, -0.2341122031211853, -0.02398405224084854, -0.40103867650032043, 0.11232917010784149, 0.4021055996417999, -0.08880167454481125, 0.1545734405517578, -0.09796019643545151, -0.46732187271118164, -0.2710062861442566, 0.02767067775130272, -0.09728174656629562, 0.2912449538707733, -0.018431372940540314, -0.039025481790304184, -0.21745415031909943, 0.042785074561834335, 0.14051076769828796, 0.2232137769460678, 0.29865652322769165, 0.140950009226799, -0.11794669926166534, -0.049892738461494446, 0.09435499459505081, -0.24837014079093933, -0.23303408920764923, 0.13379044830799103, -0.2121305912733078, 0.04460754990577698, -0.18899387121200562, -0.12609146535396576, 0.32866179943084717, -0.1730208396911621, 0.014910396188497543, -0.10167098045349121, 0.18546584248542786, -0.18045839667320251, -0.07712651789188385, 0.28134873509407043, -0.1603134423494339, 0.05084913969039917, -0.5252827405929565, 0.12017425149679184, 0.03022775426506996, 0.3126445710659027, 0.03868011385202408, 0.12577079236507416, -0.13463032245635986, 0.11500733345746994, -0.08539076149463654, -0.09366873651742935, -0.024077942594885826, 0.006365194916725159, -0.037892986088991165, -0.07152283191680908, -0.2579013705253601, 0.3233223259449005, -0.0043166750110685825, -0.33167970180511475, 0.0862610712647438, 0.022688791155815125, 0.284689337015152, -0.22775600850582123, 0.14837484061717987, -0.24472934007644653, -0.0973706915974617, 0.17833870649337769, 0.0070920768193900585, -0.3266773223876953, 0.004593351855874062, 0.2514195740222931, -0.003547769272699952, -0.009407070465385914, 0.0676434338092804, 0.22081208229064941, 0.34562647342681885, -0.22326688468456268, 0.025496896356344223, 0.10933360457420349, 0.06763919442892075, 0.14221791923046112, 0.27226439118385315, 0.24847672879695892, -0.030608735978603363, -0.044159114360809326, -0.23234736919403076, -0.10512343049049377, -0.11854716390371323, 0.017938099801540375, -0.06758112460374832, 0.06315460056066513, -0.17980937659740448, 0.12529060244560242, -0.05388079211115837, -0.1072249487042427, 0.09799621999263763, 0.4109519124031067, 0.02759893238544464, 0.051303330808877945, -0.033844538033008575, -0.06786362826824188, -0.07401644438505173, -0.1488165408372879, -0.008245542645454407, -0.15327665209770203, -0.08670378476381302, -0.2796345055103302, 0.05250859260559082, -0.2046542912721634, 0.23709268867969513, 0.08717785030603409, 0.13899029791355133, 0.574418306350708, 0.1436815857887268, -0.19154073297977448, -0.1083778515458107, 0.10076475888490677, 0.18403488397598267, 0.16362826526165009, 0.07634858787059784, -0.15555749833583832, -0.013703364878892899, -0.3291791081428528, 0.012141709215939045, 0.13320942223072052, 0.2948841154575348, -0.23879428207874298, -0.211752787232399, -0.20347726345062256, 0.06965487450361252, -0.27559560537338257, -0.2830381393432617, 0.1646316647529602, 0.15775763988494873, 0.14636848866939545, 0.16261257231235504, -0.3530808389186859, -0.007654977962374687, -0.31219226121902466, 0.006493228022009134, 0.005893666297197342, -0.007280061487108469, 0.08413941413164139, 0.008044037036597729, -0.20347601175308228, 0.06859873235225677, 0.10873427242040634, -0.018825124949216843, -0.17089886963367462, 0.038770224899053574, 0.003917907830327749, 0.18773721158504486, -0.05448732525110245, -0.2649585008621216, -0.2795795500278473, 0.11639129370450974, -0.1280403584241867, 0.12277305871248245, -0.04207942634820938, -0.2177252471446991, -0.04991357773542404, 0.1258077323436737, -0.0347646102309227, -0.20181170105934143, -0.12015260756015778, -0.032558321952819824, -0.19090180099010468, -0.11329367011785507, 0.025026900693774223, -0.05014361813664436, -0.07583236694335938, -0.14262835681438446, -0.13817517459392548, -0.09157469123601913, 0.1556403785943985, -0.1575564742088318, 0.06830267608165741, 0.06238212063908577, 0.012543002143502235, -0.20634952187538147, -0.045305658131837845, 0.3714684545993805, -0.11343877762556076, 0.23342350125312805, 0.26265111565589905, -0.04248800873756409, 0.0016595928464084864, 0.2920217514038086, -0.06639225780963898, 0.4016399085521698, -0.01855948008596897, 0.0037901578471064568, 0.275983989238739, 0.19268947839736938, -0.14096061885356903, 0.41684216260910034, 0.05065472051501274, 0.05835586413741112, -0.38239017128944397, 0.2006368488073349, -0.2410748451948166, -0.11748670041561127, 0.12442654371261597, 0.16951651871204376, 0.014118666760623455, -0.045032843947410583, -0.28251194953918457, 0.13940106332302094, 0.16069869697093964, 0.035304006189107895, -0.20442023873329163, -0.11600199341773987, 0.05913827568292618, 0.1299430876970291, 0.24070723354816437, -0.43837854266166687, 0.04663887247443199, 0.06733202934265137, -0.20072238147258759, -0.11596294492483139, -0.14827629923820496, 0.1432609260082245, 0.214132159948349, 0.16481542587280273, 0.05614902079105377, 0.10731087625026703, -0.07054593414068222, -0.04822319373488426, 0.02597079984843731, -0.21104717254638672, -0.27288803458213806, 0.009232699871063232, -0.426432728767395, 0.058098603039979935, -0.027029631659388542, 0.058147892355918884, 0.2590785026550293, 0.02345346100628376, 0.29134052991867065, 0.24072347581386566, -0.15663987398147583, -0.24193130433559418, -0.021634867414832115, -0.24240677058696747, -0.19254612922668457, -0.04726982116699219, 0.06650160998106003, 0.03051631525158882, 0.24854373931884766, 0.01968878135085106, -0.08499681949615479, 0.20269232988357544, -0.2877391278743744, -0.3404286205768585, 0.30561184883117676, -0.07444378733634949, 0.14413845539093018, -0.0900692343711853, 0.2342524528503418, 0.03884181007742882, 0.10932116955518723, 0.21259024739265442, -0.08709491044282913, 0.14303435385227203, 0.003064941382035613, -0.045951396226882935, -0.08791986107826233, 0.08843810856342316, 0.1157379299402237, -0.09285912662744522, -0.1423833817243576, 0.18402089178562164, 0.1517798900604248, -0.15119683742523193, 0.15548695623874664, 0.15227262675762177, -0.1659226417541504, -0.06634489446878433, -0.20781782269477844, 0.18581287562847137, -0.21020649373531342, -0.27052411437034607, -0.02964235655963421, 0.14092135429382324, 0.0622464083135128, 0.14399658143520355, -0.14217595756053925, 0.11530079692602158, 0.298740953207016, 0.15168163180351257, 0.32293274998664856, -0.2523499131202698, -0.06248892471194267, 0.10791560262441635, -0.276285320520401, 0.09961869567632675, 0.017336074262857437, 0.015126338228583336, -0.2281312346458435, -0.0290939062833786, 0.10212115943431854, 0.04639110714197159, -0.17911554872989655, 0.012721028178930283, 0.17161555588245392, -0.11166175454854965, -0.01621512696146965, -0.0012471050722524524, -0.1056816503405571, 0.06701938062906265, -0.421854168176651, 0.04677462950348854, -0.06823649257421494, 0.011424806900322437, -0.35543185472488403, -0.10931739956140518, 0.20731092989444733, -0.14806818962097168, 0.018326807767152786, -0.11984457075595856, -0.0327584482729435, 0.04851207509636879, -0.0012882222654297948, -0.2624185085296631, 0.00029333840939216316, -0.358018696308136, -0.043141040951013565, -0.2535823881626129, -0.24246875941753387, 0.08089843392372131, 0.11609035730361938, 0.28580909967422485, 0.22813966870307922, 0.06693568825721741, -0.1971590220928192, -0.04301325976848602, -0.13177184760570526, -0.0017526567680761218, -0.2677643597126007, -0.35825175046920776, 0.16420713067054749, 0.10367179661989212, -0.06407098472118378, 0.0038967193104326725, -0.27266114950180054, 0.08155246078968048, 0.20840899646282196, -0.10212337970733643, 0.02272944338619709, -0.04595667123794556, -0.04883662611246109, 0.309152215719223, -0.00018843173165805638, -0.333530455827713, 0.3614793121814728, -0.22388026118278503, 0.22642375528812408, -0.12750950455665588, 0.049649301916360855, -0.10277879238128662, -0.28684791922569275, 0.16559632122516632, 0.05400225520133972, -0.06345664709806442, 0.06316158920526505, 0.14568132162094116, -0.1681431233882904, -0.03767384588718414, -0.24563290178775787, -0.031556278467178345, -0.005109912250190973, 0.4168968200683594, -0.14135053753852844, -0.11783725023269653, -0.07259790599346161, 0.043350230902433395, 0.15836872160434723, -0.18189391493797302, 0.12328869104385376, 0.3224647641181946, -0.020307054743170738, 0.467311829328537, 0.2425621747970581, 0.01870761811733246, -0.12988689541816711, 0.008526403456926346, 0.15312306582927704, -0.01597127504646778, 0.14436304569244385, 0.061665479093790054, 0.17490744590759277, -0.27298590540885925, 0.0553097128868103, 0.1825212985277176, -0.0715080127120018, 0.150098979473114, -0.17716574668884277, 0.20330853760242462, 0.04968655854463577, 0.014701188541948795, -0.2528279423713684, -0.04215000569820404, 0.032406385987997055, -0.09686925262212753, -0.14321963489055634, 0.03359194099903107, -0.07866865396499634, -0.2154267579317093, -0.020016081631183624, -0.3267081081867218, -0.25831183791160583, 0.09479107707738876, -0.3459267020225525, 0.17602351307868958, 0.1301894634962082, -0.01609482616186142, -0.31914305686950684, -0.38977035880088806, 0.18604888021945953, -0.018297677859663963, -0.048119086772203445, -0.08710817992687225, 0.047492340207099915, -0.13585618138313293, 0.2710188627243042, 0.5390134453773499, 0.014003134332597256, -0.17821218073368073, 0.26134222745895386, -0.10356859117746353, 0.10426439344882965, -0.06828487664461136, 0.16663171350955963, -0.28313764929771423, -0.06936582177877426, 0.32685586810112, -0.06710528582334518, 0.1877375990152359, 0.04261985048651695, 0.2507331967353821, 0.0789911299943924, 0.38912367820739746, -0.0005565421306528151, 0.1750761717557907, 0.12542396783828735, 0.10303345322608948, 0.008264877833425999, -0.06240035593509674, 0.2211703360080719, -0.17449352145195007, 0.10144540667533875, -0.28972020745277405, -0.05156955122947693, 0.24483278393745422, -0.03974542394280434, 0.051393259316682816, -0.10747171938419342, -0.0744655579328537, -0.1255245804786682, 0.06983485072851181, -0.21617171168327332, 0.05632010102272034, -0.03272750601172447, 0.16918602585792542, -0.17454707622528076, -0.0037955420557409525, 0.28320592641830444, -0.07944793999195099, 0.04323243349790573, 0.008197709918022156, 0.21575799584388733, 0.08702005445957184, 0.11026067286729813, 0.27518102526664734, 0.23296378552913666, 0.07009546458721161, 0.16788339614868164, -0.045127205550670624, -0.2844763398170471, -0.03428949788212776, 0.029857423156499863, 0.06599093973636627, 0.17079514265060425, 0.2230513095855713, -0.1914990395307541, -0.19260545074939728, -0.18493038415908813, -0.16783462464809418, 0.1279255896806717, 0.012424008920788765, 0.07451438903808594, 0.11531174927949905, -0.05494731664657593, 0.14450068771839142, -0.05606922134757042, 0.01570453867316246, 0.216423898935318, -0.10770083218812943, 0.0927506685256958, 0.08835499733686447, 0.2259562909603119, 0.2035318911075592, -0.09812633693218231, -0.4337728023529053, 0.16894112527370453, -0.04848765209317207, 0.1992947906255722, -0.07146000117063522, -0.22188951075077057, -0.11587601900100708, -0.074862539768219, -0.22894634306430817, 0.1589280664920807, 0.2572009861469269, 0.23405271768569946, 0.08738750964403152, -0.0935271754860878, 0.05168139189481735, 0.06395085901021957, 0.16006463766098022, 0.27859315276145935, -0.3537306785583496, -0.15520936250686646, 0.0704665333032608, -0.11087696254253387, 0.27776625752449036, 0.05243533477187157, -0.4589047431945801, -0.1557767689228058, 0.14986328780651093, -0.021731721237301826, -0.045972563326358795, -0.041710250079631805, -0.04183288291096687, 0.5045464634895325, -0.035734888166189194, -0.3802764415740967, -0.13953903317451477, -0.1312110424041748, 0.02210232801735401, -0.09009310603141785, -0.06112232431769371, -0.19658896327018738, 0.057623911648988724, -0.07856766134500504, 0.026839379221200943, 0.1445552408695221, -0.03913136571645737, 0.19053004682064056, 0.004034960642457008, 0.12266247719526291, 0.2688843905925751, 0.1505296677350998, 0.3513827621936798, 0.2744830548763275, 0.1954580545425415, 0.05544479191303253, 0.04652886837720871, -0.06130513921380043, -0.10455749928951263, 0.15032343566417694, 0.4698646366596222, -0.16267329454421997, 0.0202646404504776, 0.08995547890663147, 0.04156136512756348, -0.11775233596563339, -0.036936625838279724, 0.21758832037448883, 0.2083236128091812, -0.2580067813396454, 0.15710800886154175, 0.1426640897989273, -0.21016573905944824, -0.037994418293237686, 0.13138297200202942, 0.1516578197479248, -0.07730202376842499, 0.11447136849164963, -0.10615126043558121, -0.13724654912948608, -0.038581009954214096, -0.08969883620738983, 0.06336189061403275, -0.01665489934384823, -0.01764604263007641, -0.19283734261989594, -0.2354447841644287, -0.03233581781387329, -0.015199601650238037, -0.06811516731977463, 0.12807494401931763, 0.30578184127807617, 0.2678256332874298, -0.12153864651918411, 0.1672549992799759, -0.3677212595939636, -0.1577558070421219, -0.17748506367206573, -0.17719900608062744, -0.18532198667526245, -0.21910078823566437, -0.1652151495218277, -0.047047317028045654, 0.2139299213886261, -0.24763868749141693, 0.3121335506439209, 0.1692303866147995, -0.20271116495132446, -0.07222985476255417, 0.2202821969985962, 0.13751396536827087, -0.16532959043979645, 0.13016630709171295, -0.12363435328006744, 0.07611705362796783, 0.2354433536529541, -0.06930547952651978, 0.0739511176943779, -0.04957016184926033, 0.15401384234428406, -0.2959127724170685, 0.11100060492753983, 0.1995042860507965, -0.09228992462158203, 0.2937353551387787, 0.10746658593416214, -0.14824296534061432, -0.16074341535568237, -0.03382108733057976, -0.09457014501094818, -0.16650238633155823, -0.104090116918087, 0.10115145146846771, 0.26375412940979004, 0.14669185876846313, 0.04651506245136261, -0.06420348584651947, 0.09812892228364944, -0.05730677396059036, -0.015790339559316635, -0.10499805957078934, -0.20799380540847778, 0.014065765775740147, 0.04961763322353363, 0.09510353952646255, 0.26565515995025635, 0.5999550819396973, -0.07122401148080826, 0.27027538418769836, -0.2250657081604004, -0.1747700273990631, -0.2613435983657837, -0.02142108604311943, 0.2488175332546234, -0.09789233654737473, -0.009690186008810997, 0.1844450682401657, -0.0834885686635971, -0.4662371873855591, -0.0707525759935379, -0.12881635129451752, -0.2439240962266922, -0.16054145991802216, -0.06440910696983337, 0.11270872503519058, 0.18664084374904633, 0.10715153813362122, -0.08945178985595703, 0.32687318325042725, -0.09017966687679291, 0.18774770200252533, 0.0741104707121849, -0.19325387477874756, 0.06421034783124924, -0.004514084663242102, 0.08949080109596252, -0.011964157223701477, 0.1017879769206047, -0.10975921154022217, 0.010822223499417305, 0.15802770853042603, 0.16186518967151642, -0.06540524959564209, -0.16592730581760406, 0.23093053698539734, 0.12005165964365005, 0.21070633828639984, -0.1036401093006134, -0.09234698861837387, 0.3017566204071045, 0.20359046757221222, -0.25758087635040283, -0.024136411026120186, -0.06708917021751404, 0.06806684285402298, -0.008817099966108799, 0.5293818712234497, -0.2017626315355301, 0.026530135422945023, -0.02795124612748623, -0.05222708731889725, 0.14493843913078308, 0.32499825954437256, -0.251595675945282, 0.14205707609653473, -0.26997169852256775, 0.16335977613925934, -0.05433691665530205, 0.0402219332754612, -0.03417976200580597, 0.02016472816467285, 0.13737241923809052, 0.053756341338157654, -0.08452249318361282, -0.06278379261493683, 0.015140988864004612, 0.0902319923043251, 0.1402628868818283, 0.08429699391126633, -0.13155648112297058, -0.11781948059797287, -0.2142552137374878, -0.18057182431221008, 0.008925624191761017, -0.4758482575416565, 0.039341703057289124, -0.08773913234472275, -0.22255590558052063, -0.003362938528880477, -0.11783162504434586, -0.11562946438789368, 0.23351256549358368, -0.20576851069927216, 0.12898732721805573, -0.3192219138145447, 0.18740566074848175, 0.19349591434001923, -0.07562171667814255, -0.3497351109981537, 0.18982860445976257, -0.15286092460155487, -0.20425991714000702, -0.06290338933467865, 0.08842575550079346, 0.11537207663059235, -0.05253687873482704, 0.19647474586963654, 0.04685220867395401, -0.4601048529148102, -0.16082991659641266, -0.2646692097187042, 0.25670337677001953, -0.13506969809532166, 0.28223010897636414, -0.16889795660972595, -0.12230926007032394, 0.20420269668102264, 0.03619891032576561, 0.0025078479666262865, 0.009970041923224926, -0.12011890858411789, -0.13214552402496338, 0.16464219987392426, -0.019605722278356552, -0.09188266843557358, 0.2192830592393875, 0.13223445415496826, -0.25390225648880005, 0.1886967122554779, 0.07866495102643967, 0.013294264674186707, 0.23552855849266052, 0.18118469417095184, 0.3905356228351593, -0.058218102902173996, 0.2653503715991974, 0.10906603932380676, -0.16631397604942322, 0.05029712989926338, -0.010798834264278412, -0.14282365143299103, -0.23860883712768555, 0.006556750740855932, 0.02514651231467724, -0.018470270559191704, 0.23300056159496307, -0.30629226565361023, 0.08599856495857239, -0.018964597955346107, -0.10494903475046158, -0.09393184632062912, 0.3147328197956085, -0.24975447356700897, 0.030736306682229042, -0.1027127206325531, 0.23451398313045502, -0.3600609004497528, 0.11256857961416245, 0.011644991114735603, -0.1334865540266037, 0.23182937502861023, -0.07721258699893951, 0.07977757602930069, 0.15923163294792175, 0.22722157835960388, 0.09647750854492188, -0.20540328323841095, -0.06784141808748245, -0.33129703998565674, 0.0781281366944313, 0.13404177129268646, -0.016367590054869652, -0.10509295016527176, -0.028668181970715523, 0.12137354165315628, 0.11369682103395462, 0.03816530108451843, -0.04406759515404701, 0.06340134888887405, -0.08434776961803436, -0.14602740108966827, -0.07090172171592712, -0.09258865565061569, 0.17042677104473114, -0.15660406649112701, 0.09583397209644318, -0.10163688659667969, -0.033271823078393936, 0.13264138996601105, 0.2875716984272003, 0.11448337882757187, 0.3206440806388855, -0.4839618504047394, -0.21757377684116364, -0.17425823211669922, -0.19570520520210266, 0.10494884103536606, -0.2793909013271332, -0.05085955560207367, -0.04809362068772316, -0.09745180606842041, -0.40432238578796387, -0.24562007188796997, 0.26498332619667053, 0.06300681829452515, -0.17697469890117645, -0.09278872609138489, -0.03198147565126419, 0.07692983001470566, 0.16906724870204926, -0.17857185006141663, -0.1700722873210907, 0.10354647785425186, 0.1333009898662567, 0.1109434962272644, 0.32421696186065674, -0.015424259006977081, 0.06271576136350632, -0.39804503321647644, -0.06300301104784012, -0.15660139918327332, 0.0010442541679367423, -0.11108851432800293, -0.12090287357568741, -0.09372565150260925, 0.07083991914987564, -0.29542455077171326, 0.2348233461380005, -0.20329119265079498, 0.23543870449066162, 0.1435592919588089, -0.136671245098114, 0.140328049659729, -0.12004853785037994, -0.05380953848361969, 0.1199423223733902, 0.11806447803974152, -0.41619840264320374, -0.030476922169327736, 0.2515891194343567, 0.0941181629896164, 0.11097794771194458, -0.22092963755130768, -0.169962078332901, -0.04162588715553284, -0.2626115381717682, -0.03556862473487854, 0.05050279572606087, 0.06428457051515579, 0.3569493889808655, -0.009154001250863075, 0.0528378039598465, 0.0767325907945633, -0.3423457443714142, 0.3101651668548584, -0.09795930236577988, -0.2312956154346466, 0.07421809434890747, 0.26755964756011963, 0.0016072912840172648, 0.002560754306614399, -0.05050574615597725, 0.08815272152423859, -0.0634455755352974, -0.31094464659690857, -0.05347135663032532, 0.12125959247350693, 0.3379914462566376, -0.17488829791545868, 0.046927765011787415, 0.35206398367881775, -0.24747395515441895, 0.10799694061279297, 0.11976272612810135, 0.034072235226631165, 0.12504933774471283, -0.09801904857158661, 0.1834680438041687, -0.09263737499713898, 0.08980493992567062, -0.10430625081062317, 0.04104875773191452, 0.23747339844703674, 0.06613244861364365, 0.2814410626888275, -0.20138511061668396, -0.09286022931337357, -0.08876365423202515, -0.07393663376569748, 0.11278652399778366, -0.11466699093580246, 0.23542506992816925, 0.3168821930885315, 0.23828695714473724, -0.10564090311527252, 0.02389073744416237, 0.11642225831747055, -0.2794647514820099, -0.09629841148853302, -0.0038910219445824623, -0.08085547387599945, 0.1398092657327652, 0.262087345123291, 0.1854240894317627, 0.017541542649269104, 0.41035187244415283, -0.07730022072792053, -0.03869714215397835, -0.018742913380265236, 0.28892889618873596, -0.19398385286331177, 0.26352763175964355, -0.21139726042747498, -0.13144847750663757, -0.01207019854336977, 0.21769972145557404, -0.08458077162504196, -0.03356308862566948, 0.4035153388977051, 0.0897446945309639, 0.11584250628948212, 0.22772859036922455, 0.26816001534461975, -0.08527271449565887, 0.0011328615946695209, -0.14234349131584167, -0.22701986134052277, -0.2970801889896393, -0.18463408946990967, -0.07130057364702225, -0.12850016355514526, -0.16806834936141968, 0.009662088938057423, 0.10301829874515533, -0.1586340069770813, -0.15769562125205994, 0.05190625041723251, 0.08587369322776794, -0.19717611372470856, 0.1007925420999527, 0.18565921485424042, -0.11239845305681229, 0.29606273770332336, -0.20220279693603516, 0.017512936145067215, 0.2606699466705322, 0.20140483975410461, -0.21440552175045013, 0.04738956689834595, 0.4141479730606079, 0.09937626868486404, -0.07365972548723221, -0.0026237517595291138, -0.045116156339645386, -0.013829751871526241, -0.16773636639118195, -0.10731183737516403, 0.1663593351840973, -0.2607055604457855, 0.28480264544487, -0.09392178803682327, 0.14599330723285675, -0.08312863111495972, 0.08953319489955902, -0.08050738275051117, -0.1265910565853119, 0.11664093285799026, -0.1548365205526352, -0.27158480882644653, 0.09212676435709, -0.15022429823875427, 0.04751133918762207, 0.3508102595806122, 0.14876426756381989, 0.05903021618723869, -0.09813669323921204, -0.07524140924215317, -0.11713073402643204, -0.00369168259203434, 0.15990112721920013, -0.06462708115577698, -0.20406176149845123, -0.0820959061384201, 0.19316141307353973, 0.05461198091506958, -0.08915846049785614, -0.255923330783844, 0.1769789457321167, 0.41497668623924255, 0.08910083770751953, -0.4318465292453766, 0.1443750411272049, -0.2532765865325928, 0.048517655581235886, -0.207145094871521, 0.2358764111995697, 0.10802017152309418, -0.006691026035696268, 0.05489233136177063, 0.10652141273021698, 0.08648758381605148, -0.14529849588871002, 0.07688429951667786, -0.33364686369895935, -0.32324615120887756, -0.2474260926246643, -0.27200108766555786, 0.028965288773179054, 0.04319815710186958, 0.035929638892412186, 0.2725136876106262, -0.04680411517620087, 0.19937974214553833, -0.005666847340762615, 0.17442968487739563, 0.050201691687107086, -0.15413978695869446, -0.13993456959724426, -0.2187628448009491, 0.14063183963298798, 0.04962455481290817, -0.07627785950899124, -0.10721483826637268, 0.1914038211107254, -0.01776658371090889, -0.13862234354019165, -0.1603122055530548, -0.35377976298332214, 0.03502659127116203, 0.06849613040685654, 0.24653713405132294, -0.09781493246555328, 0.30484917759895325, 0.021171292290091515, -0.0535164438188076, 0.023459404706954956, 0.0021137141156941652, 0.2236490249633789, -0.04247122257947922, -0.20406211912631989, 0.0008571437792852521, -0.00034217865322716534, 0.13904210925102234, -0.04574386402964592, -0.049756936728954315, 0.11479075253009796, 0.31416255235671997, 0.031062625348567963, 0.1035965234041214, 0.08960159122943878, -0.3838396668434143, -0.32314231991767883, 0.0070107546634972095, 0.15634065866470337, -0.0833149403333664, 0.13614986836910248, -0.09295929968357086, -0.039882708340883255, -0.03410404175519943, -0.06951156258583069, 0.030775602906942368, -0.13794288039207458, 0.568353533744812, 0.2968278229236603, -0.1674278974533081, 0.11495783925056458, -0.0730174109339714, 0.28334683179855347, -0.05541442707180977, 0.22158579528331757, -0.13905654847621918, -0.18758493661880493, -0.31766703724861145, 0.11480490863323212, -0.20454172790050507, -0.2795690596103668, -0.040707286447286606, -0.314869225025177, 0.129387766122818, 0.08493563532829285, -0.14974279701709747, -0.03259754925966263, 0.10341928154230118, -0.005782876629382372, 0.1306084543466568, -0.2046651393175125, -0.06248210743069649, -0.2851666510105133, 0.15120059251785278, -0.2534804046154022, -0.12429482489824295, -0.05079416558146477, -0.0059587243013083935, 0.10746657103300095, 0.1082397848367691, 0.16246338188648224, 0.13744768500328064, -0.05731429532170296, 0.14605467021465302, -0.15912014245986938, -0.03962177038192749, -0.19314385950565338, -0.08830137550830841, 0.14939914643764496, 0.19885142147541046, 0.16974548995494843, -0.5121369957923889, 0.20052137970924377, -0.07087866216897964, -0.06381374597549438, 0.14297427237033844, 0.32746976613998413, 0.32168692350387573, 0.2168857604265213, 0.057948023080825806, 0.18564456701278687, -0.11649049818515778, 0.2879706025123596, -0.1307525634765625, 0.1605266034603119, -0.07300858199596405, -0.11762179434299469, -0.07573074847459793, -0.009578661993145943, 0.093479685485363, 0.07059918344020844, 0.09541361778974533, 0.2670228183269501, 0.15199920535087585, 0.23390784859657288, 0.0044325427152216434, -0.04927283525466919, 0.01687660627067089, 