{"format": "layers-v1", "algorithm": "ppo-style", "policy": "categorical", "output": "logits", "readOnly": true, "layers": [{"in": 11, "out": 64, "w": [0.012141325511038303, -0.1816285252571106, 0.09600827097892761, 0.08569055050611496, -0.16115084290504456, -0.03495613485574722, -0.1766337752342224, 0.06847277283668518, -0.08373057842254639, 0.21182280778884888, 0.21655072271823883, 0.04254338517785072, -0.12854091823101044, -0.17709606885910034, -0.021283524110913277, -0.08485376834869385, 0.11856652051210403, -0.2574593722820282, 0.2964494228363037, -0.23513396084308624, 0.2308838963508606, -0.053737740963697433, 0.16494084894657135, 0.11749747395515442, 0.012621283531188965, 0.06606736034154892, 0.2289702296257019, 0.06586290150880814, 0.15996605157852173, -0.22228169441223145, 0.21797369420528412, 0.103770911693573, 0.07304256409406662, 0.05441190302371979, 0.14697638154029846, 0.27691805362701416, -0.054331280291080475, -0.16797411441802979, -0.09104639291763306, -0.18376626074314117, 0.15973712503910065, -0.14172109961509705, -0.1609163135290146, 0.2528604567050934, 0.2852536141872406, 0.03467807173728943, -0.052210524678230286, -0.029572781175374985, 0.142833411693573, -0.295455664396286, -0.24640846252441406, 0.25082075595855713, 0.2920674979686737, -0.01791730523109436, -0.23265360295772552, -0.0007853506249375641, -0.1402689516544342, -0.0005796551704406738, 0.13855478167533875, 0.13347142934799194, -0.02341810055077076, 0.0331951379776001, 0.07274218648672104, -0.23446202278137207, -0.102224200963974, 0.009932825341820717, -0.18472018837928772, -0.13168035447597504, 0.10127091407775879, 0.16085319221019745, 0.004224687814712524, -0.10151853412389755, 0.16508445143699646, -0.17963260412216187, -0.07420122623443604, 0.2844368815422058, 0.058957114815711975, 0.010093667544424534, 0.10164397954940796, -0.07352475821971893, 0.24681556224822998, -0.24591761827468872, -0.06898344308137894, -0.052121490240097046, -0.13683858513832092, -0.07661344110965729, 0.18686264753341675, 0.16740790009498596, 0.02200104109942913, 0.26267296075820923, -0.21288231015205383, -0.1745547354221344, 0.13622775673866272, -0.021618323400616646, -0.2747638523578644, -0.2031877189874649, -0.18437020480632782, 0.2328304648399353, 0.13735920190811157, 0.24481342732906342, -0.22447258234024048, -0.293963223695755, -0.1861608773469925, 0.032256126403808594, -0.07351741194725037, -0.19000455737113953, 0.23235666751861572, -0.09467427432537079, -0.1743873804807663, 0.13671553134918213, -0.07346023619174957, 0.19221758842468262, 0.0718570351600647, 0.015216926112771034, 0.06329557299613953, -0.23475731909275055, -0.1613253504037857, -0.13322168588638306, -0.16779574751853943, 0.05346521735191345, 0.057425085455179214, -0.11324533075094223, 0.19655293226242065, -0.1677599996328354, 0.07290336489677429, -0.08609534800052643, -0.2762329876422882, -0.19632846117019653, 0.13666081428527832, 0.12243896722793579, -0.18644070625305176, -0.0971432626247406, -0.29408660531044006, 0.16207534074783325, 0.2607138752937317, 0.08638134598731995, -0.1865597814321518, 0.17395517230033875, 0.2502199411392212, -0.07539265602827072, -0.05198874697089195, 0.10435867309570312, 0.0413508377969265, -0.09596499800682068, -0.2799128293991089, -0.21141943335533142, 0.020016245543956757, -0.016174107789993286, 0.2470386028289795, 0.010318964719772339, -0.07363760471343994, -0.2912924587726593, -0.2772180736064911, 0.1219409853219986, 0.27980220317840576, -0.004574775695800781, -0.2694912850856781, 0.11829393357038498, 0.24557393789291382, -0.21294020116329193, -0.07938317954540253, 0.03771822154521942, -0.17006802558898926, -0.2795741856098175, 0.13011498749256134, -0.2560734748840332, -0.07568162679672241, -0.16009746491909027, 0.21808890998363495, 0.0582161545753479, 0.14908373355865479, -0.20417416095733643, 0.24486404657363892, 0.027189383283257484, -0.16722865402698517, -0.020027128979563713, -0.20246334373950958, -0.013917535543441772, 0.16836661100387573, -0.12451883405447006, 0.2548593282699585, 0.0789632797241211, -0.05276019871234894, 0.10641532391309738, -0.05214761942625046, -0.07007607817649841, -0.20121070742607117, 0.16630542278289795, 0.18099522590637207, 0.1032387912273407, 0.16894203424453735, 0.3012234568595886, 0.2929912805557251, -0.2909698188304901, 0.0582883246243, -0.030981585383415222, 0.10238009691238403, -0.05331338942050934, 0.09512293338775635, -0.2774193584918976, 0.13780847191810608, 0.3006403148174286, -0.05422361195087433, -0.2529328465461731, -0.250637948513031, -0.045710060745477676, -0.0037132767029106617, 0.03362756967544556, 0.03698566555976868, 0.21689565479755402, -0.05470028519630432, 0.0860440731048584, -0.17045466601848602, 0.29654914140701294, 0.1274469941854477, -0.04181531071662903, 0.1870676726102829, 0.10492050647735596, 0.05170854926109314, -0.08719806373119354, 0.02555551938712597, 0.021556347608566284, -0.17615924775600433, -0.008042928762733936, 0.06584113836288452, -0.16327261924743652, 0.053857892751693726, -0.11402759701013565, -0.25397488474845886, -0.1805717945098877, -0.23616886138916016, 0.08183272182941437, 0.18443402647972107, 0.274112343788147, 0.3076867163181305, 0.11875742673873901, 0.1326713263988495, -0.051418572664260864, 0.26269057393074036, -0.1139778420329094, -0.08193239569664001, -0.10164081305265427, -0.1912943571805954, -0.23237615823745728, -0.06146371364593506, 0.25450941920280457, -0.15020208060741425, -0.28490307927131653, -0.06888963282108307, 0.2860325276851654, 0.07668092846870422, -0.019058704376220703, -0.09013614803552628, 0.27554893493652344, -0.2897240221500397, 0.1708495318889618, 0.09267571568489075, 0.1890089213848114, -0.18758760392665863, -0.0988597571849823, -0.11458057165145874, 0.29579365253448486, -0.03893283009529114, -0.29073411226272583, 0.139796644449234, 0.058133870363235474, 0.041258424520492554, -0.2124509960412979, -0.28244760632514954, 0.2869125306606293, -0.227081298828125, -0.06977595388889313, -0.05539684742689133, 0.17219308018684387, -0.25405216217041016, -0.18434974551200867, -0.16157658398151398, -0.15202820301055908, 0.17267300188541412, 0.1845625638961792, 0.15111607313156128, 0.2461192011833191, -0.21351255476474762, -0.002168510342016816, -0.24399903416633606, 0.0003797349345404655, -0.2700040340423584, -0.2904053330421448, 0.1899140477180481, -0.14573431015014648, -0.024023324251174927, -0.07386418431997299, -0.23914402723312378, -0.04376852512359619, 0.043166421353816986, 0.24091553688049316, -0.12688949704170227, 0.27610063552856445, -0.13960430026054382, 0.19299641251564026, 0.25218474864959717, 0.03117591142654419, -0.0901881754398346, 0.2230343222618103, -0.10017996281385422, -0.13023798167705536, -0.10511042177677155, -0.24475347995758057, -0.03718646988272667, -0.2452906370162964, 0.19745811820030212, -0.2974489629268646, -0.22399961948394775, 0.06751778721809387, 0.18652531504631042, 0.2806897461414337, -0.24668632447719574, 0.24768447875976562, 0.21359209716320038, -0.18777114152908325, 0.1257041096687317, -0.0848151296377182, 0.0968150720000267, -0.26692110300064087, -0.18492521345615387, -0.19115059077739716, -0.04785189405083656, -0.009228321723639965, -0.006488174200057983, -0.1798553764820099, 0.15854544937610626, 0.1531658172607422, -0.2644920349121094, -0.2698500454425812, -0.06478990614414215, 0.07263634353876114, -0.22964675724506378, -0.017240142449736595, 0.018985167145729065, -0.2303863912820816, 0.28047171235084534, 0.20637375116348267, 0.2302953004837036, -0.12294818460941315, -0.22749198973178864, 0.03702205419540405, 0.19094349443912506, 0.14749759435653687, -0.20901097357273102, 0.23418419063091278, -0.14294099807739258, -0.05019889399409294, -0.08699677884578705, 0.14355003833770752, -0.28132006525993347, -0.19444873929023743, -0.036483705043792725, 0.20998698472976685, -0.07259681820869446, 0.18706142902374268, 0.275865763425827, 0.01133081316947937, -0.20282714068889618, -0.008852948434650898, 0.11731377243995667, -0.06421248614788055, -0.30491548776626587, 0.17944195866584778, -0.11903095990419388, -0.21088233590126038, 0.1422766000032425, 0.0712883248925209, 0.21967440843582153, -0.05960238724946976, 0.17435501515865326, -0.07159256935119629, -0.18720416724681854, 0.26625120639801025, 0.2966596484184265, 0.22951650619506836, -0.08415473997592926, -0.14488010108470917, 0.05224857106804848, 0.15178781747817993, 0.039523832499980927, 0.13698545098304749, -0.014398634433746338, 0.17101430892944336, 0.15306946635246277, 0.17174145579338074, -0.034254107624292374, -0.24814605712890625, -0.1782383769750595, -0.1489505171775818, 0.25498974323272705, -0.01673523336648941, -0.04291523993015289, -0.1176217645406723, -0.012660950422286987, 0.20080319046974182, 6.693601608276367e-05, 0.1446317434310913, 0.17266064882278442, -0.2964908182621002, 0.10812468826770782, 0.3012625575065613, -0.1554592251777649, 0.03766648471355438, 0.006780773401260376, 0.15937185287475586, 0.061318960040807724, -0.22652220726013184, -0.2115464061498642, 0.2574477791786194, -0.14238880574703217, -0.2661202549934387, -0.2705913782119751, -0.26119428873062134, 0.07911629974842072, 0.03485545516014099, -0.17502960562705994, -0.057839371263980865, 0.047134339809417725, 0.09765246510505676, 0.12309962511062622, -0.15095019340515137, 0.2869102358818054, 0.28166133165359497, -0.2169162780046463, 0.2909143269062042, -0.24700435996055603, -0.19900095462799072, 0.07097060233354568, 0.08842673897743225, 0.25432533025741577, 0.0015176832675933838, 0.216303288936615, -0.09889449179172516, -0.21970507502555847, -0.03092672862112522, 0.14483889937400818, -0.11779052019119263, -0.2552155554294586, -0.19535516202449799, 0.053412020206451416, 0.30172786116600037, 0.016668319702148438, -0.25569480657577515, -0.1324392706155777, 0.1530199646949768, -0.09743169695138931, -0.05273038521409035, 0.22430413961410522, 0.11082661151885986, 0.17254813015460968, 0.2706846594810486, -0.0845799371600151, 0.043712764978408813, -0.23972582817077637, 0.29665589332580566, -0.2021067589521408, 0.28963491320610046, 0.2728624939918518, 0.06559208035469055, -0.260684072971344, -0.012911767698824406, -0.1242617666721344, 0.09647653996944427, 0.1704990565776825, 0.16495972871780396, 0.09723277390003204, -0.23103493452072144, -0.2540104389190674, 0.08515693247318268, -0.066144660115242, 0.14091762900352478, 0.2891772985458374, 0.09104844927787781, -0.17962634563446045, -0.08706608414649963, 0.18168474733829498, 0.025359923020005226, 0.20559972524642944, -0.2857343554496765, -0.031171411275863647, -0.1470424383878708, 0.22912025451660156, 0.13786537945270538, -0.04042458534240723, -0.2903141379356384, -0.03554719686508179, 0.25055497884750366, -0.015125749632716179, -0.012487649917602539, -0.2717859447002411, 0.23562827706336975, 0.24947291612625122, -0.24226222932338715, -0.21696682274341583, 0.014609158039093018, -0.17195071280002594, -0.24670980870723724, 0.09103263914585114, -0.08243991434574127, 0.10451099276542664, 0.1240963414311409, 0.2765755355358124, 0.17913976311683655, -0.2834358215332031, -0.23490051925182343, 0.24165606498718262, -0.2658206522464752, 0.18428859114646912, -0.1750943660736084, 0.2433406561613083, 0.17051738500595093, -0.20952212810516357, -0.26072683930397034, -0.13219653069972992, -0.13784173130989075, -0.18256761133670807, 0.21247178316116333, 0.08797551691532135, -0.03784087300300598, -0.03319614380598068, 0.12420985847711563, 0.030880898237228394, -0.03607649356126785, 0.2805519104003906, 0.20806151628494263, 0.02114182710647583, 0.22090956568717957, -0.06498683989048004, -0.2447969913482666, 0.1731717586517334, 0.181768536567688, 0.050936903804540634, -0.25724300742149353, 0.2156134396791458, 0.016042962670326233, -0.1587854027748108, -0.266005277633667, -0.1619710475206375, 0.2803601622581482, 0.15432104468345642, -0.13300944864749908, 0.24361246824264526, 0.2556913197040558, 0.1498602032661438, -0.024292439222335815, 0.29461047053337097, -0.06821386516094208, -0.12579509615898132, 0.1561252325773239, -0.12579095363616943, 0.20540714263916016, -0.16038097441196442, 0.12450608611106873, -0.21942076086997986, -0.2008955180644989, 0.012899080291390419, 0.22672712802886963, -0.23108425736427307, -0.08018894493579865, 0.12930449843406677, -0.05396471917629242, -0.2576521039009094, -0.0034677088260650635, -0.11800462007522583, 0.06887460500001907, 0.12406507134437561, -0.08769213408231735, -0.14278459548950195, 0.17826798558235168, -0.25975167751312256, 0.15883512794971466, 0.12117239832878113, 0.10546866804361343, -0.21035829186439514, 0.1341959834098816, -0.17809465527534485, 0.1347426474094391, -0.14223788678646088, 0.05505239963531494, 0.003306657075881958, -0.20848509669303894, -0.29149329662323, -0.07112032175064087, 0.19312892854213715, -0.06897513568401337, -0.09046705067157745, -0.18804313242435455, -0.2182767689228058, -0.023645365610718727, -0.08994433283805847, 0.10789039731025696, 0.29288220405578613, -0.2184022068977356, -0.0925944447517395, 0.12525753676891327, -0.20351079106330872, -0.04565352201461792, -0.15384119749069214, 0.19176292419433594, -0.03262052312493324, 0.037232816219329834, 0.17929452657699585, -0.21360519528388977, -0.15039055049419403, 0.2337154746055603, 0.10424159467220306, -0.02700716257095337, 0.31449732184410095, 0.26556792855262756, -0.1303979456424713, -0.08553960919380188, 0.11794774979352951, -0.18801087141036987, -0.29971402883529663, -0.16491954028606415, -0.2760724723339081, 0.20641562342643738, 0.07631394267082214, -0.268216609954834, -0.016811301931738853, 0.2889041304588318, -0.17217600345611572, -0.203026682138443, 0.1296059787273407, -0.2129935324192047, -0.293348491191864, 0.1705716848373413, -0.023537058383226395, 0.15980654954910278, -0.07627177983522415, 0.28124961256980896, -0.12442678213119507, 0.2528696060180664, -0.16173209249973297, -0.10597556829452515, 0.2328963279724121, 0.14342613518238068, -0.21996261179447174, -0.04070320352911949, 0.17799702286720276, -0.22288067638874054, 0.016117479652166367, 0.18467625975608826, -0.2321406602859497, 0.10336220264434814, -0.2915092706680298, -0.2819768488407135, -0.004701636731624603, -0.27246934175491333, -0.1252942681312561, 0.17842280864715576, -0.0699247270822525, -0.20267857611179352, 0.24606990814208984, -0.29364338517189026, 0.07414239645004272, -0.19730380177497864, -0.16788724064826965, 0.03702741861343384, 0.29698044061660767, -0.09555184841156006, -0.29951468110084534, 0.0791744813323021, -0.11655115336179733, -0.20143671333789825, 0.11565489321947098, 0.13144931197166443, -0.1492050588130951, 0.019702911376953125, 0.05608907714486122, 0.022275030612945557, -0.06170610338449478, -0.1742495745420456, 0.18015116453170776, 0.22778621315956116, 0.2438366413116455, 0.25044870376586914, -0.009582544676959515, 0.024166524410247803, -0.11990875005722046, -0.06647118180990219, 0.07729765772819519, 0.018781550228595734, -0.21614545583724976, -0.21050585806369781, 0.14067913591861725, 0.2300034761428833, 0.2785539925098419, 0.19618721306324005, 0.17348161339759827, 0.1263800859451294, 0.21522308886051178, -0.07731656730175018, 0.03199730068445206, 0.12171265482902527, 0.07711067795753479, -0.02210843749344349, -0.15846242010593414, -0.21842221915721893], "b": [-0.17616406083106995, 0.030599545687437057, 0.2810852825641632, -0.10252695530653, -0.25123900175094604, -0.26071038842201233, 0.11419714987277985, 0.12326967716217041, -0.16202744841575623, -0.11442151665687561, 0.23631878197193146, -0.2521135210990906, 0.17450378835201263, 0.013436751440167427, -0.13983961939811707, 0.2916469871997833, -0.1947573721408844, 0.2667026221752167, 0.2507489323616028, 0.1018095314502716, 0.19328512251377106, 0.07445330172777176, 0.2564409673213959, 0.0704863891005516, -0.3012467920780182, -0.12818998098373413, 0.04263504594564438, 0.210759237408638, -0.08967174589633942, 0.1111978068947792, 0.11699168384075165, 0.023536281660199165, -0.2487049549818039, 0.2875933051109314, -0.14644521474838257, 0.04910567030310631, -0.11461792886257172, 0.07583443820476532, 0.20660054683685303, 0.06517070531845093, -0.12842562794685364, 0.06376863270998001, -0.24644078314304352, 0.25019457936286926, 0.15466605126857758, 0.21177172660827637, 0.07764754444360733, -0.3015066683292389, -0.21226766705513, -0.2764783203601837, 0.17848610877990723, 0.2892884910106659, 0.19807040691375732, -0.12237962335348129, -0.18438555300235748, -0.17331448197364807, 0.27943313121795654, -0.29216521978378296, -0.2929192781448364, 0.12422113120555878, 0.0320110023021698, -0.15536604821681976, -0.1675463616847992, -0.28598660230636597], "act": "relu"}, {"in": 64, "out": 64, "w": [0.03805708512663841, -0.07618492096662521, -0.029645763337612152, 0.05707797035574913, -0.11169446259737015, 0.12187371402978897, -0.027415690943598747, 0.09514269977807999, -0.014703119173645973, 0.07434089481830597, -0.055581994354724884, -0.04119380563497543, -0.0519171766936779, 0.08668942004442215, -0.12355156987905502, 0.07655715197324753, -0.0021250927820801735, -0.0842454582452774, -0.03829726204276085, -0.021574459969997406, -0.02909782901406288, -0.06718000024557114, -0.040406592190265656, 0.015038959681987762, 0.06462408602237701, 0.029220402240753174, 0.10405517369508743, -0.017642416059970856, 0.0948777049779892, 0.0502481572329998, -0.08324738591909409, 0.0964784249663353, 0.01640569232404232, 0.07592478394508362, -0.11122563481330872, 0.0001948311401065439, -0.10455288738012314, -0.0230220016092062, -0.04143138602375984, -0.08928041160106659, -0.07123924791812897, 0.10489338636398315, 0.041846372187137604, 0.0358138382434845, 0.013749781996011734, 0.03317193314433098, 0.020663948729634285, -0.11558515578508377, -0.0290325116366148, 0.06765718758106232, -0.02876480668783188, 0.022339578717947006, 0.06628468632698059, 0.07834921777248383, -0.017973756417632103, 0.09214296191930771, -0.03237428888678551, 0.007220612373203039, 0.10718082636594772, -0.06382018327713013, 0.11047842353582382, -0.06979471445083618, -0.053059227764606476, 0.09140558540821075, 0.09311641752719879, -0.07298793643712997, 0.05446213483810425, 0.0170372873544693, -0.08509451895952225, -0.03632102906703949, -0.0024901051074266434, -0.13098862767219543, -0.014438585378229618, 0.045456334948539734, 0.07955148816108704, 0.1027364432811737, -0.06180522218346596, 0.054330259561538696, 0.027779320254921913, -0.00046260515227913857, -0.09432997554540634, 0.04063975065946579, 0.1175878643989563, -0.09811705350875854, -0.017496995627880096, 0.08509612083435059, 0.00727968942373991, 0.08835578709840775, -0.021923789754509926, -0.07796166092157364, -0.11579548567533493, -0.07754191756248474, -0.013265942223370075, 0.06989210098981857, 0.008044719696044922, -0.001868432736955583, 0.11098562926054001, 0.03753826394677162, -0.06077880784869194, -0.050490982830524445, 0.0595003180205822, -0.05640912428498268, 0.03737481310963631, 0.06550463289022446, -0.0023525687865912914, -0.0957004725933075, -0.05784618854522705, -0.10817183554172516, 0.04964151605963707, -0.11164730042219162, -0.07874191552400589, 0.11235548555850983, 0.011344578117132187, 0.06935765594244003, -0.049490850418806076, -0.029138078913092613, -0.05146046727895737, 0.04153569042682648, -0.08426215499639511, -0.046959832310676575, 0.016485827043652534, -0.005029990803450346, -0.06655798107385635, 0.0038130159955471754, -0.008862175047397614, -0.11054172366857529, 0.10614901036024094, -0.09792377054691315, 0.03744703531265259, 0.0579557791352272, -0.01864076778292656, -0.0412677638232708, 0.10655102878808975, 0.09337147325277328, -0.010933925397694111, -0.03192751482129097, -0.06199165806174278, 0.09096211194992065, -0.056926049292087555, 0.03407709673047066, 0.04239463061094284, 0.10026218742132187, -0.0028487564995884895, 0.05902143567800522, -0.07079587876796722, -0.0534430593252182, -0.04936730116605759, -0.12578687071800232, -0.10535433143377304, 0.052177876234054565, 0.05021550506353378, -0.03001220151782036, -0.11082831770181656, 0.09168095886707306, 0.13203862309455872, 0.12686900794506073, -0.060653746128082275, -0.10123615711927414, 0.08527770638465881, 0.07360068708658218, 0.08961320668458939, 0.029122263193130493, 0.09113060683012009, -0.04855642095208168, -0.09212344884872437, 0.024312874302268028, 0.10960978269577026, -0.08784333616495132, 0.07100866734981537, -0.04586386680603027, -0.08938151597976685, -0.03998836874961853, 0.11586527526378632, 0.10238928347826004, 0.10929478704929352, 0.1243748664855957, -0.016441233456134796, 0.045320577919483185, 0.032500606030225754, -0.0519222617149353, 0.07340730726718903, -0.012132043018937111, -0.042771484702825546, 0.06285876780748367, 0.13138338923454285, 0.10521573573350906, 0.011709027923643589, -0.07699226588010788, 0.10515061020851135, 0.044140592217445374, 0.11167383193969727, -0.04062424227595329, 0.06913067400455475, -0.006264347583055496, 0.09355514496564865, 0.02173345722258091, -0.06117791682481766, 0.05171164870262146, 0.1299767643213272, -0.07175591588020325, 0.1248461902141571, 0.09130725264549255, 0.11627525091171265, 0.015734590590000153, -0.03064114972949028, -0.039425335824489594, -0.01990807056427002, -0.08690894395112991, 0.04319831356406212, 0.056787654757499695, -0.026344768702983856, 0.10663503408432007, 0.04857832193374634, 0.11396651715040207, 0.10916362702846527, -0.020162008702754974, -0.1003609448671341, -0.07643473148345947, 0.13197162747383118, -0.07266396284103394, -0.0006037076818756759, 0.08876711875200272, -0.03432125225663185, 0.08249355852603912, -0.09161725640296936, 0.022663043811917305, 0.06247786432504654, -0.09837167710065842, -0.03654755279421806, -0.05961177870631218, -0.01853898912668228, 0.1101781576871872, 0.1155213862657547, 0.0719718411564827, -0.07104696333408356, -0.028113409876823425, 0.005216875113546848, 0.11647485196590424, -0.09638925641775131, -0.026803992688655853, -0.11919444054365158, 0.037095341831445694, -0.026935124769806862, -0.0534476637840271, -0.12254451960325241, -0.03831423819065094, -0.10629240423440933, 0.034595344215631485, -0.10206235200166702, -0.05539917200803757, 0.12898392975330353, -0.11706162244081497, -0.11399398744106293, -0.1031859964132309, -0.07174386084079742, 0.09355642646551132, -0.03545472025871277, -0.08134040981531143, 0.06494009494781494, 0.11759732663631439, 0.07286398857831955, 0.013660932891070843, 0.009803097695112228, 0.03274041786789894, 0.10486273467540741, 0.08605390787124634, -0.11138268560171127, -0.08301768451929092, -0.08900349587202072, -0.058780841529369354, 0.11384285241365433, -0.11846192926168442, -0.015675503760576248, 0.09927693754434586, 0.049589186906814575, -0.05698428675532341, -0.00999974925071001, -0.08946167677640915, -0.07287364453077316, -0.10656397044658661, -0.09514829516410828, 0.11254704743623734, -0.03302939981222153, -0.0718282163143158, -0.05022966489195824, -0.10882408171892166, -0.07340080291032791, -0.00014512908819597214, -0.06634784489870071, 0.023539608344435692, 0.037890587002038956, 0.08062981069087982, -0.08244335651397705, -0.03124290332198143, 0.11951358616352081, -0.0012409494956955314, -0.11870095878839493, -0.04965759068727493, 0.055112313479185104, -0.015827015042304993, 0.05289434641599655, -0.09227532148361206, 0.052250321954488754, -0.060104742646217346, -0.031845029443502426, 0.003927275072783232, 0.13436289131641388, 0.09513858705759048, 0.11810187995433807, -0.022839536890387535, 0.08433888107538223, 0.008037238381803036, 0.07089170068502426, -0.05355289950966835, -0.06889723986387253, -0.0954369604587555, 0.007427130360156298, -0.044680140912532806, 0.08815346658229828, -0.0597665049135685, 0.06140751764178276, -0.08029679954051971, 0.0738033801317215, -0.004517644643783569, -0.0858880802989006, 0.005197546444833279, -0.10188544541597366, 0.004503736272454262, -0.06808963418006897, -0.12800240516662598, 0.12718921899795532, 0.059972915798425674, 0.04065608233213425, 0.07843504101037979, -0.1030675545334816, -0.07218596339225769, -0.06162741407752037, -0.0827546939253807, -0.02813653275370598, 0.08564447611570358, -0.07008176296949387, 0.011254792101681232, 0.04737193137407303, -0.061391863971948624, 0.055545978248119354, -0.02554159425199032, 0.06944221258163452, 0.11604852974414825, 0.021854091435670853, -0.07185500115156174, -0.07403568178415298, 0.11109958589076996, -0.047317177057266235, 0.1145213320851326, -0.08676870167255402, -0.05914910137653351, 0.13469305634498596, 0.011354002170264721, -0.05798977613449097, -0.0026632463559508324, -0.001746403519064188, -0.10358154773712158, 0.02405686117708683, 0.05993502214550972, -0.0074907150119543076, -0.10969079285860062, -0.028237229213118553, 0.0514402762055397, -0.05741529539227486, 0.08851064741611481, -0.05233578383922577, -0.028289983049035072, 0.06019287183880806, 0.018785584717988968, 0.07599684596061707, -0.09520766884088516, 0.10659777373075485, -0.028403446078300476, 0.00793496984988451, 0.06891372054815292, 0.024255437776446342, -0.05660778284072876, 0.08387581259012222, -0.01651572808623314, 0.05227310582995415, -0.052881933748722076, 0.014665734954178333, -0.05067243427038193, 0.06156372278928757, 0.09320293366909027, 0.04347192123532295, 0.12663275003433228, 0.047444649040699005, -0.12071117758750916, -0.05771062895655632, -0.023306524381041527, -0.08952168375253677, 0.05237409844994545, 0.1107434630393982, -0.08114137500524521, -0.04105547443032265, -0.1096477210521698, 0.030311057344079018, -0.0029456689953804016, 0.09651964902877808, -0.06116368994116783, -0.11490839719772339, 0.11503304541110992, 0.12710770964622498, -0.07791531085968018, -0.03300895914435387, -0.028707172721624374, -0.0919242575764656, -0.10901612043380737, 0.09730736911296844, 0.08578156679868698, 0.04681309685111046, -0.11491075903177261, -0.01971549540758133, 0.0851166844367981, 0.07583889365196228, -0.024563051760196686, 0.005986003205180168, 0.04228964447975159, 0.11685536801815033, 0.1256052553653717, 0.10058761388063431, 0.104746013879776, -0.06701703369617462, 0.11178959906101227, 0.004705296829342842, -0.02664615400135517, 0.09028039872646332, -0.02803994156420231, 0.0037930875550955534, -0.008270793594419956, -0.09947703033685684, -0.0901627168059349, 0.11431260406970978, 0.10831392556428909, 0.0028723017312586308, -0.06942854076623917, 0.12946300208568573, 0.03412405401468277, 0.05283091217279434, -0.11577935516834259, 0.06203249841928482, 0.004223522264510393, 0.11531513184309006, 0.11094734817743301, 0.06812352687120438, 0.04066810756921768, 0.05922861024737358, 0.04478488862514496, 0.10313470661640167, 0.05363912507891655, -0.008942203596234322, 0.05037570744752884, -0.06061083450913429, 0.11387203633785248, -0.0733049288392067, 0.10962153226137161, 0.09762122482061386, -0.08974875509738922, -0.11077946424484253, 0.0017576522659510374, 0.06040532886981964, 0.10611654072999954, -0.11591584235429764, -0.018487360328435898, 0.03762087598443031, -0.04319543391466141, -0.10660259425640106, 0.025983095169067383, 0.040215786546468735, -0.01808461733162403, 0.07625292241573334, 0.012071220204234123, 0.09531301259994507, 0.02008613385260105, 0.040919702500104904, -0.019277192652225494, -0.06804190576076508, 0.043961700052022934, 0.1075071170926094, 0.039770789444446564, -0.11533042788505554, 0.0971752479672432, 0.11224562674760818, -0.012042975053191185, -0.06793418526649475, -0.02828270196914673, 0.09466426819562912, 0.07297614961862564, -0.022547584027051926, 0.016520336270332336, 0.012663659639656544, -0.10318844020366669, 0.09987115114927292, -0.015568467788398266, -0.09268500655889511, 0.023466339334845543, 0.06368391215801239, -0.09792113304138184, -0.0205738116055727, -0.12259171903133392, 0.02832367643713951, 0.011451429687440395, 0.07858122140169144, -0.015438680537045002, 0.10695726424455643, -0.11236077547073364, -0.023138582706451416, -0.07385317236185074, -0.09799829870462418, 0.11344297975301743, 0.07984233647584915, 0.10489101707935333, 0.040716808289289474, -0.08589132875204086, -0.03141336515545845, -0.09238477796316147, 0.09580100327730179, -0.0010960947256535292, -0.016502730548381805, 0.043533071875572205, -0.013234666548669338, -0.08162400871515274, 0.008555687963962555, 0.0919116660952568, 0.0820007398724556, -0.1081332415342331, 0.10310403257608414, 0.06473646312952042, -0.11201362311840057, -0.016497714444994926, -0.08496472984552383, 0.005188180133700371, -0.12613320350646973, -0.03223852068185806, 0.10621742159128189, -0.029193323105573654, 0.018314072862267494, -0.07899468392133713, 0.09822256863117218, 0.10123394429683685, -0.006801655516028404, -0.0031090800184756517, 0.10262706130743027, -0.12921589612960815, 0.05141952633857727, -0.073483407497406, -0.06230367720127106, -0.1298193484544754, 0.04566812515258789, 0.11257315427064896, -0.014383458532392979, 0.05906010419130325, -0.02732403576374054, -0.11271205544471741, -0.0927884578704834, 0.00951596349477768, 0.10227657109498978, 0.08885319530963898, -0.037825506180524826, 0.020252203568816185, 0.10599564015865326, -0.08874838054180145, -0.1391880065202713, -0.13604573905467987, 0.06440021842718124, -0.10883495211601257, -0.09286980330944061, 0.051725760102272034, 0.05998392775654793, 0.06202283874154091, -0.10808341950178146, 0.13185665011405945, 0.08232282102108002, -0.034086309373378754, -0.07476189732551575, -0.07243267446756363, -0.08406046032905579, -0.12422065436840057, 0.057469453662633896, 0.10497141629457474, 0.02965121529996395, 0.07521025091409683, -0.08222844451665878, 0.06310433149337769, 0.10529296845197678, 0.074946828186512, 0.10149724781513214, -0.04880077764391899, 0.05610864609479904, -0.0399613156914711, -0.040545959025621414, 0.13353945314884186, -0.0015907447086647153, 0.0049133701249957085, 0.003801899729296565, 0.004700192250311375, -0.06851208955049515, 0.08933037519454956, 0.11749272048473358, -0.07773985713720322, -0.12187588214874268, -0.03790842741727829, -0.048656053841114044, 0.08756338059902191, -0.05100889131426811, 0.07976386696100235, 0.01613064669072628, -0.05131637677550316, -0.06551382690668106, 0.03856116905808449, -0.10874629765748978, -0.02457873709499836, -0.10570529848337173, -0.10249857604503632, -0.06714212149381638, 0.07411196082830429, -0.10460532456636429, 0.11336442083120346, -0.10500698536634445, -0.09823377430438995, 0.06903064250946045, 0.0044245109893381596, 0.1042582169175148, -0.03449299558997154, 0.047963205724954605, 0.11050643771886826, -0.10107952356338501, -0.09909861534833908, 0.10155054926872253, 0.10044555366039276, 0.00900803878903389, 0.08244097232818604, -0.10202660411596298, 0.10387369990348816, -0.04102368652820587, 0.048577822744846344, -0.02765774354338646, -0.10912823677062988, -0.05532834306359291, -0.022752095013856888, 0.0199422687292099, 0.045686863362789154, -0.1014203429222107, -0.08185684680938721, -0.0348651222884655, 0.013115215115249157, -0.07009617984294891, 0.110309898853302, -0.05749678611755371, 0.10545957088470459, 0.029910676181316376, 0.05096783488988876, -0.036982011049985886, 0.04647018015384674, -0.049561209976673126, -0.0058379280380904675, 0.07219158113002777, -0.01124824769794941, -0.008144275285303593, 0.020813530310988426, -0.06275331228971481, -0.08731645345687866, -0.030791321769356728, 0.024078713729977608, 0.10838773101568222, 0.009047212079167366, -0.030359260737895966, 0.025455791503190994, 0.038616929203271866, -0.003085937350988388, 0.06709078699350357, 0.13089407980442047, -0.042796190828084946, -0.07241256535053253, 0.00207958510145545, 0.13048720359802246, 0.03134116530418396, -0.11496775597333908, 0.08372633159160614, 0.09497545659542084, 0.11683625727891922, 0.05192014202475548, -0.1319655179977417, 0.004966529086232185, -0.018764544278383255, -0.06998138874769211, -0.09686772525310516, -0.005597138311713934, 0.11226563155651093, 0.0246866587549448, 0.02607659250497818, 0.0589568205177784, -0.1051366776227951, 0.07302778214216232, 0.013857698068022728, -0.08356218785047531, -0.09697587788105011, -0.088553287088871, 0.03328881040215492, 0.021729804575443268, 0.025669623166322708, -0.03368370980024338, 0.04347525164484978, -0.0810428038239479, 0.07731273025274277, -0.04765195772051811, -0.05826956778764725, -0.10707100480794907, 0.050390616059303284, -0.08104458451271057, 0.08715241402387619, 0.07181936502456665, -0.006091688759624958, 0.0652647390961647, 0.07046878337860107, 0.0431499183177948, -0.09873966127634048, -0.03266032785177231, -0.0125906215980649, 0.054527319967746735, -0.0554044172167778, 0.029068440198898315, 0.05397346243262291, 0.09139952063560486, 0.13365903496742249, -0.02448473684489727, -0.10947642475366592, -0.09486018866300583, -0.02217150665819645, 0.0891294851899147, -0.03474588692188263, -0.10760370641946793, -0.07639028131961823, -0.06171434372663498, -0.05849045515060425, 0.010623089969158173, -0.008663210086524487, -0.08077231794595718, -0.014750206843018532, -0.0538601391017437, -0.02102390117943287, 0.046426352113485336, -0.018760934472084045, -0.03740786761045456, 0.03632422164082527, 0.08631746470928192, 0.09249445796012878, -0.06549063324928284, -0.12012385576963425, 0.028453458100557327, 0.038756657391786575, 0.020062614232301712, 0.12578478455543518, 0.05298548564314842, 0.023947695270180702, 0.09486755728721619, 0.09594119340181351, -0.06250452995300293, -0.10708504170179367, -0.014284119009971619, -0.02908226102590561, -0.08749144524335861, -0.08839939534664154, 0.09609045088291168, -0.05651962757110596, -0.06027622148394585, 0.09153027832508087, 0.012148264795541763, 0.009853929281234741, -0.05532292276620865, 0.024405673146247864, 0.09467250853776932, -0.10089989006519318, -0.009007144719362259, -0.0015228218398988247, 0.09677576273679733, 0.10309875011444092, 0.09234490245580673, -0.04294803366065025, 0.00526941055431962, 0.00014997264952398837, -0.08222007006406784, -0.09928573668003082, -0.011497127823531628, -0.009764917194843292, 0.04099266603589058, -0.1167445257306099, -0.06903775781393051, 0.08551855385303497, 0.018304990604519844, -0.07732217758893967, 0.05095244199037552, -0.05440996214747429, -0.08337860554456711, -0.04779241606593132, -0.06429601460695267, -0.07577062398195267, 0.012622538022696972, 0.048551954329013824, 0.05915949493646622, 0.12113027274608612, 0.11453964561223984, -0.07392626255750656, 0.09655091166496277, -0.013845589943230152, 0.07862972468137741, -0.04931597411632538, 0.11269841343164444, -0.017936524003744125, 0.03728877380490303, 0.12432918697595596, -0.014010005630552769, 0.063141368329525, 0.03465481847524643, -0.032757971435785294, -0.0028157823253422976, 0.09946341812610626, 0.038675155490636826, 0.07662954181432724, 0.05084953457117081, 0.051892705261707306, -0.059947360306978226, -0.013373194262385368, 0.08780376613140106, 0.01777220144867897, 0.06924773752689362, 0.1007339134812355, 0.0694856345653534, 0.04388738051056862, -0.04271335527300835, 0.052151892334222794, 0.0017704659840092063, 0.06857749074697495, 0.03188951313495636, -0.08344324678182602, 0.09279387444257736, -0.030446678400039673, 0.06376660615205765, -0.06710467487573624, -0.11369257420301437, 0.054513465613126755, 0.06873525679111481, 0.10116269439458847, 0.08021669834852219, 0.06059640645980835, 0.07251466065645218, 0.024713972583413124, -0.04370114207267761, 0.03383950889110565, -0.09925665706396103, -0.07824933528900146, 0.10574612766504288, 0.03412512317299843, 0.0454082265496254, -0.0007776874117553234, -0.13063868880271912, -0.04253828525543213, -0.059148140251636505, -0.034683242440223694, 0.028043948113918304, -0.08755429834127426, -0.07681906968355179, -0.038961462676525116, -0.11347514390945435, -0.025435464456677437, 0.010458742268383503, -0.015594236552715302, -0.05765130743384361, -0.01874740980565548, 0.10472751408815384, 0.07885564118623734, 0.03521064668893814, -0.09639371186494827, -0.08397559076547623, 0.07282447069883347, 0.011532563716173172, 0.007044683210551739, -0.041976381093263626, -0.07648404687643051, -0.07356328517198563, 0.06853703409433365, 0.10550114512443542, 0.05780859664082527, -0.08981380611658096, -0.009409843944013119, -0.11168551445007324, -0.06097549572587013, -0.07925361394882202, 0.02665809914469719, -0.1119406446814537, 0.08615652471780777, 0.08475282788276672, -0.005029195453971624, 0.022576332092285156, 0.03222140297293663, 0.11121343821287155, 0.0209854394197464, 0.13055525720119476, 0.05249045789241791, -0.05220160260796547, 0.10887210071086884, 0.021228404715657234, 0.062458548694849014, 0.02035026252269745, -0.06738296896219254, 0.10676475614309311, 0.024244656786322594, -0.022356994450092316, 0.028093582019209862, -0.07085034251213074, 0.047188375145196915, -0.1342545598745346, 0.06537357717752457, 0.0849335566163063, -0.06929678469896317, 0.06045950576663017, 0.024881694465875626, -0.03738929703831673, 0.10713126510381699, 0.008124838583171368, -0.07385175675153732, -0.10779795795679092, -0.003940244670957327, -0.06764651089906693, -0.10675562918186188, -0.0834447592496872, 0.10420455783605576, -0.06165159121155739, -0.07518858462572098, -0.08055459707975388, 0.01583896204829216, -0.021337511017918587, -0.11478349566459656, -0.08332915604114532, -0.09568548947572708, 0.02019738405942917, 0.009260779246687889, 0.11233368515968323, 0.032466400414705276, 0.01259573083370924, 0.09217547625303268, 0.02516147680580616, -0.07185284793376923, 0.10889741033315659, -0.05353354662656784, -0.0942598208785057, 0.11140516400337219, 0.12246565520763397, 0.07762043178081512, -0.023460878059267998, 0.10277974605560303, 0.05508694797754288, 0.02948407456278801, 0.004867270588874817, 0.0645391121506691, -0.04404524713754654, -0.04865993931889534, 0.07921823114156723, 0.027336547151207924, -0.006114685442298651, -0.023393789306282997, -0.010325971059501171, 0.11777404695749283, 0.12236058712005615, -0.131881982088089, -0.08324238657951355, -0.10629227757453918, -0.009498675353825092, 0.03324735164642334, -0.0628698393702507, 0.057921234518289566, -0.11701183021068573, 0.08960521221160889, 0.004166923463344574, 0.030216528102755547, 0.09988098591566086, 0.020531905815005302, -0.06296489387750626, -0.039256952702999115, 0.10305304825305939, -0.03925277292728424, -0.008521911688148975, -0.09416210651397705, -0.08654197305440903, -0.012721363455057144, 0.01964142918586731, -0.06579288095235825, 0.010981868952512741, 0.1056811735033989, 0.10864919424057007, -0.007135616149753332, 0.11787507683038712, 0.1164444163441658, 0.07334364950656891, 0.0930040180683136, 0.01385774090886116, -0.03302259370684624, 0.1077403873205185, 0.048347458243370056, 0.03226961940526962, -0.011750586330890656, -0.019499588757753372, -0.09000369161367416, -0.04837483912706375, -0.07002843916416168, -0.020910024642944336, 0.0786033496260643, -0.06903518736362457, 0.004559583030641079, -0.03831424564123154, -0.06364062428474426, 0.02690492384135723, 0.04164773225784302, 0.10462909191846848, -0.011409465223550797, 0.10417910665273666, -0.10213833302259445, 0.02115296758711338, 0.011136803776025772, 0.1358172446489334, 0.05743444338440895, -0.055723417550325394, 0.07260254770517349, 0.003998800180852413, -0.11147427558898926, -0.08822203427553177, -0.09578364342451096, 0.11761952191591263, 0.08999062329530716, -0.0800541490316391, 0.04972617328166962, 0.11501820385456085, -0.009083149023354053, 0.09190740436315536, 0.09987936913967133, 0.06938621401786804, -0.05337937921285629, 0.11154361814260483, 0.023975903168320656, 0.07270067930221558, -0.10584938526153564, 0.04197543486952782, 0.07230331003665924, -0.0948316752910614, -0.10205459594726562, -0.052187178283929825, 0.07175949215888977, -0.05895112082362175, -0.02352953515946865, -0.13743197917938232, -0.026011552661657333, -0.04341282695531845, -0.12910018861293793, 0.04310644045472145, -0.0010566572891548276, -0.11868492513895035, 0.052658405154943466, 0.09223876148462296, -0.08511219918727875, -0.05715087056159973, -0.039949867874383926, -0.033930253237485886, 0.03561554104089737, 0.09266803413629532, 0.08923983573913574, -0.09886851906776428, 0.13141845166683197, 0.015090717002749443, -0.10318773239850998, 0.06709754467010498, 0.10625606030225754, -0.023563329130411148, -0.1192254051566124, 0.09803669154644012, -0.08526235073804855, -0.10355383157730103, -0.042843978852033615, -0.007884550839662552, 0.034033481031656265, 0.054661739617586136, 0.02930605784058571, -0.010257291607558727, -0.06997345387935638, -0.024707704782485962, 0.07009940594434738, 0.036623310297727585, 0.0888262540102005, 0.00495137320831418, -0.0037119556218385696, -0.1367851346731186, -0.02889443188905716, -0.052799105644226074, -0.13557980954647064, 0.11145012080669403, 0.05670958384871483, 0.10634980350732803, 0.10075831413269043, 0.08782362192869186, -0.06512951105833054, 0.10697820037603378, -0.10285933315753937, 0.03814823552966118, -0.1033715233206749, 0.08760150521993637, -0.020030075684189796, 0.09735644608736038, 0.02498883381485939, 0.07561109215021133, -0.033020343631505966, -0.1051638051867485, -0.10850314795970917, -0.12365322560071945, -0.07078586518764496, 0.09685467928647995, 0.055986903607845306, 0.01719474606215954, 0.082298643887043, -0.10794597864151001, 0.006859755143523216, 0.06119897589087486, -0.12597398459911346, -0.09914412349462509, 0.11042901873588562, -0.034757453948259354, -0.09828802943229675, 0.11202246695756912, 0.007808848284184933, 0.06919879466295242, 0.0031748537439852953, 0.04821959137916565, 0.10650811344385147, 0.060678400099277496, -0.08884812891483307, 0.06947782635688782, -0.08889450877904892, 0.05705386772751808, -0.10924085229635239, -0.019938604906201363, -0.028382031247019768, 0.010087843984365463, 0.06271778047084808, -0.09640975296497345, -0.09242422133684158, 0.08710155636072159, -0.09663520753383636, -0.09284500032663345, -0.02743360586464405, -0.022912118583917618, -0.10133901983499527, 0.0034712820779532194, 0.04791770130395889, 0.11206565797328949, 0.023545922711491585, 0.02260926552116871, 0.012302449904382229, -0.05666535347700119, -0.029086628928780556, -0.007192949298769236, 0.038639649748802185, 0.06375503540039062, 0.11165184527635574, -0.058368999511003494, 0.012157793156802654, 0.019565485417842865, -0.062007855623960495, 0.09020815044641495, 0.0862780213356018, 0.03087194450199604, -0.07123223692178726, 0.09424740821123123, 0.09178577363491058, -0.069459468126297, -0.08161778748035431, 0.1078295111656189, -0.09917400777339935, -0.016114016994833946, -0.01594388112425804, -0.04619187116622925, -0.08161146938800812, -0.05123734846711159, -0.08217725902795792, 0.008482484146952629, 0.07051100581884384, -0.0781414732336998, 0.10777336359024048, 0.06423093378543854, -0.03640389442443848, 0.07669101655483246, -0.01311830896884203, -0.03718253970146179, -0.10524620115756989, -0.03540859743952751, -0.051285531371831894, 0.04506995528936386, -0.09769950807094574, 0.1263248175382614, 0.00990668311715126, 0.024808833375573158, -0.020955245941877365, -0.042626384645700455, -0.08760473877191544, 0.006589921656996012, 0.07007592916488647, 0.02241583913564682, 0.03410163149237633, -0.09705895185470581, 0.07441501319408417, -0.026723714545369148, -0.1018221452832222, -0.056515004485845566, -0.09206084161996841, -0.0223588515073061, 0.11254750937223434, -0.0545080341398716, -0.03822727128863335, 0.09566433727741241, -0.04843492805957794, 0.047070685774087906, 0.08858834952116013, 0.07212061434984207, 0.0571337454020977, 0.09360627830028534, -0.005519804544746876, -0.1042725145816803, -0.07174058258533478, 0.005423986818641424, -0.01223326101899147, 0.02962624654173851, 0.050242967903614044, -0.015767676755785942, 0.05249311402440071, -0.11325462907552719, -0.0010084364330396056, -0.10714583843946457, 0.04705726355314255, 0.08337666839361191, -0.05101662501692772, -0.02434801310300827, 0.058925703167915344, -0.05922112613916397, 0.05659569054841995, -0.0895625501871109, 0.0006255725165829062, -0.0024925649631768465, -0.11092370003461838, -0.01704701967537403, -0.0164308100938797, -0.0037144904490560293, 0.11693904548883438, -0.014557072892785072, 0.06956145167350769, -0.03916413336992264, -0.06070578470826149, -0.010344423353672028, -0.06956653296947479, -0.051564592868089676, -0.035608429461717606, 0.006022134330123663, -0.06377720832824707, -0.06115821748971939, -0.08611234277486801, -0.07401207089424133, -0.10617091506719589, -0.08870434761047363, -0.03824368864297867, -0.013212310150265694, 0.07654155045747757, -0.009396638721227646, -0.07098054885864258, -0.10426843166351318, -0.042222220450639725, 0.007149253040552139, -0.10336397588253021, -0.048097897320985794, 0.007651237305253744, 0.09789500385522842, 0.003445486770942807, -0.12640169262886047, -0.10202454030513763, -0.09183663129806519, 0.09756577759981155, 0.09326376765966415, 0.010615212842822075, -0.09042783081531525, -0.03844422474503517, -0.08629351109266281, 0.12519320845603943, -0.09179052710533142, 0.02334303967654705, 0.046833064407110214, -0.10612104833126068, 0.04603618383407593, 0.057692307978868484, 0.023458003997802734, 0.12630732357501984, -0.07064121216535568, -0.12414734065532684, -0.07575305551290512, -0.10814304649829865, 0.05063074082136154, 0.04462108761072159, -0.05659592151641846, -0.05341966077685356, 0.07928645610809326, 0.003502752399072051, 0.11746846139431, -0.0593348853290081, 0.010526291094720364, 0.04084574803709984, -0.034420911222696304, 0.10614736378192902, -0.028006233274936676, 0.03801322728395462, -0.11368425190448761, 0.039994049817323685, 0.09364752471446991, -0.133344367146492, 0.11643640697002411, -0.0008317772881127894, 0.11239143460988998, 0.08837106078863144, 0.07548211514949799, -0.02198675461113453, 0.02977568469941616, 0.027468658983707428, -0.08703027665615082, 0.04825478047132492, 0.11633211374282837, -0.03284334018826485, -0.09298516064882278, 0.12101826816797256, 0.12672293186187744, 0.024465136229991913, -0.08398409187793732, -0.019392793998122215, -0.011765197850763798, 0.09890066087245941, -0.11655543744564056, -0.07776152342557907, 0.004117314703762531, -0.025220418348908424, 0.018360277637839317, 0.1325978934764862, 0.09756992757320404, 0.10719019919633865, -0.13549190759658813, 0.10561719536781311, -0.08171100169420242, -0.0518779382109642, 0.0879703015089035, -0.041350409388542175, -0.05973079055547714, 0.00973654817789793, 0.12523797154426575, -0.007131276186555624, -0.11696252226829529, -0.027879497036337852, -0.09720347076654434, -0.005010178312659264, 0.10565436631441116, 0.10960756242275238, 0.019459476694464684, -0.08639693260192871, -0.07972486317157745, 0.0530746765434742, 0.048086412250995636, -0.05689143389463425, 0.022700944915413857, -0.050942111760377884, -0.10469747334718704, 0.13151563704013824, 0.0623617060482502, -0.053621385246515274, 0.06264298409223557, -0.10043473541736603, 0.06114720180630684, 0.040828146040439606, -0.023278774693608284, -0.07114984095096588, -0.00032622291473671794, 0.0954178124666214, 0.015696493908762932, -0.08346223831176758, -0.06763144582509995, -0.023155516013503075, 0.04613339528441429, 0.08985302597284317, 0.10740908980369568, 0.11152401566505432, -0.012345531024038792, -0.05925307422876358, -0.09927326440811157, -0.006124170031398535, 0.11764021962881088, 0.03479645401239395, 0.0340997613966465, 0.019481321796774864, -0.11411060392856598, -0.017144683748483658, -0.052244119346141815, -0.11436710506677628, 0.09522055834531784, 0.0848412811756134, 0.015438651666045189, -0.08198396861553192, 0.05215875431895256, -0.07903719693422318, -0.1084926649928093, 0.015000968240201473, 0.016965344548225403, 0.04168661683797836, 0.13575977087020874, 0.07928252965211868, -0.021929748356342316, 0.0671042799949646, -0.11411652714014053, 0.08212459087371826, -0.10610788315534592, -0.039948005229234695, 0.08544224500656128, -0.00897650234401226, -0.08363522589206696, 0.034305550158023834, 0.10443874448537827, 0.0500975027680397, 0.07753977179527283, -0.05152982845902443, 0.031772442162036896, -0.09332718700170517, -0.006104261614382267, 0.017266158014535904, -0.09379009157419205, 0.012635292485356331, -0.06944838166236877, -0.04665226861834526, -0.11646278202533722, 0.035466618835926056, 0.0760754644870758, 0.11238875240087509, 0.10058829188346863, -0.11116708815097809, 0.10362543910741806, 0.10433202981948853, 0.056012216955423355, 0.09471224993467331, 0.0954727753996849, 0.08868320286273956, 0.020622029900550842, -0.09836357831954956, 0.008072723634541035, -0.09022796899080276, 0.12132490426301956, 0.12756672501564026, -0.04489181935787201, 0.13526242971420288, -0.029280712828040123, -0.10153639316558838, 0.07939529418945312, 0.08688917756080627, 0.10046279430389404, 0.054202597588300705, 0.07855543494224548, 0.0828637108206749, 0.07135841250419617, -0.11854971200227737, -0.03797092288732529, 0.021559452638030052, 0.1149260401725769, -0.019089162349700928, 0.0675494372844696, -0.1088256686925888, -0.054538413882255554, 0.026290422305464745, 0.021083809435367584, 0.010566017590463161, 0.02759850211441517, 0.05935312807559967, -0.007390035782009363, 0.07258313149213791, 0.11960926651954651, -0.017455022782087326, -0.09302335232496262, 0.02876809425652027, 0.06334708631038666, 0.06307528913021088, -0.10300158709287643, -0.02433229610323906, 0.007817479781806469, 0.057397469878196716, -0.01894688792526722, 0.09818585962057114, -0.048099085688591, 0.06669849902391434, -0.11834374070167542, 0.13362343609333038, 0.012250730767846107, -0.06954457610845566, 0.0700686052441597, -0.030159059911966324, -0.06853892654180527, -0.05998814478516579, 0.11054018884897232, 0.10523461550474167, 0.023012176156044006, -0.01774612069129944, -0.06677346676588058, -0.048481740057468414, -0.12881210446357727, -0.10683155059814453, 0.013479203917086124, 0.10274044424295425, 0.017372142523527145, -0.1095896065235138, -0.044077564030885696, 0.09156284481287003, 0.039628203958272934, 0.03499168902635574, -0.11385110020637512, -0.025035997852683067, 0.09925077110528946, -0.05179600417613983, -0.04769023135304451, -0.11796634644269943, 0.057384658604860306, 0.03139346465468407, -0.021847661584615707, 0.10346975177526474, 0.08398700505495071, 0.05698017030954361, 0.07639915496110916, -0.02123568393290043, -0.05995161086320877, -0.05758978798985481, 0.006024109199643135, -0.11100444197654724, -0.047563835978507996, -0.06605486571788788, 0.0593486912548542, 0.054081548005342484, -0.09399781376123428, 0.05609089136123657, -0.0010308971395716071, 0.10940469056367874, 0.09952153265476227, 0.07127358764410019, 0.07806017249822617, 0.008909819647669792, 0.10521668940782547, -0.1259591281414032, 0.08548474311828613, 0.10402887314558029, 0.043520569801330566, -0.04452742263674736, -0.026609916239976883, 0.0696963518857956, 0.008211887441575527, 0.10373767465353012, 0.043687138706445694, 0.00923075806349516, -0.023517265915870667, -0.10884787142276764, -0.08117719739675522, -0.11663040518760681, -0.11464052647352219, -0.06699834018945694, -0.02140190824866295, 0.0954144224524498, 0.02766195312142372, 0.06476812809705734, -0.10842332243919373, 0.12272804230451584, 0.1194089725613594, 0.08259724080562592, -0.04808659479022026, -0.008711442351341248, 0.016032954677939415, -0.039457838982343674, 0.057768482714891434, -0.04010137915611267, -0.1175941750407219, -0.048019763082265854, 0.12531915307044983, 0.0447612963616848, 0.06266254931688309, 0.026164021342992783, 0.027569448575377464, 0.05920351669192314, -0.06707882136106491, 0.019886065274477005, -0.030074410140514374, -0.10140018910169601, -0.1065400093793869, -0.016141211614012718, -0.1236419603228569, -0.11849065870046616, 0.12783712148666382, 0.0030564377084374428, 0.006476446986198425, -0.0896109864115715, 0.02870102785527706, 0.08670464903116226, 0.1070496141910553, -0.11150681972503662, -0.02505449950695038, 0.08499915897846222, 0.12128625810146332, 0.11066507548093796, -0.1190112829208374, -0.10286514461040497, -0.05890840291976929, 0.06365741789340973, -0.09902089089155197, 0.021540097892284393, 0.08148345351219177, 0.017624756321310997, -0.016933446750044823, 0.07130680233240128, 0.014653789810836315, 0.06478603929281235, -0.08845969289541245, 0.06905502080917358, 0.010128960944712162, -0.08922833949327469, 0.026803074404597282, -0.0904301106929779, 0.09628286212682724, 0.03773424029350281, -0.09187234193086624, -0.007864189334213734, -0.02359790727496147, -0.0596846342086792, -0.12444004416465759, -0.08461073040962219, -0.092947818338871, 0.01640557311475277, -0.0011304541258141398, 0.03002042882144451, -0.11655323207378387, -0.07387439161539078, -0.07014275342226028, 0.006107725203037262, -0.11566918343305588, 0.09750498831272125, -0.06806817650794983, 0.042773257941007614, 0.11358553171157837, -0.03358137607574463, 0.1027444377541542, -0.11369975656270981, 0.020710911601781845, -0.13177591562271118, -0.026768740266561508, 0.11366388946771622, 0.08857826888561249, 0.02524641528725624, -0.04758664220571518, 0.056542426347732544, -0.09292235225439072, 0.07350093126296997, -0.10885926336050034, -0.09323780983686447, 0.10358411818742752, -0.10439176112413406, -0.06227763369679451, 0.03453204408288002, 0.007365314289927483, 0.015729477629065514, -0.08357998728752136, -0.031213631853461266, 0.10693780332803726, 0.09905412048101425, -0.09046140313148499, -0.0008076168596744537, -0.10519158840179443, 0.0842752456665039, -0.0037280567921698093, -0.0666913166642189, 0.10567018389701843, 0.07883691787719727, -0.03315725922584534, -0.04904916137456894, 0.016968075186014175, -0.0753331407904625, 0.010686611756682396, -0.023969382047653198, -0.09343723952770233, 0.060190919786691666, -0.06619471311569214, -0.04671334847807884, -0.07580728828907013, 0.014280864037573338, 0.05840529501438141, 0.062977634370327, -0.021404020488262177, 0.029362723231315613, -0.09389591962099075, -0.11168907582759857, -0.05068120360374451, -0.08832363784313202, -0.021312860772013664, 0.10226055234670639, -0.10734719783067703, -0.09569787234067917, 0.064969003200531, -0.05158284679055214, 0.05292893201112747, -0.03352413326501846, -0.11903657764196396, 0.023819345980882645, -0.03340122848749161, -0.08558979630470276, 0.09879215061664581, -0.00910381879657507, 0.027533363550901413, 0.011846755631268024, -0.0694446712732315, 0.01349531952291727, 0.052577778697013855, -0.026452643796801567, -0.0003240866935811937, 0.052445486187934875, 0.07313291728496552, 0.008589742705225945, 0.0003817275573965162, -0.0827995091676712, -0.03659239783883095, -0.04367378354072571, -0.056427497416734695, -0.10056660324335098, -0.01725788041949272, -0.08389327675104141, 0.03099011816084385, 0.01953772082924843, 0.1146499291062355, -0.005946885794401169, 0.08321571350097656, -0.07696503400802612, -0.029163816943764687, -0.04788767918944359, -0.038538817316293716, -0.09454449266195297, -0.09924756735563278, -0.09823498129844666, 0.12142165005207062, -0.04971783980727196, 0.05563652887940407, 0.03550010174512863, 0.007154238875955343, 0.009069457650184631, -0.02501470409333706, -0.029894346371293068, 0.007114141248166561, -0.12078327685594559, 0.049849774688482285, 0.00014171109069138765, -0.08322849124670029, 0.11096395552158356, -0.10727810859680176, -0.0564735010266304, 0.013268283568322659, 0.07502538710832596, -0.0004318410065025091, -0.02243628539144993, 0.08259732276201248, 0.11692439764738083, -0.00047622236888855696, -0.064262755215168, -0.08631891012191772, 0.03596535697579384, -0.08920823782682419, 0.05605274438858032, 0.014720476232469082, 0.06407777220010757, -0.09016159176826477, -0.09861446171998978, -0.059856630861759186, -0.05611908808350563, 0.13288922607898712, -0.023159481585025787, -0.04051581025123596, -0.08288998156785965, -0.04058578610420227, 0.04979676753282547, -0.05982157960534096, 0.08749094605445862, -0.07680180668830872, -0.11521215736865997, 0.07726126164197922, 0.06273196637630463, 0.12983790040016174, -0.09993018209934235, 0.017360713332891464, 0.014969575218856335, -0.039526551961898804, -0.03768707811832428, 0.05407094210386276, -0.0007099190843291581, 0.021091558039188385, 0.027724819257855415, 0.07868251949548721, 0.0016800026642158628, 0.05930439755320549, -0.027696143835783005, 0.02877175621688366, 0.08487295359373093, 0.05431807413697243, -0.06379210203886032, -0.10549633949995041, -0.01640257239341736, 0.10567235201597214, 0.08213694393634796, 0.01008817832916975, 0.024216389283537865, -0.06621786206960678, -0.05295202136039734, -0.004694043193012476, 0.0746743455529213, 0.1102885976433754, 0.08450855314731598, -0.11643926799297333, 0.06756522506475449, -0.00455855019390583, -0.07664690166711807, -0.12856552004814148, 0.03591838851571083, -0.08804354816675186, 0.011328673921525478, 0.11119915544986725, -0.0703391283750534, 0.05077248066663742, -0.08143945038318634, -0.0312848761677742, 0.08741389960050583, 0.048986759036779404, 0.05083151534199715, -0.060143690556287766, 0.12736713886260986, -0.07385660707950592, 0.09954331070184708, -0.10100860148668289, -0.10044828057289124, 0.07774895429611206, 0.0717356726527214, -0.10435814410448074, 0.05857773497700691, 0.009587220847606659, 0.05978953465819359, 0.04311561584472656, 0.002374868607148528, 0.054597772657871246, -0.08775213360786438, 0.08131152391433716, -0.03384142369031906, -0.06436275690793991, 0.06434328854084015, 0.10182123631238937, 0.08420490473508835, 0.08597999811172485, -0.11177870631217957, -0.007702201139181852, 0.06017648056149483, -0.024680165573954582, 0.10095134377479553, -0.04455610737204552, 0.10476838797330856, 0.02445848099887371, -0.008914152160286903, -0.010269000194966793, 0.033932220190763474, 0.11469056457281113, 0.0017333491705358028, -0.07666792720556259, 0.08193916827440262, 0.001730799674987793, -0.12436950206756592, 0.1151885837316513, -0.09651359170675278, 0.0880160704255104, -0.09683886915445328, -0.003606179729104042, 0.08256678283214569, -0.024601658806204796, -0.10230278223752975, -0.10207971185445786, 0.02793881483376026, -0.0002773642772808671, 0.08726243674755096, 0.02605036087334156, 0.05679129436612129, 0.017833976075053215, -0.05218026041984558, -0.1139465942978859, -0.055981673300266266, -0.08570869266986847, -0.07067941129207611, -0.03253578767180443, -0.05105148255825043, 0.018059473484754562, -0.10519697517156601, 0.07677450776100159, 0.06500156968832016, 0.026181526482105255, 0.01201277319341898, -0.08105141669511795, -0.11958490312099457, 0.00809792336076498, 0.008883694186806679, -0.0005243791965767741, 0.006862368434667587, -0.09281418472528458, 0.09690188616514206, -0.0793742686510086, 0.08169949054718018, -0.09599010646343231, -0.10538606345653534, 0.011474289000034332, -0.05067478120326996, -0.07199615985155106, -0.06929685175418854, 0.11350177973508835, -0.12423931807279587, 0.01575707644224167, 0.09255887567996979, 0.08993351459503174, 0.09932976216077805, 0.04081368073821068, -0.1254875510931015, -0.07491471618413925, 0.014011135324835777, -0.03398039564490318, 0.014419296756386757, -0.05559748783707619, -0.0280469860881567, -0.059826672077178955, 0.0028951712884008884, -0.08305779099464417, -0.039684638381004333, 0.05424743890762329, -0.009362132288515568, 0.07071544975042343, -0.062404174357652664, 0.09770690649747849, -0.013304521329700947, 0.02170371636748314, -0.06455328315496445, 0.05007902905344963, 0.03221588581800461, 0.03760875388979912, 0.06368226557970047, -0.03342199698090553, -0.13728521764278412, -0.041576024144887924, -0.03255964070558548, 0.12220637500286102, 0.004694200586527586, 0.05486905574798584, 0.0828566774725914, -0.026093218475580215, -0.008600559085607529, 0.10833138227462769, 0.10662619024515152, -0.011877872049808502, 0.1350703239440918, 0.04831118509173393, 0.12748603522777557, -0.004327475558966398, 0.08826646953821182, 0.047560688108205795, 0.07104899734258652, 0.07358269393444061, 0.06618969142436981, -0.015873974189162254, -0.033142052590847015, -0.06488063931465149, -0.013541163876652718, 0.023296786472201347, -0.12850216031074524, 0.09494639933109283, 0.1182761937379837, 0.07424306124448776, 0.011149408295750618, -0.07459225505590439, 0.024331236258149147, -0.015215982683002949, -0.002106359926983714, 0.09966780990362167, -0.00395205756649375, -0.08656047284603119, 0.05882367491722107, -0.10811775922775269, 0.03421715646982193, 0.05788905546069145, 0.1075078621506691, -0.09013259410858154, 0.11324384063482285, -0.07980027049779892, 0.04595395550131798, -0.10374975204467773, 0.08991774916648865, -0.09618596732616425, 0.11501342058181763, 0.06671393662691116, 0.06943096965551376, -0.09865062683820724, -0.09401446580886841, -0.10566446930170059, 0.0075082555413246155, 0.01009645126760006, 0.0226749237626791, 0.005044346675276756, -0.03988639637827873, -0.08472011238336563, 0.05830061808228493, 0.08252433687448502, -0.06106378138065338, 0.03813394904136658, -0.039336010813713074, 0.10774581879377365, 0.014019385911524296, 0.07265759259462357, 0.022163277491927147, 0.0494038462638855, 0.07587205618619919, -0.06298477947711945, 0.018626123666763306, 0.0923173800110817, -0.050673142075538635, 0.032648373395204544, -0.11114882677793503, 0.05905156210064888, -0.00796756986528635, -0.01019296795129776, 0.06354906409978867, 0.10720670223236084, 0.0012736729113385081, -0.03697158768773079, 0.022519640624523163, -0.030175918713212013, -0.10802566260099411, 0.13154226541519165, 0.07683924585580826, -0.09686460345983505, 0.07598759979009628, 0.04466060921549797, 0.07326757162809372, -0.12306730449199677, -0.011161883361637592, -0.08164776861667633, -0.10780790448188782, -0.06865604966878891, -0.09903553873300552, 0.03818880766630173, -0.011933383531868458, -0.07727422565221786, 0.01118468213826418, 0.10121014714241028, 0.02890627272427082, -0.06464464217424393, 0.11089446395635605, -0.0946856290102005, -0.09876405447721481, 0.06757801026105881, -0.11064852029085159, -0.11422443389892578, 0.10182151198387146, 0.11461598426103592, 0.0995049700140953, -0.0354962982237339, -0.1048375591635704, 0.11651930958032608, -0.11975958943367004, -0.037447597831487656, 0.07637125253677368, -0.0008869990124367177, 0.0795123353600502, 0.11990409344434738, 0.014714040793478489, 0.07758985459804535, 0.1272117793560028, 0.012246746569871902, -0.0593043714761734, -0.007545034866780043, -0.03609563037753105, 0.08465776592493057, -0.021448876708745956, 0.08805383741855621, -0.059721071273088455, -0.10099931806325912, -0.07311247289180756, 0.08223791420459747, -0.08717451989650726, 0.03650261461734772, 0.07136688381433487, -0.030828678980469704, -0.0002563578309491277, -0.05469043180346489, 0.12257751077413559, 0.007238245569169521, -0.08904317021369934, -0.07517284899950027, -0.051562145352363586, 0.09636656194925308, -0.09150659292936325, -0.03016769513487816, -0.08200987428426743, -0.08471086621284485, -0.09317146241664886, 0.10711848735809326, -0.07318340241909027, -0.10248320549726486, 0.00011756330786738545, -0.1021772027015686, -0.1121581643819809, -0.05417511984705925, -0.06464070826768875, -0.08236867189407349, -0.08886516094207764, -0.07965849339962006, 0.018739620223641396, -0.02799869328737259, -0.10473492741584778, 0.03832751885056496, -0.09081999212503433, 0.09386066347360611, -0.12095855921506882, -0.08409298211336136, -0.03134544566273689, -0.07999899983406067, 0.07154274731874466, -0.07097645103931427, -0.0012989514507353306, 0.10615711659193039, -0.009045709855854511, 0.06430955976247787, -0.10672509670257568, 0.06960195302963257, 0.05599653348326683, -0.058393798768520355, -0.015639685094356537, -0.01894233003258705, -0.12189406901597977, 0.052665527909994125, -0.00412503257393837, -0.0751214474439621, 0.08127181231975555, -0.012216952629387379, -0.046207573264837265, 0.0662040039896965, -0.0775727927684784, -0.10325545072555542, -0.09211675077676773, -0.05658671259880066, 0.09287995100021362, -0.021341990679502487, 0.05832929536700249, -0.06311751902103424, 0.016743935644626617, 0.11858147382736206, 0.08832230418920517, -0.014100845903158188, -0.034554917365312576, -0.026873024180531502, -0.057028498500585556, -0.001985723152756691, 0.09837889671325684, -0.021005146205425262, 0.033931851387023926, -0.07381865382194519, 0.10480231046676636, 0.023321814835071564, 0.11999142915010452, 0.11069640517234802, -0.08528867363929749, -0.08406026661396027, 0.11995802819728851, -0.041710563004016876, 0.025285450741648674, -0.11657753586769104, 0.027045022696256638, -0.06404974311590195, 0.002963385311886668, 0.13917754590511322, -0.07545005530118942, 0.053816668689250946, 0.08762319386005402, 0.035024046897888184, -0.004020861349999905, 0.030712155625224113, -0.026301290839910507, -0.11595714837312698, 0.07706493139266968, -0.016659187152981758, 0.12491494417190552, 0.10550858825445175, -0.02246054820716381, 0.07652169466018677, -0.04287244752049446, -0.005190923810005188, -0.09411265701055527, 0.11253096163272858, 0.05978050082921982, -0.11942081153392792, 0.05587611719965935, -0.028132829815149307, 0.07171269506216049, 0.0012914456892758608, -0.04356464743614197, -0.022291570901870728, -0.02692430466413498, -0.034455422312021255, -0.08906126767396927, -0.04905121773481369, 0.03332975134253502, -0.10456950962543488, 0.10985510796308517, 0.0010545309633016586, 0.08213674277067184, -0.07534890621900558, 0.07743040472269058, 0.049705445766448975, -0.017532845959067345, -0.05250856652855873, 0.050724249333143234, -0.07192661613225937, -0.12762559950351715, 0.07619889825582504, 0.08128047734498978, 0.045243412256240845, -0.1073116585612297, -0.007492756005376577, 0.027209226042032242, 0.1232638880610466, -0.09398221224546432, 0.01939168944954872, -0.012897764332592487, 0.0657302588224411, -0.1041792556643486, 0.05118372663855553, 0.058130260556936264, 0.10751821100711823, 0.10171819478273392, -0.04703846573829651, -0.04667395353317261, -0.07172783464193344, 0.04692362621426582, -0.01607927680015564, -0.0844084843993187, -0.11750246584415436, -0.015353871509432793, -0.1281808316707611, -0.03179264813661575, -0.012730332091450691, -0.003201544051989913, -0.1238839328289032, 0.0678398385643959, 0.012077605351805687, 0.013112327083945274, -0.013960535638034344, 0.10195612162351608, 0.10900294035673141, -0.060998037457466125, 0.036934126168489456, -0.1014353558421135, -0.06926007568836212, -0.04552661255002022, -0.028535107150673866, 0.10789868235588074, 0.11097878217697144, -0.03660916909575462, 0.07927988469600677, 0.13523466885089874, 0.06900082528591156, 0.08523246645927429, 0.0762893408536911, 0.10839682817459106, 0.01584770157933235, 0.06628073006868362, 0.08464748412370682, -0.053955815732479095, -0.079190194606781, 0.030698899179697037, -0.07408345490694046, 0.010023252107203007, -0.062020737677812576, -0.09943686425685883, 0.10740340501070023, 0.10647422820329666, 0.07889559864997864, 0.11883220821619034, -0.001007608836516738, 0.05208158493041992, -0.07700254768133163, -0.005910856649279594, -0.11775274574756622, 0.03841899707913399, -0.06322649121284485, -0.0429958701133728, 0.0867241695523262, 0.11384859681129456, 0.08115825057029724, 0.00702000642195344, 0.08626093715429306, 0.09307082742452621, 0.038006749004125595, 0.01853855513036251, 0.002364266896620393, 0.06724868714809418, -0.08454833179712296, 0.03240251913666725, 0.040745750069618225, 0.11217725276947021, -0.06453860551118851, -0.026444975286722183, 0.11065486818552017, 0.057625580579042435, -0.047632016241550446, -0.10813190788030624, -0.05041145533323288, 0.04030488431453705, 0.13428734242916107, 0.1291181743144989, -0.06367678195238113, -0.08894401788711548, 0.0666830763220787, -0.0268490519374609, 0.08536168187856674, -0.08571942150592804, 0.035634372383356094, -0.04011808708310127, -0.03013748489320278, -0.05741558596491814, -0.11792793869972229, -0.09067710489034653, -0.017576931044459343, -0.11440704762935638, -0.035505831241607666, -0.0390477329492569, 0.02131071127951145, 0.09637182205915451, -0.019527137279510498, 0.025392765179276466, -0.1152677983045578, 0.029277607798576355, -0.10454586893320084, 0.023835038766264915, -0.10382609069347382, -0.09987270087003708, -0.0452459380030632, 0.10028927773237228, 0.06289458274841309, 0.12205075472593307, -0.01052982546389103, -0.056064706295728683, 0.03799068182706833, -0.09354449808597565, 0.06659417599439621, 0.10731133073568344, -0.07837922126054764, 0.1296098828315735, -0.038682568818330765, 0.051183462142944336, -0.04027675837278366, -0.05040593445301056, 0.04523938521742821, 0.033904097974300385, 0.037554629147052765, -0.011109573766589165, 0.1072613000869751, -0.0710250660777092, 0.00046553544234484434, 0.04443909227848053, -0.10792817920446396, 0.037515658885240555, -0.06199999898672104, 0.04424378648400307, -0.08948055654764175, -0.010422074235975742, -0.09626692533493042, 0.02777671627700329, 0.1189083680510521, 0.08319851011037827, -0.06236601620912552, 0.08459775894880295, 0.038198500871658325, 0.007679101079702377, -0.03502810746431351, 0.11535657942295074, -0.1030576080083847, 0.08380397409200668, 0.09219809621572495, 0.03657372668385506, 0.031394898891448975, -0.07171789556741714, 0.04287504404783249, 0.015606435015797615, -0.053681399673223495, 0.026171652600169182, 0.1087869331240654, 0.023494549095630646, -0.09358935058116913, 0.06369160115718842, 0.05390860512852669, -0.04310083016753197, -0.05275008827447891, 0.08016882091760635, 0.10914918780326843, -0.040339112281799316, -0.07484209537506104, 0.10767263174057007, -0.10090672224760056, 0.01857033558189869, -0.04299929365515709, 0.034693483263254166, -0.07900314778089523, 0.08817745745182037, 0.08377378433942795, -0.09474565088748932, 0.05119098350405693, 0.0023665321059525013, 0.1080886572599411, -0.10242185741662979, -0.08553913980722427, -0.013920796103775501, -0.08242889493703842, -0.0536871962249279, -0.06521821022033691, 0.017865842208266258, 0.061541248112916946, -0.023958338424563408, 0.05676242336630821, 0.09080903977155685, -0.10902214050292969, -0.07721494138240814, 0.10491359978914261, 0.07638101279735565, -0.10300232470035553, 0.057923510670661926, -0.10041236877441406, 0.0781579315662384, 0.06470731645822525, 0.028186306357383728, -0.10832826048135757, -0.07444202899932861, 0.1281936913728714, -0.0864005833864212, -0.10340605676174164, -0.12015334516763687, 0.01007524598389864, 0.0681404322385788, -0.07372739911079407, 0.08449824154376984, 0.08248371630907059, -0.07912109047174454, -0.06750871986150742, 0.07757487148046494, 0.06996769458055496, 0.01523255929350853, 0.04856942966580391, 0.04197074845433235, -0.07880713790655136, -0.11823365092277527, -0.10904677212238312, -0.1375187337398529, -0.08713704347610474, -0.0736173689365387, -0.0003477265127003193, -0.09787682443857193, 0.10498486459255219, -0.05590017884969711, 0.04646151512861252, -0.1002778559923172, -0.016609208658337593, -0.0926278606057167, 0.104405976831913, -0.04129692167043686, -0.020833861082792282, 0.11178416758775711, -0.0040753730572760105, 0.09674889594316483, -0.06734571605920792, -0.08248715847730637, 0.10413478314876556, 0.04788026213645935, 0.039917927235364914, 0.08323922008275986, 0.01059931144118309, 0.07726092636585236, -0.05181150138378143, -0.03752383217215538, 0.11503979563713074, -0.10211573541164398, -0.01311890222132206, -0.08356690406799316, 0.06480817496776581, 0.11029372364282608, 0.08099349588155746, 0.04698231443762779, -0.06403849273920059, -0.015191128477454185, -0.1252249777317047, 0.04381678253412247, 0.06953449547290802, 0.0007033884176053107, -0.006703140679746866, 0.05982658267021179, -0.07034745067358017, 0.11159153282642365, 0.00967426598072052, -0.047474704682826996, 0.04034263268113136, 0.04549362137913704, -0.031312864273786545, 0.09596174210309982, -0.12185992300510406, 0.12612314522266388, -0.0937492847442627, 0.031887538731098175, -0.030274489894509315, -0.024334410205483437, -0.002506626769900322, 0.09319821000099182, -0.04502974450588226, 0.06749297678470612, 0.00030479574343189597, 0.021443257108330727, 0.02795609086751938, 0.04274960234761238, 0.019510861486196518, -0.11640018224716187, -0.1141350269317627, 0.09067806601524353, 0.08154802024364471, 0.021027762442827225, 0.0016596397617831826, -0.05316593497991562, 0.09363080561161041, 0.11796610057353973, 0.07750970125198364, -0.08436334878206253, 0.035767193883657455, -0.0022687825839966536, 0.04073670506477356, 0.06900840252637863, 0.12130683660507202, 0.03373399376869202, 0.06328319013118744, -0.049664247781038284, 0.0878080353140831, 0.04296544939279556, 0.1239030733704567, -0.0072123464196920395, 0.10349045693874359, 0.0013500680215656757, 0.014414679259061813, 0.10647617280483246, 0.10282638669013977, 0.09900439530611038, -0.06224076449871063, -0.07200364768505096, -0.0814514011144638, -0.054794542491436005, 0.10335062444210052, 0.09946892410516739, 0.061341043561697006, -0.028613505885004997, 0.0677432045340538, 0.0394178070127964, -0.12586483359336853, 0.000993699999526143, 0.0747143104672432, -0.017534950748085976, -0.11553863435983658, -0.015919946134090424, 0.10420729964971542, -0.04116982966661453, -0.10454618185758591, 0.12450745701789856, 0.018678750842809677, 0.02367774024605751, 0.012890886515378952, 0.02636043354868889, -0.08740711957216263, -0.10781867802143097, -0.025004560127854347, -0.016613677144050598, -0.12910817563533783, 0.1279979944229126, -0.06921559572219849, -0.1284363865852356, 0.0008972332580015063, -0.042730797082185745, -0.034620556980371475, -0.10592775791883469, 0.08123177289962769, -0.08614688366651535, -0.023349503055214882, 0.10280703008174896, 0.09545168280601501, 0.12265080213546753, -0.06308721750974655, 0.06428757309913635, -0.06476006656885147, -0.09047054499387741, 0.007690563332289457, 0.04470434412360191, 0.0946822464466095, -0.0713164433836937, -0.006570062600076199, 0.005120055750012398, -0.06168850511312485, 0.0839306190609932, -0.101032555103302, -0.12566158175468445, -0.017093244940042496, 0.03908080235123634, -0.09659644216299057, 0.11003459244966507, 0.08445072919130325, -0.054099928587675095, -0.04776689037680626, -0.014143701642751694, 0.11716428399085999, -0.009980268776416779, 0.06244155392050743, -0.08080466836690903, -0.020472969859838486, 0.09860161691904068, 0.04827136918902397, 0.026090918108820915, -0.036691803485155106, -0.012426847591996193, 0.10874924063682556, -0.03050428442656994, -0.027929218485951424, 0.11574912071228027, 0.0009833499789237976, 0.1160118356347084, 0.03487998619675636, 0.04040514677762985, 0.052247434854507446, 0.13183259963989258, -0.07230021804571152, 0.04299116134643555, -0.08640919625759125, 0.07563505321741104, 0.11339161545038223, 0.08633531630039215, 0.03545809164643288, 0.10692361742258072, -0.01681184023618698, -0.032242562621831894, 0.02555256150662899, -0.040134914219379425, 0.05316914618015289, -0.036795277148485184, -0.1233162134885788, 0.01720922812819481, 0.11105227470397949, -0.08772949129343033, 0.09465774893760681, -0.04975258931517601, -0.07738027721643448, 0.05924716591835022, 0.032332293689250946, -0.04033903777599335, 0.10183948278427124, -0.01094342116266489, 0.0905994400382042, 0.014228450134396553, 0.10593997687101364, -0.06041078642010689, -0.041056595742702484, 0.03829424828290939, -0.0016640470130369067, -0.05753334239125252, -0.09777531027793884, 0.07209309190511703, 0.0581994466483593, -0.008917659521102905, 0.11302140355110168, -0.034103937447071075, 0.045774657279253006, 0.007489957381039858, 0.0732007622718811, 0.03960616886615753, 0.05341595038771629, 0.03098011016845703, 0.0851471945643425, -0.0042511834762990475, -0.039930861443281174, 0.062107767909765244, -0.09468383342027664, -0.11080335080623627, -0.08284497261047363, -0.10280068218708038, -0.07826966047286987, -0.02616092748939991, -0.0016513935988768935, -0.05588588863611221, -0.04303447902202606, 0.06591169536113739, -0.022669104859232903, 0.05284935608506203, -0.09885618090629578, -0.1300659328699112, -0.086793914437294, 0.010223744437098503, 0.057708434760570526, 0.05195397138595581, -0.014644327573478222, 0.08542872965335846, -0.09308596700429916, -0.07615562528371811, -0.037218064069747925, 0.0522233285009861, -0.05509078502655029, 0.025115353986620903, -0.11574559658765793, -0.015287666581571102, 0.1131812259554863, -0.024392014369368553, -0.11985252052545547, 0.055165305733680725, -0.07637807726860046, 0.014554078690707684, -0.058181725442409515, 0.10488788038492203, -0.06500612199306488, -0.010165237821638584, -0.008943106047809124, 0.011145895346999168, -0.04138566553592682, 0.08151976019144058, 0.0330132320523262, 0.0102608697488904, -0.011458652094006538, 0.0012664617970585823, -0.01013890653848648, 0.08884764462709427, -0.11311668902635574, -0.01575401797890663, 0.003179307794198394, -0.01730981469154358, 0.07723443955183029, -0.013494422659277916, 0.015110007487237453, 0.04377872869372368, 0.08015407621860504, 0.013096796348690987, -0.057569533586502075, 0.07341783493757248, 0.0278660599142313, 0.13007551431655884, -0.10246863216161728, -0.051766689866781235, -0.12727892398834229, 0.04829731956124306, -0.10402942448854446, 0.07375951111316681, -0.11410439014434814, 0.0013779305154457688, -0.04118531197309494, -0.10105213522911072, -0.04660681262612343, -0.04267042502760887, -0.09324343502521515, -0.026152098551392555, -0.06807546317577362, -0.008224442601203918, -0.10903292149305344, 0.06142629683017731, -0.01433049887418747, 0.09314236044883728, -0.11491213738918304, -0.04149915650486946, 0.09744370728731155, -0.06975819915533066, 0.13036122918128967, -0.05028345063328743, -0.03260529413819313, 0.0276230126619339, -0.08903166651725769, -0.09713142365217209, 0.03829951211810112, 0.029291462153196335, 0.04342497140169144, -0.0783209353685379, -0.0866377130150795, -0.10435458272695541, -0.13023199141025543, 0.035591818392276764, -0.0956638976931572, -0.09133162349462509, -0.0027123114559799433, -0.09975297749042511, 0.01354352105408907, 0.09544095396995544, -0.10955286026000977, -0.01033507939428091, 0.009610770270228386, -0.02011527307331562, 0.059618741273880005, 0.05678001791238785, -0.006062162574380636, -0.05783011019229889, -0.00667237164452672, -0.06594682484865189, 0.05937367305159569, -0.035072650760412216, 0.070395827293396, 0.12436996400356293, -0.019532810896635056, 0.007001237478107214, 0.051040954887866974, -0.11062505841255188, -0.08450210094451904, 0.06986545026302338, 0.035534631460905075, 0.11484107375144958, 0.08867007493972778, 0.09262535721063614, -0.034673817455768585, -0.07962671667337418, -0.08509127050638199, -0.10164152085781097, -0.026170644909143448, -0.09280089288949966, 0.05247766152024269, -0.09828542917966843, -0.05994902178645134, -0.10901115834712982, 0.00060535833472386, 0.11895959079265594, -0.0108029181137681, -0.0811263769865036, -0.06584732234477997, -0.06154581159353256, -0.1241523027420044, 0.09024015814065933, 0.10816153138875961, -0.08822740614414215, 0.07188281416893005, 0.02937016263604164, -0.07629525661468506, 0.08988089114427567, -0.098752960562706, -0.05145513638854027, -0.08498729765415192, 0.06350930780172348, 0.0840534195303917, -0.0043721371330320835, -0.1304536908864975, -0.0682743564248085, -0.07610180974006653, 0.0020784365478903055, -0.03182033449411392, -0.00800939928740263, 0.061112940311431885, 0.05224018171429634, -0.04868345335125923, 0.11822506785392761, 0.06338101625442505, 0.11268848180770874, 0.0846320316195488, 0.09277595579624176, 0.021639520302414894, -0.10969334095716476, -0.039595164358615875, 0.11308898031711578, 0.10146945714950562, 0.022615628316998482, 0.06563974916934967, -0.10120036453008652, 0.09713029116392136, 0.11100170761346817, -0.0851830393075943, 0.05367343872785568, 0.10438665002584457, 0.04114633426070213, -0.11883167177438736, -0.056305211037397385, 0.06844315677881241, -0.07656305283308029, 0.014974679797887802, 0.09197250008583069, -0.029691524803638458, 0.06252587586641312, -0.052689459174871445, 0.1177123486995697, 0.052209898829460144, 0.09797298908233643, -0.02042441815137863, 0.05947199836373329, 0.045834023505449295, -0.08001424372196198, 0.03164118528366089, 0.04742656275629997, 0.08073200285434723, -0.018537089228630066, 0.12959671020507812, 0.05671340972185135, 0.12837259471416473, 0.03520534932613373, 0.11025076359510422, -0.1021210253238678, -0.012148013338446617, -0.09050539135932922, -0.032152265310287476, 0.12104742974042892, 0.05858810618519783, 0.10841794312000275, -0.09527437388896942, 0.008818098343908787, -0.08839716017246246, -0.07028637826442719, -0.04180175065994263, -0.03189575672149658, -0.1247173473238945, -0.13056713342666626, 0.11788398772478104, -0.05741589888930321, -0.11276353895664215, -0.09332086890935898, 0.019661234691739082, -0.015875060111284256, 0.020556636154651642, -0.07072458416223526, -0.005846379790455103, 0.007109250873327255, 0.09650633484125137, 0.08019758760929108, 0.020432401448488235, -0.1190176010131836, 0.023602532222867012, -0.008325181901454926, 0.06834297627210617, 0.0438404306769371, 0.04272077977657318, 0.027401629835367203, -0.10615132004022598, 0.01440106239169836, 0.0473674051463604, -0.07345578074455261, 0.05332004278898239, 0.025086181238293648, 0.10773453861474991, 0.020049752667546272, 0.09582088887691498, -0.08684974163770676, 0.05352703854441643, 0.11410227417945862, -7.266015745699406e-05, 0.05006643384695053, 0.05519229918718338, -0.05716533213853836, 0.06888999044895172, -0.11881871521472931, -0.05374004691839218, -0.04392625764012337, 0.03628644719719887, 0.07143291085958481, -0.08857947587966919, -0.015459038317203522, 0.10084880888462067, -0.0695224180817604, 0.0312411580234766, -0.008622760884463787, -0.09708791226148605, -0.02124781161546707, 0.0957326740026474, 0.06297469139099121, 0.11840838193893433, 0.04620366171002388, -0.09009204804897308, 0.07030756771564484, 0.07387784868478775, -0.017277026548981667, -0.12035053223371506, 0.08743470907211304, -0.07263848930597305, 0.10625557601451874, 0.09547572582960129, 0.03907003998756409, -0.04654904827475548, 0.05211351439356804, 0.05862189456820488, 0.03040952980518341, -0.04663533717393875, 0.06493636220693588, 0.11426869034767151, 0.0405629500746727, 0.1157846599817276, -0.057069938629865646, 0.052737656980752945, 0.04553020000457764, -0.039413414895534515, -0.02953316457569599, 0.12934260070323944, -0.008905072696506977, -0.12509287893772125, 0.11350510269403458, -0.024300523102283478, -0.1247597336769104, -0.1307700127363205, 0.06666208058595657, 0.1074630543589592, 0.0654967725276947, -0.12186526507139206, 0.07912791520357132, 0.04926693066954613, -0.0736917108297348, -0.00407086405903101, -0.09892609715461731, -0.035309869796037674, 0.07460339367389679, 0.09757278859615326, -0.0682619959115982, 0.11756841093301773, -0.11819729954004288, 0.0344139039516449, 0.050870999693870544, -0.01793769747018814, -0.025711556896567345, 0.035824503749608994, 0.10732819139957428, -0.09399920701980591, -0.08215224742889404, 0.11275512725114822, -0.10515502840280533, 0.04821999743580818, 0.08575037866830826, -0.07595977932214737, -0.06382863968610764, 0.005539851728826761, -0.017677804455161095, 0.08441463112831116, 0.08716762810945511, 0.06943970918655396, 0.08119112253189087, 0.08258428424596786, -0.028915464878082275, -0.1153789758682251, 0.0686071515083313, 0.015775591135025024, 0.0005549180204980075, -0.07231751084327698, 0.05161475017666817, 0.024876195937395096, -0.07043151557445526, -0.07077618688344955, 0.0673539787530899, 0.09966816008090973, 0.04383076727390289, 0.09909415990114212, -0.010783436708152294, 0.04153492674231529, 0.0791526585817337, -0.09662503004074097, -0.03100612573325634, -0.09918496012687683, -0.04879739508032799, -0.08613850176334381, 0.09882769733667374, -0.0941547229886055, -0.012332620099186897, -0.015247849747538567, 0.1003689393401146, -0.08056080341339111, 0.10883690416812897, 0.047844767570495605, -0.11900132149457932, 0.0007991690654307604, 0.0863017588853836, 0.022952573373913765, 0.10929132252931595, -0.10424912720918655, 0.11450237035751343, -0.050500430166721344, 0.029459504410624504, -0.05075553059577942, 0.035102732479572296, 0.07632570713758469, 0.025684334337711334, 0.050515346229076385, -0.06620457023382187, 0.032292380928993225, -0.04035205766558647, 0.020676108077168465, -0.07871439307928085, 0.11146238446235657, 0.07686825096607208, -0.06645195931196213, 0.0869922861456871, 0.09157564491033554, 0.09600020200014114, 0.0604492723941803, -0.01161239854991436, -0.07354656606912613, 0.0800229012966156, 0.05797061324119568, 0.0008976241224445403, 0.08699212223291397, 0.1266862154006958, -0.10424858331680298, -0.0234917551279068, 0.020272372290492058, 0.07286487519741058, 0.03342830762267113, -0.09279294312000275, 0.017682459205389023, -0.13104240596294403, -0.05095432326197624, -0.03678362816572189, -0.10056250542402267, 0.05641300231218338, -0.0006791885825805366, 0.03601428121328354, 0.11591459810733795, 0.08398538082838058, 0.08703286945819855, -0.04870183765888214, 0.10609003901481628, -0.0933459997177124, -0.050408996641635895, -0.08177748322486877, 0.03025185503065586, 0.11024810373783112, 0.03963933140039444, 0.12464519590139389, 0.08408695459365845, 0.08891578763723373, 0.002369092544540763, -0.10973189771175385, 0.06325029581785202, 0.007399423513561487, 0.11341330409049988, -0.0737210065126419, 0.020342787727713585, -0.08361583203077316, 0.06056734919548035, 0.1297910362482071, 0.014403537847101688, 0.12677471339702606, 0.12310133129358292, 0.02249222621321678, -0.007038111332803965, -0.042941611260175705, -0.01968899555504322, -0.0555126927793026, 0.016213536262512207, 0.09350986778736115, -0.05909000337123871, 0.05660238489508629, 0.07621408998966217, 0.02171403355896473, 0.007994184270501137, -0.09506174921989441, 0.07488380372524261, -0.005329672247171402, -0.021029796451330185, -0.07141274213790894, 0.005237201228737831, -0.06346066296100616, 0.005114834755659103, -0.053734324872493744, 0.11848220974206924, -0.016116028651595116, -0.1143001914024353, 0.03821304813027382, -0.12652313709259033, 0.13404935598373413, 0.11875952780246735, -0.09766284376382828, 0.08705682307481766, -0.13140763342380524, -0.09234758466482162, -0.06203224137425423, -0.1041058897972107, -0.09887514263391495, -0.02564101479947567, 0.10614245384931564, -0.10060598701238632, -0.06606309115886688, 0.00730309821665287, 0.09532495588064194, -0.00022791165974922478, -0.08187878131866455, 0.07811060547828674, -0.08525209128856659, 0.13109156489372253, 0.004847654607146978, -0.11717797070741653, 0.05150292441248894, -0.08786617964506149, -0.05389843508601189, -0.13024552166461945, -0.10299909859895706, 0.0061414712108671665, 0.07068853825330734, 0.03474535420536995, 0.07038889080286026, 0.026158668100833893, 0.128116175532341, -0.06307061016559601, 0.1201029121875763, -0.09666606038808823, 0.13102594017982483, -0.08729148656129837, -0.09481324255466461, -0.11114149540662766, 0.04192981496453285, 0.06809711456298828, 0.07729083299636841, -0.12878790497779846, 0.03259703889489174, -0.13270339369773865, -0.08283554017543793, 0.00628482922911644, -0.019109603017568588, 0.13232257962226868, -0.07683699578046799, 0.12686827778816223, -0.11785222589969635, -0.07190815359354019, -0.10991057753562927, -0.04903910309076309, -0.0529765747487545, -0.0358910970389843, -0.06852177530527115, -0.004499068483710289, -0.015168463811278343, -0.05362854152917862, 0.04678385332226753, 0.07912963628768921, 0.05440535023808479, -0.08822468668222427, -0.13692942261695862, 0.04180167242884636, -0.06579091399908066, -0.07222594320774078, 0.13199707865715027, 0.09710138291120529, -0.06161689758300781, -0.11070729792118073, -0.10371214896440506, 0.0970671996474266, 0.014855682849884033, -0.019549356773495674, 0.006157832220196724, 0.03536419942975044, 0.08147132396697998, -0.08346103131771088, 0.03233039751648903, -0.0865156352519989, 0.09168888628482819, -0.10991104692220688, 0.10017909854650497, -0.11920244991779327, 0.1129235029220581, 0.05152515694499016, -0.08272571861743927, -0.033688951283693314, -0.04278639703989029, 0.09673509746789932, -0.02782084234058857, -0.08888252824544907, -0.016262179240584373, 0.09018370509147644, 0.023151300847530365, -0.020947646349668503, -0.06990691274404526, 0.02760121040046215, 0.07196094840765, 0.02225189097225666, -0.08434535562992096, 0.03440799564123154, -0.013101383112370968, 0.040147654712200165, -0.005406251177191734, -0.017568010836839676, -0.09414359927177429, 0.07224059849977493, 0.11763366311788559, 0.0944712683558464, 0.011942925862967968, 0.005160402972251177, 0.01584979146718979, -0.10193490982055664, -0.11962834000587463, -0.060734864324331284, 0.06306203454732895, -0.04173953831195831, 0.08250976353883743, -0.12350597232580185, -0.08730874210596085, -0.09197979420423508, 0.06486480683088303, -0.09674214571714401, -0.08944050967693329, -0.11052937060594559, 0.10150230675935745, 0.008763035759329796, -0.06817376613616943, 0.12511925399303436, 0.03236225247383118, -0.0668194591999054, 0.03818667680025101, 0.036600302904844284, -0.016110628843307495, -0.043026138097047806, -0.03456991910934448, -0.019505459815263748, -0.09131907671689987, 0.11889593303203583, -0.021365944296121597, -0.025291122496128082, -0.01782410591840744, -0.007109004072844982, -0.07252048701047897, 0.02317088283598423, 0.057384591549634933, 0.0374588705599308, 0.0895259752869606, -0.1261703073978424, -0.1074022501707077, -0.07354235649108887, -0.03768189251422882, -0.021917257457971573, -0.0194815956056118, 0.007004150189459324, 0.11223848909139633, -0.13725939393043518, -0.08351731300354004, -0.05216928571462631, 0.013473434373736382, 0.059853795915842056, -0.019152648746967316, 0.043626341968774796, 0.11026037484407425, 0.11180926114320755, -0.0489811971783638, -0.01183780375868082, -0.0027326541021466255, 0.035533785820007324, 0.11304120719432831, 0.11498666554689407, 0.010001983493566513, 0.08494337648153305, 0.02591630071401596, -0.10638315975666046, -0.016107387840747833, 0.015175511129200459, 0.0016464546788483858, 0.04035000875592232, -0.06769222021102905, -0.08209095150232315, 0.11040656268596649, 0.023885972797870636, -0.10553824156522751, -0.06992211937904358, 0.057523004710674286, 0.04242943227291107, 0.05072804167866707, -0.07667829096317291, -0.06259535998106003, -0.010828549973666668, -0.045360371470451355, 0.07945644855499268, -0.10725831985473633, 0.08498099446296692, -0.07657058537006378, 0.07906368374824524, 0.07601790130138397, -0.016995787620544434, -0.012124896049499512, 0.0766526460647583, 0.050260141491889954, -0.01911107636988163, -0.046051274985075, 0.07178523391485214, 0.004120823927223682, 0.03426700457930565, 0.043103039264678955, 0.01751554012298584, -0.03216235712170601, 0.09575363993644714, 0.030872667208313942, -0.03251006454229355, -0.018570395186543465, 0.04165780171751976, 0.036261167377233505, 0.10039573162794113, -0.025556854903697968, 0.029704440385103226, -0.10174611210823059, 0.031938422471284866, 0.0812188908457756, 0.1226450502872467, 0.016845205798745155, -0.010188460350036621, -0.048307497054338455, 0.08928041905164719, 0.07968536019325256, -0.039858005940914154, -0.11837329715490341, 0.07066754996776581, 0.019136255607008934, -0.02397530898451805, 0.021274922415614128, -0.03840533271431923, -0.09764537215232849, -0.02061774767935276, 0.06422079354524612, 0.016852136701345444, -0.029246648773550987, -0.007003028877079487, 0.0775490552186966, -0.1109776571393013, -0.042579878121614456, -0.05326405167579651, -0.09343799948692322, 0.053625255823135376, 0.09339208155870438, -0.08220257610082626, -0.059279102832078934, 0.09689288586378098, -0.0044924421235919, -0.04460734501481056, 0.1308809071779251, 0.10714400559663773, -0.012635340914130211, 0.03981619328260422, 0.10968060046434402, -0.02159320004284382, 0.0852857232093811, 0.09546615183353424, 0.1036476418375969, -0.10233337432146072, 0.1049966886639595, 0.05931548401713371, -0.04759163782000542, 0.03136514872312546, 0.00086855364497751, -0.10994552820920944, 0.0653938353061676, 0.01927172765135765, 0.08569853007793427, -0.11101356893777847, 0.03780876845121384, 0.09154830873012543, 0.11782314628362656, -0.08698859810829163, 0.017772728577256203, -0.007439970504492521, 0.08219417929649353, 0.09467737376689911, -0.02442377246916294, -0.06999459117650986, -0.06728488951921463, 0.12769223749637604, -0.05624362826347351, 0.09112454950809479, -0.06400546431541443, -0.13133908808231354, -0.11593280732631683, 0.07001706212759018, -0.1221318393945694, -0.030678749084472656, -0.006003099028021097, -0.06329246610403061, -0.00809734221547842, -0.01462525688111782, -0.060724370181560516, 0.006557650864124298, -0.07566890120506287, -0.04336823895573616, 0.054692305624485016, -0.0008159017306752503, 0.1054108738899231, 0.07046892493963242, 6.906728231115267e-06, 0.03965258225798607, 0.0274365171790123, -0.08500233292579651, -0.09095905721187592, -0.013590828515589237, 0.05045221745967865, 0.02039996162056923, -0.12189943343400955, -0.0001823662023525685, 0.0881829485297203, 0.05166727304458618, 0.10440149158239365, -0.028801588341593742, 0.12594883143901825, -0.042752016335725784, 0.09235430508852005, -0.07336793839931488, 0.07239895313978195, 0.04560874029994011, 0.10976976901292801, 0.02898748777806759, 0.05595313757658005, 0.0032186394091695547, -0.09530410915613174, -0.10070624202489853, -0.053751930594444275, -0.028718717396259308, 0.0053968243300914764, 0.07749704271554947, 0.08043580502271652, -0.0031208025757223368, 0.09770425409078598, 0.09532880038022995, -0.04815122112631798, -0.11312644928693771, 0.004830880090594292, -0.04898602142930031, -0.0993918851017952, 0.08182370662689209, 0.1012185662984848, 0.02696811780333519, 0.020926333963871002, -0.07857224345207214, 0.0762074813246727, -0.10438121110200882, -0.07300717383623123, 0.09456413239240646, 0.08858276158571243, 0.0986756905913353, -0.014808900654315948, 0.04598359018564224, -0.016219817101955414, -0.026391541585326195, 0.13000613451004028, 0.08365742117166519, 0.1165274903178215, 0.10145386308431625, 0.10336291044950485, -0.026675144210457802, 0.07144461572170258, 0.020896151661872864, -0.09169451892375946, -0.010804494842886925, 0.045794691890478134, -0.07318636029958725, 0.10903196036815643, -0.084848552942276, 0.11794200539588928, 0.00014554978406522423, 0.1078060120344162, 0.012096279300749302, 0.045120660215616226, 0.020301489159464836, -0.05739711597561836, -0.06962703913450241, -0.12594757974147797, 0.08408349752426147, -0.05486823245882988, -0.10478132963180542, -0.11479651927947998, -0.11418969184160233, -0.02311656065285206, -0.06411218643188477, -0.047736141830682755, -0.11692553013563156, -0.08069522678852081, 0.06743232160806656, -0.020729251205921173, 0.03491242229938507, 0.0143019063398242, 0.1338648796081543, -0.0012585013173520565, 0.11573364585638046, 0.004463746678084135, -0.04720287770032883, -0.0012220782227814198, 0.08066069334745407, 0.06731070578098297, 0.07829197496175766, 0.07799520343542099, -0.11243251711130142, 0.11452518403530121, -0.058203935623168945, 0.05433081090450287, -0.02212071791291237, 0.07843541353940964, 0.11011124402284622, -0.04619702696800232, -0.03198843449354172, -0.041020262986421585, 0.03083081543445587, 0.11393405497074127, 0.09845142066478729, -0.1047464981675148, -0.06043391302227974, -0.04294787719845772, 0.11929647624492645, -0.07194133847951889, 0.01521430816501379, 0.09084366261959076, 0.08835143595933914, 0.05852135270833969, -0.11285332590341568, 0.057529475539922714, -0.015945687890052795, 0.04885072633624077, -0.10403545200824738, 0.03235022351145744, 0.07457263767719269, -0.09821749478578568, 0.0019807841163128614, -0.02807915024459362, -0.016349785029888153, -0.10394156724214554, -0.12494181841611862, -0.10491073876619339, -0.04960617795586586, 0.06852918118238449, 0.09573680907487869, -0.08221007138490677, 0.13061316311359406, 0.022771546617150307, -0.05727263167500496, -0.12329242378473282, 0.007830973714590073, -0.06382149457931519, 0.06884851306676865, -0.003702822607010603, 0.08161735534667969, -0.08838709443807602, -0.005959908477962017, 0.049122005701065063, 0.04844074696302414, -0.11876470595598221, -0.06971026211977005, 0.042488422244787216, -0.04281054437160492, 0.05907008424401283, -0.0333370678126812, 0.027225209400057793, 0.017307907342910767, 0.014245155267417431, -0.09381953626871109, 0.013657202012836933, 0.08904866129159927, 0.026117295026779175, 0.02329602651298046, -0.05667461082339287, 0.06811978667974472, -0.09302248060703278, 0.074966199696064, 0.04826642572879791, 0.12678776681423187, 0.07736185193061829, -0.06524601578712463, -0.005056002177298069, 0.029777277261018753, 0.10042406618595123, -0.03626064956188202, 0.049494098871946335, -0.11330883204936981, 0.012416736222803593, 0.09713184833526611, 0.0015792874619364738, 0.11440536379814148, 0.11710161715745926, -0.0706082135438919, -0.002101679565384984, -0.1256447583436966, 0.01950095035135746, -0.03413776308298111, 0.09574863314628601, 0.033497393131256104, 0.0852283462882042, -0.05993308499455452, -0.04813818261027336, -0.03014477528631687, 0.055061399936676025, 0.03706935793161392, -0.1283084750175476, 0.08231200277805328, 0.078740194439888, -0.0981096476316452, -0.09354240447282791, 0.08667989075183868, -0.042926207184791565, 0.06322932243347168, -0.0539056658744812, 0.07135102897882462, 0.09845751523971558, -0.019113730639219284, 0.1121547520160675, -0.04993409663438797, 0.020250756293535233, -0.024896597489714622, -0.04073341563344002, -0.03235882148146629, 0.00869495328515768, 0.10444749891757965, -0.07442724704742432, -0.1241479218006134, 0.07838457077741623, 0.09087332338094711, 0.04143696650862694, 0.1230054497718811, -0.0014931109035387635, -0.09794479608535767, -0.0009335543727502227, 0.003728424897417426, 0.04585757851600647, 0.10117219388484955, 0.08705365657806396, -0.03432130813598633, 0.008378513157367706, -0.06494562327861786, -0.0025411543902009726, -0.0562942735850811, -0.08296778798103333, 0.10834499448537827, -0.03196294978260994, -0.06595678627490997, -0.06996873021125793, -0.0633029192686081, -0.09413635730743408, -0.0976756140589714, -0.07483366131782532, 0.034211043268442154, 0.06496427953243256, 0.06351249665021896, -0.10745464265346527, -0.037554286420345306, 0.055900584906339645, -0.01465855073183775, 0.018157098442316055, 0.03398725762963295, -0.025209562852978706, 0.07205826789140701, 0.08863082528114319, 0.017677458003163338, -0.07552214711904526, 0.08326803892850876, 0.12828727066516876, 0.0533786378800869, 0.11736986041069031, -0.008259857073426247, 0.11690786480903625, 0.08711164444684982, 0.11830702424049377, 0.11053627729415894, -0.0670025572180748, -0.029761886224150658, 0.0848243460059166, -0.05832134187221527, -0.07225184887647629, 0.020538389682769775, -0.09064061939716339, -0.11286868155002594, -0.06296011060476303, 0.06287791579961777, -0.08779849857091904, -0.06971944123506546, 0.07150759547948837, -0.08847744762897491, -0.0066577717661857605, 0.12500448524951935, 0.08971833437681198, -0.04921766370534897, 0.024344448000192642, -0.005966174881905317, 0.06381738930940628, 0.09379926323890686, -0.0557236522436142, 0.012384910136461258, 0.06980060786008835, 0.015156814828515053, 0.05077926069498062, 0.06166422367095947, 0.1118248701095581, -0.1363302320241928, -0.10511968284845352, -0.13574236631393433, -0.06638365983963013, -0.0990675538778305, 0.1043679490685463, 0.017802970483899117, -0.12266215682029724, 0.04359440132975578, 0.10434159636497498, -0.08791625499725342, 0.09251736849546432, -0.04788617044687271, 0.07771039009094238, -0.10466442257165909, -0.027563512325286865, 0.047930143773555756, -0.05182720348238945, 0.05223358795046806, 0.08918869495391846, 0.11563130468130112, -0.032268404960632324, -0.06448086351156235, -0.052846699953079224, 0.06982583552598953, -0.02082841843366623, 0.06516319513320923, -0.08293301612138748, 0.036735087633132935, -0.08498051762580872, 0.002435024594888091, -0.05051980912685394, 0.050692133605480194, -0.01997222751379013, -0.042669106274843216, 0.031092731282114983, -0.11492332071065903, -0.0969449132680893, 4.432944115251303e-05, 0.1085539385676384, 0.019247200340032578, 0.10209773480892181, 0.065557561814785, -0.13252010941505432, -0.04371234402060509, -0.012826823629438877, -0.06916047632694244, -0.04778681695461273, 0.0671454519033432, 0.07717777788639069, 0.05764028802514076, -0.1346147060394287, 0.010847130790352821, -0.07974062114953995, 0.01558397151529789, -0.07030092924833298, -0.10332925617694855, 0.03566674143075943, 0.08987744152545929, -0.07318807393312454, -0.07097768783569336, 0.08954347670078278, 